{"learner":{"attributes":{},"feature_names":[],"feature_types":[],"gradient_booster":{"model":{"cats":{"enc":[],"feature_segments":[],"sorted_idx":[]},"gbtree_model_param":{"num_parallel_tree":"1","num_trees":"1200"},"iteration_indptr":[0,6,12,18,24,30,36,42,48,54,60,66,72,78,84,90,96,102,108,114,120,126,132,138,144,150,156,162,168,174,180,186,192,198,204,210,216,222,228,234,240,246,252,258,264,270,276,282,288,294,300,306,312,318,324,330,336,342,348,354,360,366,372,378,384,390,396,402,408,414,420,426,432,438,444,450,456,462,468,474,480,486,492,498,504,510,516,522,528,534,540,546,552,558,564,570,576,582,588,594,600,606,612,618,624,630,636,642,648,654,660,666,672,678,684,690,696,702,708,714,720,726,732,738,744,750,756,762,768,774,780,786,792,798,804,810,816,822,828,834,840,846,852,858,864,870,876,882,888,894,900,906,912,918,924,930,936,942,948,954,960,966,972,978,984,990,996,1002,1008,1014,1020,1026,1032,1038,1044,1050,1056,1062,1068,1074,1080,1086,1092,1098,1104,1110,1116,1122,1128,1134,1140,1146,1152,1158,1164,1170,1176,1182,1188,1194,1200],"tree_info":[0,1,2,3,4,5,0,1,2,3,4,5,0,1,2,3,4,5,0,1,2,3,4,5,0,1,2,3,4,5,0,1,2,3,4,5,0,1,2,3,4,5,0,1,2,3,4,5,0,1,2,3,4,5,0,1,2,3,4,5,0,1,2,3,4,5,0,1,2,3,4,5,0,1,2,3,4,5,0,1,2,3,4,5,0,1,2,3,4,5,0,1,2,3,4,5,0,1,2,3,4,5,0,1,2,3,4,5,0,1,2,3,4,5,0,1,2,3,4,5,0,1,2,3,4,5,0,1,2,3,4,5,0,1,2,3,4,5,0,1,2,3,4,5,0,1,2,3,4,5,0,1,2,3,4,5,0,1,2,3,4,5,0,1,2,3,4,5,0,1,2,3,4,5,0,1,2,3,4,5,0,1,2,3,4,5,0,1,2,3,4,5,0,1,2,3,4,5,0,1,2,3,4,5,0,1,2,3,4,5,0,1,2,3,4,5,0,1,2,3,4,5,0,1,2,3,4,5,0,1,2,3,4,5,0,1,2,3,4,5,0,1,2,3,4,5,0,1,2,3,4,5,0,1,2,3,4,5,0,1,2,3,4,5,0,1,2,3,4,5,0,1,2,3,4,5,0,1,2,3,4,5,0,1,2,3,4,5,0,1,2,3,4,5,0,1,2,3,4,5,0,1,2,3,4,5,0,1,2,3,4,5,0,1,2,3,4,5,0,1,2,3,4,5,0,1,2,3,4,5,0,1,2,3,4,5,0,1,2,3,4,5,0,1,2,3,4,5,0,1,2,3,4,5,0,1,2,3,4,5,0,1,2,3,4,5,0,1,2,3,4,5,0,1,2,3,4,5,0,1,2,3,4,5,0,1,2,3,4,5,0,1,2,3,4,5,0,1,2,3,4,5,0,1,2,3,4,5,0,1,2,3,4,5,0,1,2,3,4,5,0,1,2,3,4,5,0,1,2,3,4,5,0,1,2,3,4,5,0,1,2,3,4,5,0,1,2,3,4,5,0,1,2,3,4,5,0,1,2,3,4,5,0,1,2,3,4,5,0,1,2,3,4,5,0,1,2,3,4,5,0,1,2,3,4,5,0,1,2,3,4,5,0,1,2,3,4,5,0,1,2,3,4,5,0,1,2,3,4,5,0,1,2,3,4,5,0,1,2,3,4,5,0,1,2,3,4,5,0,1,2,3,4,5,0,1,2,3,4,5,0,1,2,3,4,5,0,1,2,3,4,5,0,1,2,3,4,5,0,1,2,3,4,5,0,1,2,3,4,5,0,1,2,3,4,5,0,1,2,3,4,5,0,1,2,3,4,5,0,1,2,3,4,5,0,1,2,3,4,5,0,1,2,3,4,5,0,1,2,3,4,5,0,1,2,3,4,5,0,1,2,3,4,5,0,1,2,3,4,5,0,1,2,3,4,5,0,1,2,3,4,5,0,1,2,3,4,5,0,1,2,3,4,5,0,1,2,3,4,5,0,1,2,3,4,5,0,1,2,3,4,5,0,1,2,3,4,5,0,1,2,3,4,5,0,1,2,3,4,5,0,1,2,3,4,5,0,1,2,3,4,5,0,1,2,3,4,5,0,1,2,3,4,5,0,1,2,3,4,5,0,1,2,3,4,5,0,1,2,3,4,5,0,1,2,3,4,5,0,1,2,3,4,5,0,1,2,3,4,5,0,1,2,3,4,5,0,1,2,3,4,5,0,1,2,3,4,5,0,1,2,3,4,5,0,1,2,3,4,5,0,1,2,3,4,5,0,1,2,3,4,5,0,1,2,3,4,5,0,1,2,3,4,5,0,1,2,3,4,5,0,1,2,3,4,5,0,1,2,3,4,5,0,1,2,3,4,5,0,1,2,3,4,5,0,1,2,3,4,5,0,1,2,3,4,5,0,1,2,3,4,5,0,1,2,3,4,5,0,1,2,3,4,5,0,1,2,3,4,5,0,1,2,3,4,5,0,1,2,3,4,5,0,1,2,3,4,5,0,1,2,3,4,5,0,1,2,3,4,5,0,1,2,3,4,5,0,1,2,3,4,5,0,1,2,3,4,5,0,1,2,3,4,5,0,1,2,3,4,5,0,1,2,3,4,5,0,1,2,3,4,5,0,1,2,3,4,5,0,1,2,3,4,5,0,1,2,3,4,5,0,1,2,3,4,5,0,1,2,3,4,5,0,1,2,3,4,5,0,1,2,3,4,5,0,1,2,3,4,5,0,1,2,3,4,5,0,1,2,3,4,5,0,1,2,3,4,5,0,1,2,3,4,5,0,1,2,3,4,5,0,1,2,3,4,5,0,1,2,3,4,5,0,1,2,3,4,5,0,1,2,3,4,5,0,1,2,3,4,5,0,1,2,3,4,5,0,1,2,3,4,5,0,1,2,3,4,5,0,1,2,3,4,5,0,1,2,3,4,5,0,1,2,3,4,5,0,1,2,3,4,5,0,1,2,3,4,5,0,1,2,3,4,5,0,1,2,3,4,5,0,1,2,3,4,5,0,1,2,3,4,5,0,1,2,3,4,5,0,1,2,3,4,5,0,1,2,3,4,5,0,1,2,3,4,5,0,1,2,3,4,5,0,1,2,3,4,5,0,1,2,3,4,5,0,1,2,3,4,5,0,1,2,3,4,5,0,1,2,3,4,5,0,1,2,3,4,5,0,1,2,3,4,5,0,1,2,3,4,5],"trees":[{"base_weights":[3.861405E-6,-9.0973485E-1,5.2713776E-1,-9.5875484E-1,2.9257593E-1,7.0982337E-1,-2.2590631E-1,-9.801595E-2,-7.894852E-1,-8.8111514E-1,6.3158923E-1,8.549984E-1,5.6086725E-1,-8.1216E-2,-6.8732464E-1,-9.400496E-2,2.6687194E-2,-9.460865E-2,2.1198098E-2,7.4039035E-2,-3.4568384E-2,-8.296061E-2,8.592961E-2,7.45348E-2,4.3818563E-2,2.6559299E-2,-2.0880096E-2,-4.7605332E-2,-8.34538E-2],"categories":[],"categories_nodes":[],"categories_segments":[],"categories_sizes":[],"default_left":[0,0,0,0,0,0,0,0,0,0,0,0,0,0,0,0,0,0,0,0,0,0,0,0,0,0,0,0,0],"id":0,"left_children":[1,3,5,7,9,11,13,-1,15,17,19,21,23,25,27,-1,-1,-1,-1,-1,-1,-1,-1,-1,-1,-1,-1,-1,-1],"loss_changes":[4.3773174E3,1.9764258E2,7.9520874E2,1.0884277E1,5.305828E1,1.00100586E2,7.532294E1,0E0,5.8519592E1,2.3303356E0,1.1203484E1,1.775232E1,5.1695984E1,3.8137596E1,7.981392E0,0E0,0E0,0E0,0E0,0E0,0E0,0E0,0E0,0E0,0E0,0E0,0E0,0E0,0E0],"parents":[2147483647,0,0,1,1,2,2,3,3,4,4,5,5,6,6,8,8,9,9,10,10,11,11,12,12,13,13,14,14],"right_children":[2,4,6,8,10,12,14,-1,16,18,20,22,24,26,28,-1,-1,-1,-1,-1,-1,-1,-1,-1,-1,-1,-1,-1,-1],"split_conditions":[2.5378788E-1,6E-1,3.125E-1,4E-1,1.6700819E-1,1.76E-1,4.6E-1,-9.801595E-2,1.6700819E-1,4.95E-1,3.0666667E-1,4E-1,4E-1,5E-1,5.2E-1,-9.400496E-2,2.6687194E-2,-9.460865E-2,2.1198098E-2,7.4039035E-2,-3.4568384E-2,-8.296061E-2,8.592961E-2,7.45348E-2,4.3818563E-2,2.6559299E-2,-2.0880096E-2,-4.7605332E-2,-8.34538E-2],"split_indices":[1,4,0,4,1,0,0,0,1,3,0,4,1,3,0,0,0,0,0,0,0,0,0,0,0,0,0,0,0],"split_type":[0,0,0,0,0,0,0,0,0,0,0,0,0,0,0,0,0,0,0,0,0,0,0,0,0,0,0,0,0],"sum_hessian":[9.12589E3,3.3476758E3,5.7782144E3,3.2167275E3,1.309482E2,4.6501606E3,1.1280537E3,2.851372E3,3.6535547E2,2.8988533E1,1.0195967E2,2.3525693E3,2.297591E3,8.596599E2,2.6839383E2,3.1987347E2,4.548201E1,2.7489126E1,1.4994068E0,9.196362E1,9.996046E0,5.497825E0,2.3470715E3,9.156378E2,1.3819534E3,2.3090866E2,6.287513E2,1.1195571E2,1.5643811E2],"tree_param":{"num_deleted":"0","num_feature":"5","num_nodes":"29","size_leaf_vector":"1"}},{"base_weights":[1.3312281E-6,1.1232771E0,-5.25689E-1,1.2301855E0,6.31737E-1,1.646716E-1,-5.781444E-1,-5.601701E-1,1.2648637E0,7.699909E-1,5.861732E-1,-3.251537E-1,4.626471E-1,-4.3596938E-1,-6.634336E-1,-6.441081E-2,5.07271E-3,1.1785189E-1,1.5279913E-1,3.0367417E-2,8.419027E-2,7.053678E-2,5.139946E-2,-6.432771E-2,-2.2503978E-2,-4.0963154E-2,7.067772E-2,-5.0199527E-2,-1.799371E-2,-5.8299817E-2,-6.6526815E-2],"categories":[],"categories_nodes":[],"categories_segments":[],"categories_sizes":[],"default_left":[0,0,0,0,0,0,0,0,0,0,0,0,0,0,0,0,0,0,0,0,0,0,0,0,0,0,0,0,0,0,0],"id":1,"left_children":[1,3,5,7,9,11,13,15,17,19,21,23,25,27,29,-1,-1,-1,-1,-1,-1,-1,-1,-1,-1,-1,-1,-1,-1,-1,-1],"loss_changes":[4.0350532E3,1.1370117E2,1.6866248E2,1.1173389E2,2.0131073E0,4.8241592E1,5.2172485E1,1.8105764E0,3.8062744E1,2.8893166E0,2.2050018E0,3.843092E0,4.400333E1,2.7381989E1,1.0864258E-2,0E0,0E0,0E0,0E0,0E0,0E0,0E0,0E0,0E0,0E0,0E0,0E0,0E0,0E0,0E0,0E0],"parents":[2147483647,0,0,1,1,2,2,3,3,4,4,5,5,6,6,7,7,8,8,9,9,10,10,11,11,12,12,13,13,14,14],"right_children":[2,4,6,8,10,12,14,16,18,20,22,24,26,28,30,-1,-1,-1,-1,-1,-1,-1,-1,-1,-1,-1,-1,-1,-1,-1,-1],"split_conditions":[1.6700819E-1,9.3E-1,2.5378788E-1,3.3333334E-1,9.75E-1,2.5E-1,3.877551E-1,4.975E-1,4.888E-1,4.55E-1,4.7E-1,4E-1,4.975E-1,3.15E-1,5E-1,-6.441081E-2,5.07271E-3,1.1785189E-1,1.5279913E-1,3.0367417E-2,8.419027E-2,7.053678E-2,5.139946E-2,-6.432771E-2,-2.2503978E-2,-4.0963154E-2,7.067772E-2,-5.0199527E-2,-1.799371E-2,-5.8299817E-2,-6.6526815E-2],"split_indices":[1,0,1,2,0,1,1,3,3,3,3,4,3,0,3,0,0,0,0,0,0,0,0,0,0,0,0,0,0,0,0],"split_type":[0,0,0,0,0,0,0,0,0,0,0,0,0,0,0,0,0,0,0,0,0,0,0,0,0,0,0,0,0,0,0],"sum_hessian":[6.8313384E3,2.177468E3,4.65387E3,1.7872449E3,3.9022324E2,3.2849088E2,4.3253794E3,3.3672188E1,1.7535726E3,9.278558E1,2.9743765E2,1.2421295E2,2.0427792E2,1.6241218E3,2.7012576E3,2.9556698E1,4.1154895E0,1.3244393E3,4.291333E2,1.3094739E1,7.969084E1,1.08873405E2,1.8856424E2,2.843429E1,9.577866E1,4.4522114E1,1.5975581E2,1.2903931E3,3.337288E2,6.7344376E1,2.6339133E3],"tree_param":{"num_deleted":"0","num_feature":"5","num_nodes":"31","size_leaf_vector":"1"}},{"base_weights":[-7.589753E-6,1.0877682E0,-5.193964E-1,1.6666889E0,5.364321E-1,1.7037493E-1,-5.2284676E-1,2.204928E0,5.141407E-1,1.7306747E-1,9.733909E-1,-1.0455005E-1,-5.2370584E-1,4.5730272E-1,1.9698843E-1,2.7115634E-2,1.8340968E-1,-6.970733E-3,5.213822E-2,7.618397E-2,1.2961052E-1,-3.2297287E-2,2.25825E-2,-5.25431E-2,-3.8731337E-2],"categories":[],"categories_nodes":[],"categories_segments":[],"categories_sizes":[],"default_left":[0,0,0,0,0,0,0,0,0,0,0,0,0,0,0,0,0,0,0,0,0,0,0,0,0],"id":2,"left_children":[1,3,5,7,9,-1,11,13,15,17,19,21,23,-1,-1,-1,-1,-1,-1,-1,-1,-1,-1,-1,-1],"loss_changes":[9.6695917E2,1.756463E2,9.776428E0,1.6594366E2,4.5047127E1,0E0,3.611145E-1,9.30108E1,2.7419308E1,1.3287061E1,7.824852E0,3.342678E-1,6.820679E-2,0E0,0E0,0E0,0E0,0E0,0E0,0E0,0E0,0E0,0E0,0E0,0E0],"parents":[2147483647,0,0,1,1,2,2,3,3,4,4,6,6,7,7,8,8,9,9,10,10,11,11,12,12],"right_children":[2,4,6,8,10,-1,12,14,16,18,20,22,24,-1,-1,-1,-1,-1,-1,-1,-1,-1,-1,-1,-1],"split_conditions":[2.1428572E-1,6.666667E-1,4.2125E-1,4.888E-1,7.05E-1,1.7037493E-1,4.5375E-1,4.55E-1,8.15E-1,4.875E-1,4.8565E-1,4.475E-1,3.3333334E-1,4.5730272E-1,1.9698843E-1,2.7115634E-2,1.8340968E-1,-6.970733E-3,5.213822E-2,7.618397E-2,1.2961052E-1,-3.2297287E-2,2.25825E-2,-5.25431E-2,-3.8731337E-2],"split_indices":[1,2,3,3,0,0,3,3,0,3,3,3,2,0,0,0,0,0,0,0,0,0,0,0,0],"split_type":[0,0,0,0,0,0,0,0,0,0,0,0,0,0,0,0,0,0,0,0,0,0,0,0,0],"sum_hessian":[1.709497E3,5.52106E2,1.157391E3,2.6832895E2,2.8377707E2,1.0298738E0,1.1563611E3,1.8228767E2,8.604128E1,1.5569821E2,1.2807886E2,2.6214972E0,1.1537396E3,1.4792734E1,1.6749493E2,7.368279E1,1.2358486E1,9.222053E1,6.347768E1,7.939391E1,4.8684948E1,1.5916233E0,1.0298738E0,1.1365126E3,1.722698E1],"tree_param":{"num_deleted":"0","num_feature":"5","num_nodes":"25","size_leaf_vector":"1"}},{"base_weights":[-7.8513943E-7,-2.921817E-1,4.5933008E-1,-4.750752E-1,1.7522946E-1,-2.888051E-2,1.3863093E0,-2.566863E-1,-5.56943E-1,3.5620328E-2,5.1337343E-1,-2.6739168E-1,2.5668854E-1,9.4259137E-1,1.8596678E0,-4.7237374E-2,-1.8808415E-2,-5.7401914E-2,-4.4961926E-2,-8.442274E-3,1.9698372E-2,-1.8594837E-2,5.875085E-2,-3.198186E-2,-8.4411595E-3,1.3717609E-2,3.635775E-2,3.0871907E-2,1.1409374E-1,1.21071056E-1,2.325285E-1],"categories":[],"categories_nodes":[],"categories_segments":[],"categories_sizes":[],"default_left":[0,0,0,0,0,0,0,0,0,0,0,0,0,0,0,0,0,0,0,0,0,0,0,0,0,0,0,0,0,0,0],"id":3,"left_children":[1,3,5,7,9,11,13,15,17,19,21,23,25,27,29,-1,-1,-1,-1,-1,-1,-1,-1,-1,-1,-1,-1,-1,-1,-1,-1],"loss_changes":[5.84876E2,2.2778868E2,7.668353E2,3.409143E1,3.538114E1,7.572763E1,1.2102136E2,7.6636696E0,2.2927551E0,1.0318105E1,1.1465733E1,5.7841682E0,6.4146385E0,3.7835968E1,8.233301E1,0E0,0E0,0E0,0E0,0E0,0E0,0E0,0E0,0E0,0E0,0E0,0E0,0E0,0E0,0E0,0E0],"parents":[2147483647,0,0,1,1,2,2,3,3,4,4,5,5,6,6,7,7,8,8,9,9,10,10,11,11,12,12,13,13,14,14],"right_children":[2,4,6,8,10,12,14,16,18,20,22,24,26,28,30,-1,-1,-1,-1,-1,-1,-1,-1,-1,-1,-1,-1,-1,-1,-1,-1],"split_conditions":[4E-1,6.666667E-1,2.4625E-1,4.895E-1,9.3E-1,1.5666667E-1,3.275E-1,1.7166667E-1,3.3333334E-1,1.6666667E-1,4.1E-1,1.35E-1,1.975E-1,6E-1,6E-1,-4.7237374E-2,-1.8808415E-2,-5.7401914E-2,-4.4961926E-2,-8.442274E-3,1.9698372E-2,-1.8594837E-2,5.875085E-2,-3.198186E-2,-8.4411595E-3,1.3717609E-2,3.635775E-2,3.0871907E-2,1.1409374E-1,1.21071056E-1,2.325285E-1],"split_indices":[1,2,0,3,0,0,0,0,2,0,3,0,0,4,4,0,0,0,0,0,0,0,0,0,0,0,0,0,0,0,0],"split_type":[0,0,0,0,0,0,0,0,0,0,0,0,0,0,0,0,0,0,0,0,0,0,0,0,0,0,0,0,0,0,0],"sum_hessian":[4.35599E3,2.6626433E3,1.6933467E3,1.9137823E3,7.48861E2,1.1098125E3,5.8353424E2,5.229383E2,1.3908441E3,5.30811E2,2.1805E2,6.0476666E2,5.0504578E2,3.0274118E2,2.8079306E2,1.2477041E2,3.9816788E2,1.1961736E3,1.9467046E2,3.0464972E2,2.2616127E2,2.0755306E1,1.972947E2,4.6949936E2,1.3526735E2,2.3952101E2,2.6552478E2,7.2762856E1,2.2997833E2,1.1880624E2,1.6198682E2],"tree_param":{"num_deleted":"0","num_feature":"5","num_nodes":"31","size_leaf_vector":"1"}},{"base_weights":[-4.400565E-6,-3.2997036E-1,6.6070795E-1,-1.3349727E-1,-4.469247E-1,1.5810214E0,-1.7125697E-1,-2.55383E-1,3.5684887E-2,-2.7955148E-1,-5.2696038E-2,4.6192203E0,7.0318764E-1,-2.5906077E-1,2.9021592E0,2.982052E-1,-2.7993664E-2,3.740174E-1,-1.4973621E-2,-3.4296345E-2,1.5941588E-3,6.8499833E-1,3.1653333E-1,3.8927037E-2,2.1418849E-1,-4.7545657E-2,-5.2752905E-3,3.7785435E-1,6.78905E-2],"categories":[],"categories_nodes":[],"categories_segments":[],"categories_sizes":[],"default_left":[0,0,0,0,0,0,0,0,0,0,0,0,0,0,0,0,0,0,0,0,0,0,0,0,0,0,0,0,0],"id":4,"left_children":[1,3,5,7,9,11,13,15,17,19,-1,21,23,25,27,-1,-1,-1,-1,-1,-1,-1,-1,-1,-1,-1,-1,-1,-1],"loss_changes":[5.239224E2,3.6768875E1,6.131329E2,1.2371045E1,1.3305618E1,1.0105791E3,1.14441345E2,2.8542994E1,1.735975E2,6.1328144E0,0E0,2.5410168E2,1.3289459E2,1.8301834E1,2.0394035E1,0E0,0E0,0E0,0E0,0E0,0E0,0E0,0E0,0E0,0E0,0E0,0E0,0E0,0E0],"parents":[2147483647,0,0,1,1,2,2,3,3,4,4,5,5,6,6,7,7,8,8,9,9,11,11,12,12,13,13,14,14],"right_children":[2,4,6,8,10,12,14,16,18,20,-1,22,24,26,28,-1,-1,-1,-1,-1,-1,-1,-1,-1,-1,-1,-1,-1,-1],"split_conditions":[3.0666667E-1,6E-1,3.3333334E-1,1.6700819E-1,3.877551E-1,4E-1,2.5E-1,3.3333334E-1,4E-1,2.4E-1,-5.2696038E-2,4.975E-1,4.6666667E-1,6.666667E-1,4E-1,2.982052E-1,-2.7993664E-2,3.740174E-1,-1.4973621E-2,-3.4296345E-2,1.5941588E-3,6.8499833E-1,3.1653333E-1,3.8927037E-2,2.1418849E-1,-4.7545657E-2,-5.2752905E-3,3.7785435E-1,6.78905E-2],"split_indices":[0,4,2,1,1,4,1,2,4,0,0,3,0,2,4,0,0,0,0,0,0,0,0,0,0,0,0,0,0],"split_type":[0,0,0,0,0,0,0,0,0,0,0,0,0,0,0,0,0,0,0,0,0,0,0,0,0,0,0,0,0],"sum_hessian":[2.4011753E3,1.6017479E3,7.9942737E2,5.984856E2,1.0032623E3,3.7913293E2,4.2029446E2,3.475714E2,2.5091422E2,3.2600436E2,6.7725793E2,8.4032585E1,2.9510037E2,4.0951093E2,1.07835245E1,1.7095832E0,3.4586182E2,1.1046537E1,2.3986768E2,2.6827304E2,5.7731308E1,3.1693043E1,5.2339546E1,2.4328683E2,5.1813522E1,1.992322E2,2.1027873E2,7.232852E0,3.5506728E0],"tree_param":{"num_deleted":"0","num_feature":"5","num_nodes":"29","size_leaf_vector":"1"}},{"base_weights":[-2.0715102E-4,1.9294308E0,-4.8366126E-1,1.9954832E-2,-4.9525272E-2],"categories":[],"categories_nodes":[],"categories_segments":[],"categories_sizes":[],"default_left":[0,0,0,0,0],"id":5,"left_children":[1,-1,3,-1,-1],"loss_changes":[8.1931384E2,0E0,7.774105E-1,0E0,0E0],"parents":[2147483647,0,0,2,2],"right_children":[2,-1,4,-1,-1],"split_conditions":[4.0575E-1,1.9294308E0,4.372E-1,1.9954832E-2,-4.9525272E-2],"split_indices":[3,0,3,0,0],"split_type":[0,0,0,0,0],"sum_hessian":[8.5833275E1,1.1470134E0,8.4686264E1,1.1423126E0,8.3543945E1],"tree_param":{"num_deleted":"0","num_feature":"5","num_nodes":"5","size_leaf_vector":"1"}},{"base_weights":[1.0350967E-3,-8.423051E-1,4.85772E-1,-8.8808835E-1,2.72718E-1,6.539056E-1,-2.0780744E-1,-9.0820506E-2,-7.2926754E-1,-8.147887E-1,5.8423394E-1,7.88908E-1,5.1559466E-1,2.8694063E-2,-4.5719394E-1,-8.6926214E-2,2.433857E-2,-8.765831E-2,2.0907149E-2,6.871728E-2,-3.3882137E-2,-7.84571E-2,7.929131E-2,6.857393E-2,4.0260527E-2,3.2368273E-2,-7.509383E-3,-3.294856E-2,-7.755365E-2],"categories":[],"categories_nodes":[],"categories_segments":[],"categories_sizes":[],"default_left":[0,0,0,0,0,0,0,0,0,0,0,0,0,0,0,0,0,0,0,0,0,0,0,0,0,0,0,0,0],"id":6,"left_children":[1,3,5,7,9,11,13,-1,15,17,19,21,23,25,27,-1,-1,-1,-1,-1,-1,-1,-1,-1,-1,-1,-1,-1,-1],"loss_changes":[3.715495E3,1.6959033E2,6.7317126E2,9.519287E0,4.5060257E1,8.6337524E1,6.6475876E1,0E0,4.9686127E1,2.0637074E0,1.0008545E1,1.5425415E1,4.3893738E1,1.776074E1,2.2045769E1,0E0,0E0,0E0,0E0,0E0,0E0,0E0,0E0,0E0,0E0,0E0,0E0,0E0,0E0],"parents":[2147483647,0,0,1,1,2,2,3,3,4,4,5,5,6,6,8,8,9,9,10,10,11,11,12,12,13,13,14,14],"right_children":[2,4,6,8,10,12,14,-1,16,18,20,22,24,26,28,-1,-1,-1,-1,-1,-1,-1,-1,-1,-1,-1,-1,-1,-1],"split_conditions":[2.5378788E-1,6E-1,3.125E-1,4E-1,1.6700819E-1,1.76E-1,3.9E-1,-9.0820506E-2,1.6700819E-1,4.95E-1,3.0666667E-1,4E-1,4E-1,5E-1,5.2E-1,-8.6926214E-2,2.433857E-2,-8.765831E-2,2.0907149E-2,6.871728E-2,-3.3882137E-2,-7.84571E-2,7.929131E-2,6.857393E-2,4.0260527E-2,3.2368273E-2,-7.509383E-3,-3.294856E-2,-7.755365E-2],"split_indices":[1,4,0,4,1,0,0,0,1,3,0,4,1,3,0,0,0,0,0,0,0,0,0,0,0,0,0,0,0],"split_type":[0,0,0,0,0,0,0,0,0,0,0,0,0,0,0,0,0,0,0,0,0,0,0,0,0,0,0,0,0],"sum_hessian":[9.086825E3,3.316345E3,5.77048E3,3.185741E3,1.3060399E2,4.6446157E3,1.1258641E3,2.8234016E3,3.6233932E2,2.8721443E1,1.0188254E2,2.3480398E3,2.2965762E3,5.7831433E2,5.4754974E2,3.168423E2,4.5497032E1,2.7222305E1,1.4991381E0,9.189049E1,9.992053E0,5.4666014E0,2.3425732E3,9.1446436E2,1.3821118E3,1.49964E2,4.2835034E2,3.9223376E2,1.55316E2],"tree_param":{"num_deleted":"0","num_feature":"5","num_nodes":"29","size_leaf_vector":"1"}},{"base_weights":[-7.278077E-4,9.568883E-1,-5.06792E-1,1.0433264E0,5.4653496E-1,1.4629446E-1,-5.5958605E-1,-5.475439E-1,1.0707333E0,6.6518474E-1,5.071516E-1,-3.100565E-1,4.0778124E-1,-4.1559356E-1,-6.4728785E-1,-6.3157946E-2,3.2777425E-3,1.00164734E-1,1.2774393E-1,2.6137877E-2,7.258343E-2,6.1143097E-2,4.4362668E-2,-6.368936E-2,-2.0691525E-2,-3.9702203E-2,6.168538E-2,-4.9379602E-2,-2.1188593E-2,-5.460277E-2,-6.4881615E-2],"categories":[],"categories_nodes":[],"categories_segments":[],"categories_sizes":[],"default_left":[0,0,0,0,0,0,0,0,0,0,0,0,0,0,0,0,0,0,0,0,0,0,0,0,0,0,0,0,0,0,0],"id":7,"left_children":[1,3,5,7,9,11,13,15,17,19,21,23,25,27,29,-1,-1,-1,-1,-1,-1,-1,-1,-1,-1,-1,-1,-1,-1,-1,-1],"loss_changes":[3.303807E3,8.303638E1,1.5386829E2,8.542822E1,1.5888748E0,4.002856E1,5.1847168E1,1.6601133E0,2.6042725E1,2.2475777E0,1.8068008E0,3.9935122E0,3.608657E1,2.4825317E1,4.248047E-2,0E0,0E0,0E0,0E0,0E0,0E0,0E0,0E0,0E0,0E0,0E0,0E0,0E0,0E0,0E0,0E0],"parents":[2147483647,0,0,1,1,2,2,3,3,4,4,5,5,6,6,7,7,8,8,9,9,10,10,11,11,12,12,13,13,14,14],"right_children":[2,4,6,8,10,12,14,16,18,20,22,24,26,28,30,-1,-1,-1,-1,-1,-1,-1,-1,-1,-1,-1,-1,-1,-1,-1,-1],"split_conditions":[1.6700819E-1,9.3E-1,2.5378788E-1,3.3333334E-1,9.75E-1,2.5E-1,3.877551E-1,4.975E-1,4.888E-1,4.55E-1,4.7E-1,4E-1,4.975E-1,2.85E-1,4E-1,-6.3157946E-2,3.2777425E-3,1.00164734E-1,1.2774393E-1,2.6137877E-2,7.258343E-2,6.1143097E-2,4.4362668E-2,-6.368936E-2,-2.0691525E-2,-3.9702203E-2,6.168538E-2,-4.9379602E-2,-2.1188593E-2,-5.460277E-2,-6.4881615E-2],"split_indices":[1,0,1,2,0,1,1,3,3,3,3,4,3,0,1,0,0,0,0,0,0,0,0,0,0,0,0,0,0,0,0],"split_type":[0,0,0,0,0,0,0,0,0,0,0,0,0,0,0,0,0,0,0,0,0,0,0,0,0,0,0,0,0,0,0],"sum_hessian":[6.8153813E3,2.356095E3,4.4592866E3,1.9448776E3,4.112174E2,3.333854E2,4.1259014E3,3.2616806E1,1.9122607E3,9.851936E1,3.1269803E2,1.2137465E2,2.1201076E2,1.5639243E3,2.561977E3,2.84139E1,4.202907E0,1.4376204E3,4.746404E2,1.3558213E1,8.496115E1,1.1511152E2,1.975865E2,2.7873455E1,9.35012E1,4.353361E1,1.6847714E2,1.1290593E3,4.34865E2,4.341823E1,2.5185586E3],"tree_param":{"num_deleted":"0","num_feature":"5","num_nodes":"31","size_leaf_vector":"1"}},{"base_weights":[-7.4127584E-4,9.0790045E-1,-5.17368E-1,1.3223492E0,4.6964502E-1,1.6394223E-1,-5.2102184E-1,1.6692502E0,4.5349032E-1,1.98988E-2,7.244858E-1,-5.2375007E-2,-3.4368616E-1,1.1812007E-1,2.1672502E-1,2.4212183E-2,1.4565495E-1,-1.4806688E-2,2.7594944E-2,4.8514612E-2,9.3794934E-2,3.7429877E-2,-4.9324792E-2],"categories":[],"categories_nodes":[],"categories_segments":[],"categories_sizes":[],"default_left":[0,0,0,0,0,0,0,0,0,0,0,0,0,0,0,0,0,0,0,0,0,0,0],"id":8,"left_children":[1,3,5,7,9,-1,11,13,15,17,19,-1,21,-1,-1,-1,-1,-1,-1,-1,-1,-1,-1],"loss_changes":[8.0397955E2,1.1213867E2,9.458771E0,9.524707E1,3.474649E1,0E0,3.477173E-1,5.2675415E1,1.9207436E1,4.802836E0,9.434189E0,0E0,2.2716458E0,0E0,0E0,0E0,0E0,0E0,0E0,0E0,0E0,0E0,0E0],"parents":[2147483647,0,0,1,1,2,2,3,3,4,4,6,6,7,7,8,8,9,9,10,10,12,12],"right_children":[2,4,6,8,10,-1,12,14,16,18,20,-1,22,-1,-1,-1,-1,-1,-1,-1,-1,-1,-1],"split_conditions":[2.1428572E-1,6.666667E-1,4.15E-1,4.888E-1,1.36E-1,1.6394223E-1,3.3333334E-1,4.5E-1,8.15E-1,4.875E-1,9.05E-1,-5.2375007E-2,2.5E-1,1.1812007E-1,2.1672502E-1,2.4212183E-2,1.4565495E-1,-1.4806688E-2,2.7594944E-2,4.8514612E-2,9.3794934E-2,3.7429877E-2,-4.9324792E-2],"split_indices":[1,2,3,3,0,0,2,0,0,3,0,0,1,0,0,0,0,0,0,0,0,0,0],"split_type":[0,0,0,0,0,0,0,0,0,0,0,0,0,0,0,0,0,0,0,0,0,0,0],"sum_hessian":[1.7106764E3,6.1980597E2,1.0908704E3,3.1751837E2,3.022876E2,1.0877881E0,1.0897826E3,2.2626033E2,9.125803E1,1.0972377E2,1.9256383E2,1.0713473E3,1.8435312E1,1.1597473E2,1.102856E2,7.640009E1,1.4857938E1,6.651354E1,4.321023E1,9.232258E1,1.0024124E2,2.9191296E0,1.5516184E1],"tree_param":{"num_deleted":"0","num_feature":"5","num_nodes":"23","size_leaf_vector":"1"}},{"base_weights":[4.898904E-4,-2.833295E-1,4.2348704E-1,-4.661339E-1,1.535159E-1,-2.8429504E-2,1.1566826E0,-2.501199E-1,-5.5017525E-1,-8.691166E-2,3.125409E-1,-2.5136757E-1,2.3202552E-1,8.913793E-1,1.5950106E0,-4.6539184E-2,-1.8315597E-2,-5.6772646E-2,-4.4290837E-2,-1.0811565E-2,5.208313E-2,-2.6065601E-2,3.5578683E-2,-3.0435404E-2,-6.966772E-3,-5.198303E-2,2.4599463E-2,4.190359E-2,1.0315155E-1,1.0299369E-1,2.0423186E-1],"categories":[],"categories_nodes":[],"categories_segments":[],"categories_sizes":[],"default_left":[0,0,0,0,0,0,0,0,0,0,0,0,0,0,0,0,0,0,0,0,0,0,0,0,0,0,0,0,0,0,0],"id":9,"left_children":[1,3,5,7,9,11,13,15,17,19,21,23,25,27,29,-1,-1,-1,-1,-1,-1,-1,-1,-1,-1,-1,-1,-1,-1,-1,-1],"loss_changes":[5.223667E2,2.0801312E2,5.789406E2,3.319287E1,2.9426798E1,6.2878704E1,7.60578E1,7.3540764E0,2.235382E0,4.0112367E0,1.1570698E1,5.595646E0,5.373806E0,2.7190918E1,6.107361E1,0E0,0E0,0E0,0E0,0E0,0E0,0E0,0E0,0E0,0E0,0E0,0E0,0E0,0E0,0E0,0E0],"parents":[2147483647,0,0,1,1,2,2,3,3,4,4,5,5,6,6,7,7,8,8,9,9,10,10,11,11,12,12,13,13,14,14],"right_children":[2,4,6,8,10,12,14,16,18,20,22,24,26,28,30,-1,-1,-1,-1,-1,-1,-1,-1,-1,-1,-1,-1,-1,-1,-1,-1],"split_conditions":[4E-1,6.666667E-1,2.45E-1,4.895E-1,1.6666667E-1,1.5666667E-1,3.55E-1,1.7166667E-1,3.3333334E-1,4.95E-1,4.1E-1,1.35E-1,4.975E-1,6E-1,6E-1,-4.6539184E-2,-1.8315597E-2,-5.6772646E-2,-4.4290837E-2,-1.0811565E-2,5.208313E-2,-2.6065601E-2,3.5578683E-2,-3.0435404E-2,-6.966772E-3,-5.198303E-2,2.4599463E-2,4.190359E-2,1.0315155E-1,1.0299369E-1,2.0423186E-1],"split_indices":[1,2,0,3,0,0,0,0,2,3,3,0,3,4,4,0,0,0,0,0,0,0,0,0,0,0,0,0,0,0,0],"split_type":[0,0,0,0,0,0,0,0,0,0,0,0,0,0,0,0,0,0,0,0,0,0,0,0,0,0,0,0,0,0,0],"sum_hessian":[4.34907E3,2.6029155E3,1.746154E3,1.8349758E3,7.6793976E2,1.0808912E3,6.652629E2,5.150652E2,1.3199106E3,3.0590292E2,4.620368E2,5.824093E2,4.9848187E2,4.163161E2,2.4894681E2,1.20793884E2,3.9427127E2,1.130624E3,1.8928667E2,2.9638428E2,9.5186615E0,3.2061058E1,4.2997574E2,4.503928E2,1.3201654E2,8.43206E0,4.9004984E2,9.6166626E1,3.2014948E2,1.1145314E2,1.3749367E2],"tree_param":{"num_deleted":"0","num_feature":"5","num_nodes":"31","size_leaf_vector":"1"}},{"base_weights":[-1.6798736E-3,-3.256753E-1,5.5891633E-1,-1.404951E-1,-4.405447E-1,1.2231141E0,-1.7086264E-1,-1.9711664E-1,2.3651057E-1,-2.7001664E-1,-5.2351743E-1,2.8379323E0,5.8999765E-1,-2.7594715E-1,1.731074E0,-3.7610088E-2,4.2498577E-4,3.971596E-2,-2.2079818E-2,-3.7924252E-2,-9.985907E-3,-5.250379E-2,-2.1710975E-2,3.572941E-1,2.2003977E-1,1.1226239E-1,5.513615E-3,-1.7898564E-3,-4.3739524E-2,7.688032E-2,2.7106455E-1],"categories":[],"categories_nodes":[],"categories_segments":[],"categories_sizes":[],"default_left":[0,0,0,0,0,0,0,0,0,0,0,0,0,0,0,0,0,0,0,0,0,0,0,0,0,0,0,0,0,0,0],"id":10,"left_children":[1,3,5,7,9,11,13,15,17,19,21,23,25,27,29,-1,-1,-1,-1,-1,-1,-1,-1,-1,-1,-1,-1,-1,-1,-1,-1],"loss_changes":[4.3707025E2,3.237709E1,4.274251E2,1.2540578E1,1.3168869E1,4.7018994E2,8.4586555E1,1.8361454E1,5.7357454E0,5.7230244E0,1.8032837E-1,5.2927612E1,9.475036E1,1.664254E1,1.8815208E1,0E0,0E0,0E0,0E0,0E0,0E0,0E0,0E0,0E0,0E0,0E0,0E0,0E0,0E0,0E0,0E0],"parents":[2147483647,0,0,1,1,2,2,3,3,4,4,5,5,6,6,7,7,8,8,9,9,10,10,11,11,12,12,13,13,14,14],"right_children":[2,4,6,8,10,12,14,16,18,20,22,24,26,28,30,-1,-1,-1,-1,-1,-1,-1,-1,-1,-1,-1,-1,-1,-1,-1,-1],"split_conditions":[3.0166668E-1,6E-1,3.3333334E-1,1E0,3.877551E-1,4E-1,1.6700819E-1,1.6700819E-1,4.8825E-1,1.81E-1,3E-1,4.975E-1,6E-1,4.85E-1,6.666667E-1,-3.7610088E-2,4.2498577E-4,3.971596E-2,-2.2079818E-2,-3.7924252E-2,-9.985907E-3,-5.250379E-2,-2.1710975E-2,3.572941E-1,2.2003977E-1,1.1226239E-1,5.513615E-3,-1.7898564E-3,-4.3739524E-2,7.688032E-2,2.7106455E-1],"split_indices":[0,4,2,2,1,4,1,1,3,0,0,3,4,3,2,0,0,0,0,0,0,0,0,0,0,0,0,0,0,0,0],"split_type":[0,0,0,0,0,0,0,0,0,0,0,0,0,0,0,0,0,0,0,0,0,0,0,0,0,0,0,0,0,0,0],"sum_hessian":[2.4043667E3,1.5239956E3,8.803711E2,5.8428937E2,9.3970624E2,4.6054065E2,4.198304E2,5.0840976E2,7.5879616E1,3.0896542E2,6.307408E2,1.2872754E2,3.3181314E2,3.986589E2,2.1171516E1,2.6870453E2,2.3970523E2,5.625071E1,1.962891E1,1.8742601E2,1.2153944E2,6.269164E2,3.8244011E0,5.765417E1,7.1073364E1,1.6570335E2,1.6610977E2,1.5385594E2,2.4480295E2,1.158044E1,9.591076E0],"tree_param":{"num_deleted":"0","num_feature":"5","num_nodes":"31","size_leaf_vector":"1"}},{"base_weights":[-1.4202035E-2,6.327426E-1,-4.2467982E-1,8.486163E-1,-4.9492948E-2,-4.3408055E-2,1.6524348E-1,2.4599575E-2,-2.8171657E-2],"categories":[],"categories_nodes":[],"categories_segments":[],"categories_sizes":[],"default_left":[0,0,0,0,0,0,0,0,0],"id":11,"left_children":[1,-1,3,5,-1,7,-1,-1,-1],"loss_changes":[2.3494844E2,0E0,7.999689E0,3.5127664E0,0E0,2.9338425E-1,0E0,0E0,0E0],"parents":[2147483647,0,0,2,2,3,3,5,5],"right_children":[2,-1,4,6,-1,8,-1,-1,-1],"split_conditions":[3.7875E-1,6.327426E-1,4.2125E-1,1E0,-4.9492948E-2,3.4333333E-1,1.6524348E-1,2.4599575E-2,-2.8171657E-2],"split_indices":[3,0,3,2,0,0,0,0,0],"split_type":[0,0,0,0,0,0,0,0,0],"sum_hessian":[8.822498E1,4.487111E0,8.373787E1,3.799044E0,7.993883E1,2.2491188E0,1.5499251E0,1.0011077E0,1.248011E0],"tree_param":{"num_deleted":"0","num_feature":"5","num_nodes":"9","size_leaf_vector":"1"}},{"base_weights":[8.6418184E-4,-7.8988355E-1,4.4955862E-1,-8.3325964E-1,2.5454894E-1,6.0109514E-1,-2.1365468E-1,-8.525749E-2,-6.812743E-1,-7.628055E-1,5.4223186E-1,6.706367E-1,3.4006217E-1,-8.493959E-2,-6.0200727E-1,-8.142405E-2,2.2559803E-2,-8.2262054E-2,2.055436E-2,6.408614E-2,-3.3577006E-2,7.6700255E-2,5.9195068E-2,5.6327503E-2,1.8640077E-2,2.3738848E-2,-2.0269496E-2,-4.175591E-2,-7.321345E-2],"categories":[],"categories_nodes":[],"categories_segments":[],"categories_sizes":[],"default_left":[0,0,0,0,0,0,0,0,0,0,0,0,0,0,0,0,0,0,0,0,0,0,0,0,0,0,0,0,0],"id":12,"left_children":[1,3,5,7,9,11,13,-1,15,17,19,21,23,25,27,-1,-1,-1,-1,-1,-1,-1,-1,-1,-1,-1,-1,-1,-1],"loss_changes":[3.1889119E3,1.4761621E2,5.7641174E2,8.590576E0,3.8609722E1,8.450598E1,5.329642E1,0E0,4.3262314E1,1.8594971E0,9.075966E0,2.7487183E1,3.3645042E1,3.0516317E1,6.066864E0,0E0,0E0,0E0,0E0,0E0,0E0,0E0,0E0,0E0,0E0,0E0,0E0,0E0,0E0],"parents":[2147483647,0,0,1,1,2,2,3,3,4,4,5,5,6,6,8,8,9,9,10,10,11,11,12,12,13,13,14,14],"right_children":[2,4,6,8,10,12,14,-1,16,18,20,22,24,26,28,-1,-1,-1,-1,-1,-1,-1,-1,-1,-1,-1,-1,-1,-1],"split_conditions":[2.5378788E-1,6E-1,3.1875E-1,4E-1,1.6700819E-1,2.4625E-1,4.6E-1,-8.525749E-2,1.6700819E-1,4.95E-1,3.0666667E-1,1.4166667E-1,4E-1,5E-1,5.2E-1,-8.142405E-2,2.2559803E-2,-8.2262054E-2,2.055436E-2,6.408614E-2,-3.3577006E-2,7.6700255E-2,5.9195068E-2,5.6327503E-2,1.8640077E-2,2.3738848E-2,-2.0269496E-2,-4.175591E-2,-7.321345E-2],"split_indices":[1,4,0,4,1,0,0,0,1,3,0,0,1,3,0,0,0,0,0,0,0,0,0,0,0,0,0,0,0],"split_type":[0,0,0,0,0,0,0,0,0,0,0,0,0,0,0,0,0,0,0,0,0,0,0,0,0,0,0,0,0],"sum_hessian":[8.985809E3,3.252706E3,5.733102E3,3.1231992E3,1.2950665E2,4.66687E3,1.0662319E3,2.7669475E3,3.5625177E2,2.818443E1,1.0132223E2,3.6838816E3,9.829887E2,8.0172723E2,2.6450473E2,3.1078622E2,4.546555E1,2.6686495E1,1.4979348E0,9.1332565E1,9.989662E0,1.6519784E3,2.0319031E3,3.9970303E2,5.8328564E2,2.142504E2,5.8747687E2,1.11156006E2,1.5334872E2],"tree_param":{"num_deleted":"0","num_feature":"5","num_nodes":"29","size_leaf_vector":"1"}},{"base_weights":[-1.5871356E-3,8.316976E-1,-4.8936263E-1,1.0060077E0,6.7912245E-1,1.2989862E-1,-5.425051E-1,-4.0661702E-1,1.0128347E0,-5.4763794E-1,7.04219E-1,-2.949121E-1,3.6045218E-1,-3.962852E-1,-6.3308144E-1,-1.6160404E-2,-5.0490893E-2,9.701581E-2,1.21025465E-1,-6.1675347E-2,3.5306618E-2,8.144136E-2,4.770256E-2,-6.301034E-2,-1.891361E-2,-3.8707815E-2,5.431767E-2,-4.734506E-2,-2.019701E-2,-5.462073E-2,-6.35085E-2],"categories":[],"categories_nodes":[],"categories_segments":[],"categories_sizes":[],"default_left":[0,0,0,0,0,0,0,0,0,0,0,0,0,0,0,0,0,0,0,0,0,0,0,0,0,0,0,0,0,0,0],"id":13,"left_children":[1,3,5,7,9,11,13,15,17,19,21,23,25,27,29,-1,-1,-1,-1,-1,-1,-1,-1,-1,-1,-1,-1,-1,-1,-1,-1],"loss_changes":[2.7502913E3,6.5762695E1,1.4053021E2,1.1638062E1,4.1497375E1,3.3223396E1,5.1811035E1,7.041979E-2,8.588501E0,1.9192896E0,3.2383118E1,4.117812E0,3.0209757E1,2.249054E1,7.550049E-2,0E0,0E0,0E0,0E0,0E0,0E0,0E0,0E0,0E0,0E0,0E0,0E0,0E0,0E0,0E0,0E0],"parents":[2147483647,0,0,1,1,2,2,3,3,4,4,5,5,6,6,7,7,8,8,9,9,10,10,11,11,12,12,13,13,14,14],"right_children":[2,4,6,8,10,12,14,16,18,20,22,24,26,28,30,-1,-1,-1,-1,-1,-1,-1,-1,-1,-1,-1,-1,-1,-1,-1,-1],"split_conditions":[1.6700819E-1,3.0166668E-1,2.5378788E-1,3.3333334E-1,3.3333334E-1,2.5E-1,3.877551E-1,1.88E-1,4E-1,4.975E-1,9.3E-1,4E-1,4.975E-1,2.85E-1,5E-1,-1.6160404E-2,-5.0490893E-2,9.701581E-2,1.21025465E-1,-6.1675347E-2,3.5306618E-2,8.144136E-2,4.770256E-2,-6.301034E-2,-1.891361E-2,-3.8707815E-2,5.431767E-2,-4.734506E-2,-2.019701E-2,-5.462073E-2,-6.35085E-2],"split_indices":[1,0,1,2,2,1,1,0,4,3,0,4,3,0,3,0,0,0,0,0,0,0,0,0,0,0,0,0,0,0,0],"split_type":[0,0,0,0,0,0,0,0,0,0,0,0,0,0,0,0,0,0,0,0,0,0,0,0,0,0,0,0,0,0,0],"sum_hessian":[6.7645176E3,2.4974045E3,4.267113E3,1.163064E3,1.3343406E3,3.3713098E2,3.9299817E3,5.312187E0,1.1577518E3,2.633271E1,1.3080079E3,1.1850262E2,2.1862834E2,1.5053037E3,2.4246782E3,2.277978E0,3.0342095E0,9.5682745E2,2.009244E2,2.474886E1,1.5838499E0,8.7905786E2,4.2895004E2,2.7236502E1,9.126612E1,4.272422E1,1.7590413E2,1.076409E3,4.288946E2,6.0829212E1,2.3638489E3],"tree_param":{"num_deleted":"0","num_feature":"5","num_nodes":"31","size_leaf_vector":"1"}},{"base_weights":[-3.567131E-4,-5.2221872E-2,7.700917E-1,1.1069536E0,3.9796343E-1,1.3205764E0,4.609739E-1,2.3688758E-3,6.107832E-1,2.3781073E-1,1.19297005E-1,6.1580176E-3,9.234448E-2,-1.3663116E-2,1.950902E-2,4.4377595E-2,8.388716E-2],"categories":[],"categories_nodes":[],"categories_segments":[],"categories_sizes":[],"default_left":[0,0,0,0,0,0,0,0,0,0,0,0,0,0,0,0,0],"id":14,"left_children":[1,-1,3,5,7,9,11,13,15,-1,-1,-1,-1,-1,-1,-1,-1],"loss_changes":[6.8701636E2,0E0,8.605658E1,4.9291412E1,2.7731377E1,3.3761597E1,1.6825485E1,3.1402102E0,7.786293E0,0E0,0E0,0E0,0E0,0E0,0E0,0E0,0E0],"parents":[2147483647,0,0,2,2,3,3,4,4,5,5,6,6,7,7,8,8],"right_children":[2,-1,4,6,8,10,12,14,16,-1,-1,-1,-1,-1,-1,-1,-1],"split_conditions":[3.3333334E-1,-5.2221872E-2,6.666667E-1,4.888E-1,1.36E-1,4.55E-1,4.275E-1,4.875E-1,4.8565E-1,2.3781073E-1,1.19297005E-1,6.1580176E-3,9.234448E-2,-1.3663116E-2,1.950902E-2,4.4377595E-2,8.388716E-2],"split_indices":[2,0,2,3,0,3,0,3,3,0,0,0,0,0,0,0,0],"split_type":[0,0,0,0,0,0,0,0,0,0,0,0,0,0,0,0,0],"sum_hessian":[1.7067079E3,1.0176956E3,6.890123E2,3.6060605E2,3.2840628E2,2.702058E2,9.040024E1,1.1522829E2,2.1317798E2,2.719472E1,2.4301108E2,4.911622E1,4.1284023E1,6.711366E1,4.8114616E1,1.2476799E2,8.8409996E1],"tree_param":{"num_deleted":"0","num_feature":"5","num_nodes":"17","size_leaf_vector":"1"}},{"base_weights":[1.971099E-3,-2.739969E-1,3.9348224E-1,-4.5711672E-1,1.3699517E-1,-1.8990219E-2,9.9882084E-1,-2.4227555E-1,-5.4372925E-1,-8.650257E-2,2.8005695E-1,-2.7321306E-1,1.8664087E-1,7.224049E-1,1.2527696E0,-4.585383E-2,-1.762206E-2,-5.6191742E-2,-4.3535274E-2,-1.0695945E-2,4.786637E-2,-4.3942027E-2,3.0844415E-2,-4.0460613E-2,-2.2068273E-2,2.4746682E-3,2.5730176E-2,2.2987217E-2,8.547554E-2,8.785006E-2,1.4864425E-1],"categories":[],"categories_nodes":[],"categories_segments":[],"categories_sizes":[],"default_left":[0,0,0,0,0,0,0,0,0,0,0,0,0,0,0,0,0,0,0,0,0,0,0,0,0,0,0,0,0,0,0],"id":15,"left_children":[1,3,5,7,9,11,13,15,17,19,21,23,25,27,29,-1,-1,-1,-1,-1,-1,-1,-1,-1,-1,-1,-1,-1,-1,-1,-1],"loss_changes":[4.6798172E2,1.9126881E2,4.471552E2,3.2576233E1,2.5086674E1,5.577997E1,5.0039185E1,7.159401E0,2.2230835E0,3.5969198E0,9.901367E0,3.203762E0,6.7423344E0,2.2610077E1,3.1655212E1,0E0,0E0,0E0,0E0,0E0,0E0,0E0,0E0,0E0,0E0,0E0,0E0,0E0,0E0,0E0,0E0],"parents":[2147483647,0,0,1,1,2,2,3,3,4,4,5,5,6,6,7,7,8,8,9,9,10,10,11,11,12,12,13,13,14,14],"right_children":[2,4,6,8,10,12,14,16,18,20,22,24,26,28,30,-1,-1,-1,-1,-1,-1,-1,-1,-1,-1,-1,-1,-1,-1,-1,-1],"split_conditions":[4E-1,6.666667E-1,2.45E-1,4.895E-1,1.6666667E-1,1.4166667E-1,3.25E-1,1.7166667E-1,3.3333334E-1,4.95E-1,3.7875E-1,7E-2,1.7375E-1,6E-1,6E-1,-4.585383E-2,-1.762206E-2,-5.6191742E-2,-4.3535274E-2,-1.0695945E-2,4.786637E-2,-4.3942027E-2,3.0844415E-2,-4.0460613E-2,-2.2068273E-2,2.4746682E-3,2.5730176E-2,2.2987217E-2,8.547554E-2,8.785006E-2,1.4864425E-1],"split_indices":[1,2,0,3,0,0,0,0,2,3,3,0,0,4,4,0,0,0,0,0,0,0,0,0,0,0,0,0,0,0,0],"split_type":[0,0,0,0,0,0,0,0,0,0,0,0,0,0,0,0,0,0,0,0,0,0,0,0,0,0,0,0,0,0,0],"sum_hessian":[4.3293794E3,2.5395815E3,1.7897979E3,1.7567428E3,7.828388E2,1.0650504E3,7.247474E2,5.058318E2,1.250911E3,3.0568265E2,4.7715616E2,4.7610748E2,5.8894293E2,3.4886383E2,3.7588358E2,1.1696118E2,3.888706E2,1.0675637E3,1.8334737E2,2.9578702E2,9.89562E0,1.756212E1,4.5959406E2,1.3406673E2,3.4204074E2,1.7935808E2,4.0958484E2,7.446914E1,2.7439468E2,1.4630672E2,2.2957684E2],"tree_param":{"num_deleted":"0","num_feature":"5","num_nodes":"31","size_leaf_vector":"1"}},{"base_weights":[-1.5301965E-3,-3.1567687E-1,4.9311176E-1,-1.3457716E-1,-4.3287307E-1,1.0263869E0,-1.6738096E-1,-1.8947524E-1,2.139161E-1,-2.570545E-1,-5.2027917E-1,2.1027427E0,5.2346456E-1,-2.6987192E-1,1.3838577E0,-3.7051164E-2,1.1080056E-3,3.561974E-2,-2.1516902E-2,-3.2033082E-2,4.238044E-3,-5.2189063E-2,-2.0630518E-2,2.5427198E-1,1.6926394E-1,1.16106726E-1,1.5926855E-2,-2.0417774E-3,-4.3229777E-2,6.492697E-2,2.0444424E-1],"categories":[],"categories_nodes":[],"categories_segments":[],"categories_sizes":[],"default_left":[0,0,0,0,0,0,0,0,0,0,0,0,0,0,0,0,0,0,0,0,0,0,0,0,0,0,0,0,0,0,0],"id":16,"left_children":[1,3,5,7,9,11,13,15,17,19,21,23,25,27,29,-1,-1,-1,-1,-1,-1,-1,-1,-1,-1,-1,-1,-1,-1,-1,-1],"loss_changes":[3.724677E2,3.105545E1,3.2810287E2,1.1087189E1,1.3536499E1,2.7782355E2,6.663413E1,1.8134554E1,4.902666E0,5.6476917E0,1.9247437E-1,2.5243347E1,8.167204E1,1.5864944E1,1.128566E1,0E0,0E0,0E0,0E0,0E0,0E0,0E0,0E0,0E0,0E0,0E0,0E0,0E0,0E0,0E0,0E0],"parents":[2147483647,0,0,1,1,2,2,3,3,4,4,5,5,6,6,7,7,8,8,9,9,10,10,11,11,12,12,13,13,14,14],"right_children":[2,4,6,8,10,12,14,16,18,20,22,24,26,28,30,-1,-1,-1,-1,-1,-1,-1,-1,-1,-1,-1,-1,-1,-1,-1,-1],"split_conditions":[3.0166668E-1,6E-1,3.3333334E-1,1E0,3.877551E-1,4E-1,1.6700819E-1,1.6700819E-1,4.8825E-1,2.4E-1,3E-1,4.975E-1,3.7664473E-1,4.85E-1,6.666667E-1,-3.7051164E-2,1.1080056E-3,3.561974E-2,-2.1516902E-2,-3.2033082E-2,4.238044E-3,-5.2189063E-2,-2.0630518E-2,2.5427198E-1,1.6926394E-1,1.16106726E-1,1.5926855E-2,-2.0417774E-3,-4.3229777E-2,6.492697E-2,2.0444424E-1],"split_indices":[0,4,2,2,1,4,1,1,3,0,0,3,1,3,2,0,0,0,0,0,0,0,0,0,0,0,0,0,0,0,0],"split_type":[0,0,0,0,0,0,0,0,0,0,0,0,0,0,0,0,0,0,0,0,0,0,0,0,0,0,0,0,0,0,0],"sum_hessian":[2.3949827E3,1.4649537E3,9.30029E2,5.764034E2,8.885503E2,5.1426373E2,4.157653E2,4.9835406E2,7.804933E1,2.963597E2,5.921906E2,1.6275467E2,3.5150906E2,3.907728E2,2.499249E1,2.614774E2,2.368767E2,5.87411E1,1.9308226E1,2.4460106E2,5.175863E1,5.885078E2,3.682777E0,7.600882E1,8.674584E1,1.269929E2,2.2451616E2,1.545461E2,2.3622672E2,1.2772262E1,1.2220229E1],"tree_param":{"num_deleted":"0","num_feature":"5","num_nodes":"31","size_leaf_vector":"1"}},{"base_weights":[-1.4462543E-2,3.5115736E0,-4.2092922E-1,4.3587622E-1,1.9476159E0,7.668532E-1,-4.9452584E-2,9.751885E-3,2.6750996E0,1.0905876E-1,1.7019273E-1,9.826792E-2,3.2479528E-1,3.8940698E-2,-2.8396381E-2],"categories":[],"categories_nodes":[],"categories_segments":[],"categories_sizes":[],"default_left":[0,0,0,0,0,0,0,0,0,0,0,0,0,0,0],"id":17,"left_children":[1,3,5,-1,7,9,-1,-1,11,13,-1,-1,-1,-1,-1],"loss_changes":[1.2915968E2,3.8531265E0,7.440077E0,0E0,6.5774174E0,2.9542844E0,0E0,0E0,3.072281E-1,5.584917E-1,0E0,0E0,0E0,0E0,0E0],"parents":[2147483647,0,0,1,1,2,2,4,4,5,5,8,8,9,9],"right_children":[2,4,6,-1,8,10,-1,-1,12,14,-1,-1,-1,-1,-1],"split_conditions":[3.7875E-1,3.2845E-1,4.2125E-1,4.3587622E-1,6.7E-2,9.6E-1,-4.9452584E-2,9.751885E-3,1E0,2.68E-1,1.7019273E-1,9.826792E-2,3.2479528E-1,3.8940698E-2,-2.8396381E-2],"split_indices":[3,3,3,0,0,0,0,0,2,0,0,0,0,0,0],"split_type":[0,0,0,0,0,0,0,0,0,0,0,0,0,0,0],"sum_hessian":[8.8087425E1,8.315187E0,7.977224E1,4.234416E0,4.080772E0,4.104801E0,7.566744E1,1.4718056E0,2.608966E0,3.0651782E0,1.0396231E0,1.3464541E0,1.262512E0,1.7944049E0,1.2707734E0],"tree_param":{"num_deleted":"0","num_feature":"5","num_nodes":"15","size_leaf_vector":"1"}},{"base_weights":[-3.1038766E-5,-7.476929E-1,4.17444E-1,-7.892699E-1,2.3957118E-1,5.6361204E-1,-1.7852685E-1,-8.08404E-2,-6.391853E-1,-6.4197487E-1,5.299927E-1,6.5044105E-1,3.8889107E-1,3.5244334E-2,-4.0625203E-1,-7.673429E-2,2.1162804E-2,1.7767651E-2,-7.307197E-2,6.224051E-2,-2.9575406E-2,-9.0587765E-2,6.5533444E-2,5.7699364E-2,2.6355753E-2,2.898405E-2,-5.4416745E-3,-2.9275699E-2,-6.957127E-2],"categories":[],"categories_nodes":[],"categories_segments":[],"categories_sizes":[],"default_left":[0,0,0,0,0,0,0,0,0,0,0,0,0,0,0,0,0,0,0,0,0,0,0,0,0,0,0,0,0],"id":18,"left_children":[1,3,5,7,9,11,13,-1,15,17,19,21,23,25,27,-1,-1,-1,-1,-1,-1,-1,-1,-1,-1,-1,-1,-1,-1],"loss_changes":[2.759518E3,1.302174E2,4.9430115E2,8.213257E0,3.3310715E1,6.886621E1,5.444557E1,0E0,3.8163956E1,2.4840546E0,7.617811E0,2.3760986E1,3.5564865E1,1.3201988E1,1.7584885E1,0E0,0E0,0E0,0E0,0E0,0E0,0E0,0E0,0E0,0E0,0E0,0E0,0E0,0E0],"parents":[2147483647,0,0,1,1,2,2,3,3,4,4,5,5,6,6,8,8,9,9,10,10,11,11,12,12,13,13,14,14],"right_children":[2,4,6,8,10,12,14,-1,16,18,20,22,24,26,28,-1,-1,-1,-1,-1,-1,-1,-1,-1,-1,-1,-1,-1,-1],"split_conditions":[2.5378788E-1,6E-1,3.125E-1,4E-1,2.1428572E-1,2.1416667E-1,3.9E-1,-8.08404E-2,1.6700819E-1,3.3333334E-1,3.0666667E-1,4E-1,4E-1,5E-1,5.2E-1,-7.673429E-2,2.1162804E-2,1.7767651E-2,-7.307197E-2,6.224051E-2,-2.9575406E-2,-9.0587765E-2,6.5533444E-2,5.7699364E-2,2.6355753E-2,2.898405E-2,-5.4416745E-3,-2.9275699E-2,-6.957127E-2],"split_indices":[1,4,0,4,1,0,0,0,1,2,0,4,1,3,0,0,0,0,0,0,0,0,0,0,0,0,0,0,0],"split_type":[0,0,0,0,0,0,0,0,0,0,0,0,0,0,0,0,0,0,0,0,0,0,0,0,0,0,0,0,0],"sum_hessian":[8.838921E3,3.1667512E3,5.67217E3,3.0389705E3,1.27780876E2,4.555051E3,1.1171193E3,2.691454E3,3.475163E2,3.1365E1,9.641588E1,3.0410522E3,1.5139984E3,5.766495E2,5.404697E2,3.0210803E2,4.5408268E1,2.9662707E0,2.839873E1,8.693312E1,9.482763E0,8.954618E0,3.0320977E3,6.039608E2,9.1003766E2,1.4960568E2,4.2704382E2,3.8968784E2,1.5078188E2],"tree_param":{"num_deleted":"0","num_feature":"5","num_nodes":"29","size_leaf_vector":"1"}},{"base_weights":[-2.4677757E-3,6.624196E-1,-5.265748E-1,7.333539E-1,1.1684327E-1,-3.7763914E-1,-6.205287E-1,8.087031E-1,4.5677364E-1,-2.7965248E-1,3.219812E-1,-4.5452157E-1,-1.8978874E-1,-5.301929E-1,-6.226275E-1,-5.2818146E-2,8.29306E-2,5.636865E-2,3.847693E-2,-6.2319495E-2,-1.7150952E-2,-3.7540473E-2,4.8313346E-2,-5.346597E-2,-4.1912824E-2,-6.256539E-2,-1.3763601E-2,-4.1185107E-2,-5.8240365E-2,-6.2307663E-2,-1.1507925E-2],"categories":[],"categories_nodes":[],"categories_segments":[],"categories_sizes":[],"default_left":[0,0,0,0,0,0,0,0,0,0,0,0,0,0,0,0,0,0,0,0,0,0,0,0,0,0,0,0,0,0,0],"id":19,"left_children":[1,3,5,7,9,11,13,15,17,19,21,23,25,27,29,-1,-1,-1,-1,-1,-1,-1,-1,-1,-1,-1,-1,-1,-1,-1,-1],"loss_changes":[2.3307498E3,1.1401294E2,5.2102783E1,5.3999634E1,2.7777834E1,2.0845581E1,1.0443115E-1,5.6875E1,4.1007385E0,4.225174E0,2.5446331E1,2.6908417E0,9.520805E0,1.232872E-1,4.3756104E-1,0E0,0E0,0E0,0E0,0E0,0E0,0E0,0E0,0E0,0E0,0E0,0E0,0E0,0E0,0E0,0E0],"parents":[2147483647,0,0,1,1,2,2,3,3,4,4,5,5,6,6,7,7,8,8,9,9,10,10,11,11,12,12,13,13,14,14],"right_children":[2,4,6,8,10,12,14,16,18,20,22,24,26,28,30,-1,-1,-1,-1,-1,-1,-1,-1,-1,-1,-1,-1,-1,-1,-1,-1],"split_conditions":[2.5378788E-1,1.6700819E-1,3.877551E-1,8.85E-1,2.5E-1,2.85E-1,5E-1,3.3333334E-1,9.75E-1,4E-1,4.975E-1,1.3E-1,4E-1,4E-1,4.117647E-1,-5.2818146E-2,8.29306E-2,5.636865E-2,3.847693E-2,-6.2319495E-2,-1.7150952E-2,-3.7540473E-2,4.8313346E-2,-5.346597E-2,-4.1912824E-2,-6.256539E-2,-1.3763601E-2,-4.1185107E-2,-5.8240365E-2,-6.2307663E-2,-1.1507925E-2],"split_indices":[1,1,1,0,1,0,3,2,0,4,3,0,4,1,1,0,0,0,0,0,0,0,0,0,0,0,0,0,0,0,0],"split_type":[0,0,0,0,0,0,0,0,0,0,0,0,0,0,0,0,0,0,0,0,0,0,0,0,0,0,0,0,0,0,0],"sum_hessian":[6.686482E3,2.9472754E3,3.7392068E3,2.607864E3,3.394112E2,1.4483319E3,2.2908748E3,2.048E3,5.598641E2,1.1560455E2,2.2380664E2,1.026707E3,4.2162482E2,5.777463E1,2.2331E3,3.070903E1,2.0172909E3,2.2256648E2,3.372976E2,2.6537863E1,8.906669E1,4.1760155E1,1.8204648E2,3.1021262E2,7.1649445E2,4.388238E1,3.7774243E2,2.0407314E1,3.7367317E1,2.2308984E3,2.2016904E0],"tree_param":{"num_deleted":"0","num_feature":"5","num_nodes":"31","size_leaf_vector":"1"}},{"base_weights":[9.066713E-4,-5.2072413E-2,6.733968E-1,2.2023714E-1,8.654937E-1,4.7163695E-1,2.7678503E-2,1.0856718E0,5.517526E-1,6.4758524E-2,-6.290158E-3,-1.1764508E-2,2.1562077E-2,2.0531932E-1,9.8990716E-2,1.0784689E-1,4.9337357E-2],"categories":[],"categories_nodes":[],"categories_segments":[],"categories_sizes":[],"default_left":[0,0,0,0,0,0,0,0,0,0,0,0,0,0,0,0,0],"id":20,"left_children":[1,-1,3,5,7,9,11,13,15,-1,-1,-1,-1,-1,-1,-1,-1],"loss_changes":[5.965931E2,0E0,6.44812E1,1.0758673E1,3.5419373E1,9.11186E0,3.4958243E0,2.6260101E1,6.14209E0,0E0,0E0,0E0,0E0,0E0,0E0,0E0,0E0],"parents":[2147483647,0,0,2,2,3,3,4,4,5,5,6,6,7,7,8,8],"right_children":[2,-1,4,6,8,10,12,14,16,-1,-1,-1,-1,-1,-1,-1,-1],"split_conditions":[3.3333334E-1,-5.2072413E-2,1.7166667E-1,6.666667E-1,6.666667E-1,4.888E-1,4.875E-1,4.55E-1,4.2125E-1,6.4758524E-2,-6.290158E-3,-1.1764508E-2,2.1562077E-2,2.0531932E-1,9.8990716E-2,1.0784689E-1,4.9337357E-2],"split_indices":[2,0,0,2,2,3,3,3,3,0,0,0,0,0,0,0,0],"split_type":[0,0,0,0,0,0,0,0,0,0,0,0,0,0,0,0,0],"sum_hessian":[1.6987056E3,9.567829E2,7.419226E2,2.2151399E2,5.204086E2,9.544891E1,1.2606508E2,3.0435626E2,2.1605235E2,7.165239E1,2.3796522E1,7.13042E1,5.4760883E1,2.5570868E1,2.787854E2,1.9813581E1,1.9623877E2],"tree_param":{"num_deleted":"0","num_feature":"5","num_nodes":"17","size_leaf_vector":"1"}},{"base_weights":[4.027696E-3,-2.6425156E-1,3.6743006E-1,-4.48058E-1,1.2479804E-1,-1.104972E-2,8.6423755E-1,-2.331904E-1,-5.3762245E-1,1.4059537E-2,3.68619E-1,-2.562124E-1,1.8156134E-1,7.2486496E-1,1.2349705E0,-4.4987097E-2,-1.6870607E-2,-5.5651706E-2,-4.2806707E-2,-8.246251E-3,1.3446986E-2,6.8833516E-3,4.745511E-2,-3.9079268E-2,-2.0316986E-2,9.359935E-3,2.926116E-2,3.472905E-2,8.358817E-2,8.437532E-2,1.5988839E-1],"categories":[],"categories_nodes":[],"categories_segments":[],"categories_sizes":[],"default_left":[0,0,0,0,0,0,0,0,0,0,0,0,0,0,0,0,0,0,0,0,0,0,0,0,0,0,0,0,0,0,0],"id":21,"left_children":[1,3,5,7,9,11,13,15,17,19,21,23,25,27,29,-1,-1,-1,-1,-1,-1,-1,-1,-1,-1,-1,-1,-1,-1,-1,-1],"loss_changes":[4.1944366E2,1.7704863E2,3.4358127E2,3.2227478E1,2.1458399E1,4.9066483E1,3.9929565E1,6.859524E0,2.2163696E0,6.3765507E0,7.8506927E0,3.1839886E0,5.6571293E0,2.3881287E1,2.9182648E1,0E0,0E0,0E0,0E0,0E0,0E0,0E0,0E0,0E0,0E0,0E0,0E0,0E0,0E0,0E0,0E0],"parents":[2147483647,0,0,1,1,2,2,3,3,4,4,5,5,6,6,7,7,8,8,9,9,10,10,11,11,12,12,13,13,14,14],"right_children":[2,4,6,8,10,12,14,16,18,20,22,24,26,28,30,-1,-1,-1,-1,-1,-1,-1,-1,-1,-1,-1,-1,-1,-1,-1,-1],"split_conditions":[4E-1,6.666667E-1,2.4166666E-1,4.895E-1,9.3E-1,1.4166667E-1,3.9E-1,1.7166667E-1,3.3333334E-1,1.6666667E-1,4.589E-1,7E-2,1.975E-1,6E-1,6E-1,-4.4987097E-2,-1.6870607E-2,-5.5651706E-2,-4.2806707E-2,-8.246251E-3,1.3446986E-2,6.8833516E-3,4.745511E-2,-3.9079268E-2,-2.0316986E-2,9.359935E-3,2.926116E-2,3.472905E-2,8.358817E-2,8.437532E-2,1.5988839E-1],"split_indices":[1,2,0,3,0,0,0,0,2,0,3,0,0,4,4,0,0,0,0,0,0,0,0,0,0,0,0,0,0,0,0],"split_type":[0,0,0,0,0,0,0,0,0,0,0,0,0,0,0,0,0,0,0,0,0,0,0,0,0,0,0,0,0,0,0],"sum_hessian":[4.300285E3,2.4740833E3,1.8262019E3,1.6801466E3,7.939367E2,1.0370956E3,7.891063E2,4.9536215E2,1.1847844E3,5.4669617E2,2.4724057E2,4.561545E2,5.809411E2,5.7565204E2,2.134543E2,1.1223916E2,3.83123E2,1.0070264E3,1.7775797E2,3.036237E2,2.4307246E2,6.498481E1,1.8225575E2,1.2715861E2,3.289959E2,3.251976E2,2.5574347E2,1.3173653E2,4.4391553E2,1.04467415E2,1.08986885E2],"tree_param":{"num_deleted":"0","num_feature":"5","num_nodes":"31","size_leaf_vector":"1"}},{"base_weights":[-5.272319E-4,-3.0508825E-1,4.4008163E-1,-1.2706617E-1,-4.249497E-1,8.833396E-1,-1.6397178E-1,-2.3908795E-1,3.4022868E-2,-2.4418397E-1,-5.170833E-1,1.3576541E0,1.5679826E-1,-2.6386413E-1,1.1501014E0,2.2897325E-1,-2.6389778E-2,2.598452E-1,-1.457973E-2,-3.5869304E-2,-7.437998E-3,-5.1879164E-2,-1.9859344E-2,9.103317E-2,1.7797108E-1,9.698065E-2,-4.882707E-2,-4.8085675E-2,-7.4464353E-3,1.46693E-1,2.1079963E-2],"categories":[],"categories_nodes":[],"categories_segments":[],"categories_sizes":[],"default_left":[0,0,0,0,0,0,0,0,0,0,0,0,0,0,0,0,0,0,0,0,0,0,0,0,0,0,0,0,0,0,0],"id":22,"left_children":[1,3,5,7,9,11,13,15,17,19,21,23,25,27,29,-1,-1,-1,-1,-1,-1,-1,-1,-1,-1,-1,-1,-1,-1,-1,-1],"loss_changes":[3.1936246E2,2.9972672E1,2.6058475E2,1.0251634E1,1.3872681E1,1.9317221E2,5.4453285E1,2.16183E1,1.0814995E2,5.5279408E0,1.9941711E-1,6.245514E1,1.1731107E2,1.5753782E1,8.419281E0,0E0,0E0,0E0,0E0,0E0,0E0,0E0,0E0,0E0,0E0,0E0,0E0,0E0,0E0,0E0,0E0],"parents":[2147483647,0,0,1,1,2,2,3,3,4,4,5,5,6,6,7,7,8,8,9,9,10,10,11,11,12,12,13,13,14,14],"right_children":[2,4,6,8,10,12,14,16,18,20,22,24,26,28,30,-1,-1,-1,-1,-1,-1,-1,-1,-1,-1,-1,-1,-1,-1,-1,-1],"split_conditions":[3.0166668E-1,6E-1,3.3333334E-1,2.2222222E-1,3.877551E-1,3.9344263E-1,1.6700819E-1,3.3333334E-1,4E-1,1.81E-1,3E-1,4.5E-1,6E-1,6.666667E-1,4E-1,2.2897325E-1,-2.6389778E-2,2.598452E-1,-1.457973E-2,-3.5869304E-2,-7.437998E-3,-5.1879164E-2,-1.9859344E-2,9.103317E-2,1.7797108E-1,9.698065E-2,-4.882707E-2,-4.8085675E-2,-7.4464353E-3,1.46693E-1,2.1079963E-2],"split_indices":[0,4,2,1,1,1,1,2,4,0,0,0,4,2,4,0,0,0,0,0,0,0,0,0,0,0,0,0,0,0,0],"split_type":[0,0,0,0,0,0,0,0,0,0,0,0,0,0,0,0,0,0,0,0,0,0,0,0,0,0,0,0,0,0,0],"sum_hessian":[2.3778865E3,1.4061938E3,9.716925E2,5.6664886E2,8.3954504E2,5.6017236E2,4.1152017E2,3.3394104E2,2.3270782E2,2.846713E2,5.548737E2,3.3838974E2,2.2178262E2,3.8319025E2,2.8329905E1,2.357463E0,3.315836E2,1.4367109E1,2.1834071E2,1.6935358E2,1.1531771E2,5.512878E2,3.585928E0,1.6581035E2,1.7257939E2,9.789629E1,1.2388633E2,1.7786922E2,2.0532104E2,2.0764326E1,7.565579E0],"tree_param":{"num_deleted":"0","num_feature":"5","num_nodes":"31","size_leaf_vector":"1"}},{"base_weights":[-9.476148E-3,2.437829E0,-4.417605E-1,2.574285E-1,6.1102163E-2,5.932678E-1,-4.9409356E-2,-3.1279825E-2,1.3058525E-1],"categories":[],"categories_nodes":[],"categories_segments":[],"categories_sizes":[],"default_left":[0,0,0,0,0,0,0,0,0],"id":23,"left_children":[1,3,5,-1,-1,7,-1,-1,-1],"loss_changes":[9.412491E1,1.7566376E0,4.387868E0,0E0,0E0,3.050921E0,0E0,0E0,0E0],"parents":[2147483647,0,0,1,1,2,2,5,5],"right_children":[2,4,6,-1,-1,8,-1,-1,-1],"split_conditions":[3.9125E-1,3.7875E-1,4.2125E-1,2.574285E-1,6.1102163E-2,1E0,-4.9409356E-2,-3.1279825E-2,1.3058525E-1],"split_indices":[3,3,3,0,0,2,0,0,0],"split_type":[0,0,0,0,0,0,0,0,0],"sum_hessian":[8.695272E1,1.2356884E1,7.459583E1,1.1117291E1,1.2395926E0,3.092709E0,7.150312E1,1.6085024E0,1.4842066E0],"tree_param":{"num_deleted":"0","num_feature":"5","num_nodes":"9","size_leaf_vector":"1"}},{"base_weights":[-1.3848984E-3,-7.128533E-1,3.8860515E-1,-7.530145E-1,2.2496884E-1,5.2174836E-1,-1.8363999E-1,-7.718361E-2,-6.061913E-1,-6.1050063E-1,4.966134E-1,6.4461577E-1,4.021397E-1,-6.862107E-2,-5.386322E-1,-7.3069446E-2,1.9560518E-2,1.5741989E-2,-6.9521956E-2,5.852264E-2,-2.8449086E-2,-7.5709194E-2,6.483621E-2,5.4644953E-2,3.0789647E-2,2.1930093E-2,-1.7413713E-2,-3.6935847E-2,-6.611101E-2],"categories":[],"categories_nodes":[],"categories_segments":[],"categories_sizes":[],"default_left":[0,0,0,0,0,0,0,0,0,0,0,0,0,0,0,0,0,0,0,0,0,0,0,0,0,0,0,0,0],"id":24,"left_children":[1,3,5,7,9,11,13,-1,15,17,19,21,23,25,27,-1,-1,-1,-1,-1,-1,-1,-1,-1,-1,-1,-1,-1,-1],"loss_changes":[2.4029924E3,1.1566211E2,4.263139E2,7.6585693E0,2.9056118E1,6.643823E1,4.310638E1,0E0,3.3964172E1,2.1609716E0,6.822178E0,1.2238281E1,3.1144836E1,2.4318426E1,5.113632E0,0E0,0E0,0E0,0E0,0E0,0E0,0E0,0E0,0E0,0E0,0E0,0E0,0E0,0E0],"parents":[2147483647,0,0,1,1,2,2,3,3,4,4,5,5,6,6,8,8,9,9,10,10,11,11,12,12,13,13,14,14],"right_children":[2,4,6,8,10,12,14,-1,16,18,20,22,24,26,28,-1,-1,-1,-1,-1,-1,-1,-1,-1,-1,-1,-1,-1,-1],"split_conditions":[2.5378788E-1,6E-1,3.1875E-1,4E-1,2.1428572E-1,1.76E-1,4.6E-1,-7.718361E-2,1.6700819E-1,3.3333334E-1,3.0666667E-1,4E-1,4E-1,5E-1,5.2E-1,-7.3069446E-2,1.9560518E-2,1.5741989E-2,-6.9521956E-2,5.852264E-2,-2.8449086E-2,-7.5709194E-2,6.483621E-2,5.4644953E-2,3.0789647E-2,2.1930093E-2,-1.7413713E-2,-3.6935847E-2,-6.611101E-2],"split_indices":[1,4,0,4,1,0,0,0,1,2,0,4,1,3,0,0,0,0,0,0,0,0,0,0,0,0,0,0,0],"split_type":[0,0,0,0,0,0,0,0,0,0,0,0,0,0,0,0,0,0,0,0,0,0,0,0,0,0,0,0,0],"sum_hessian":[8.658506E3,3.0653977E3,5.5931084E3,2.9397053E3,1.25692406E2,4.5374717E3,1.0556366E3,2.601904E3,3.3780127E2,3.0534166E1,9.515823E1,2.2360796E3,2.301392E3,7.9820746E2,2.5742917E2,2.9247443E2,4.5326824E1,2.9486325E0,2.7585533E1,8.568806E1,9.470178E0,5.4243298E0,2.2306553E3,9.0729675E2,1.3940953E3,2.1378188E2,5.844256E2,1.09755066E2,1.476741E2],"tree_param":{"num_deleted":"0","num_feature":"5","num_nodes":"29","size_leaf_vector":"1"}},{"base_weights":[-3.3328729E-3,5.9250635E-1,-5.1165086E-1,6.5361285E-1,1.0835348E-1,-3.5959306E-1,-6.0942376E-1,8.121094E-1,5.486612E-1,-2.6465267E-1,2.937146E-1,-4.3600312E-1,-1.789361E-1,-5.1547384E-1,-6.116254E-1,8.6119644E-2,6.610604E-2,-5.3910654E-2,5.6730926E-2,-6.155014E-2,-1.5500734E-2,-3.6305837E-2,4.3837424E-2,-5.1866617E-2,-3.998265E-2,-6.1401356E-2,-1.2872946E-2,-3.951335E-2,-5.694445E-2,-6.120954E-2,-1.0200943E-2],"categories":[],"categories_nodes":[],"categories_segments":[],"categories_sizes":[],"default_left":[0,0,0,0,0,0,0,0,0,0,0,0,0,0,0,0,0,0,0,0,0,0,0,0,0,0,0,0,0,0,0],"id":25,"left_children":[1,3,5,7,9,11,13,15,17,19,21,23,25,27,29,-1,-1,-1,-1,-1,-1,-1,-1,-1,-1,-1,-1,-1,-1,-1,-1],"loss_changes":[1.9958213E3,8.967847E1,5.2647522E1,4.4358765E1,2.3666737E1,1.9165909E1,1.3214111E-1,7.3710938E0,3.323877E1,4.28179E0,2.1857952E1,2.7203217E0,9.009495E0,1.3796139E-1,4.4256592E-1,0E0,0E0,0E0,0E0,0E0,0E0,0E0,0E0,0E0,0E0,0E0,0E0,0E0,0E0,0E0,0E0],"parents":[2147483647,0,0,1,1,2,2,3,3,4,4,5,5,6,6,7,7,8,8,9,9,10,10,11,11,12,12,13,13,14,14],"right_children":[2,4,6,8,10,12,14,16,18,20,22,24,26,28,30,-1,-1,-1,-1,-1,-1,-1,-1,-1,-1,-1,-1,-1,-1,-1,-1],"split_conditions":[2.5378788E-1,1.6700819E-1,3.877551E-1,2.25E-1,2.5E-1,2.85E-1,5E-1,1E0,3.3333334E-1,4E-1,4.975E-1,1.3E-1,4E-1,4E-1,4.117647E-1,8.6119644E-2,6.610604E-2,-5.3910654E-2,5.6730926E-2,-6.155014E-2,-1.5500734E-2,-3.6305837E-2,4.3837424E-2,-5.1866617E-2,-3.998265E-2,-6.1401356E-2,-1.2872946E-2,-3.951335E-2,-5.694445E-2,-6.120954E-2,-1.0200943E-2],"split_indices":[1,1,1,0,1,0,3,2,2,4,3,0,4,1,1,0,0,0,0,0,0,0,0,0,0,0,0,0,0,0,0],"split_type":[0,0,0,0,0,0,0,0,0,0,0,0,0,0,0,0,0,0,0,0,0,0,0,0,0,0,0,0,0,0,0],"sum_hessian":[6.587569E3,3.0326257E3,3.5549434E3,2.6924526E3,3.4017316E2,1.3930812E3,2.161862E3,1.0699268E3,1.6225258E3,1.1278525E2,2.2738792E2,9.780113E2,4.1506985E2,5.4885754E1,2.1069763E3,8.0395953E2,2.659672E2,2.6876507E1,1.5956493E3,2.575608E1,8.702917E1,4.0771297E1,1.8661662E2,2.9366183E2,6.843495E2,4.1780582E1,3.7328928E2,1.9570326E1,3.531543E1,2.1048337E3,2.142524E0],"tree_param":{"num_deleted":"0","num_feature":"5","num_nodes":"31","size_leaf_vector":"1"}},{"base_weights":[2.92538E-3,6.069886E-1,-5.1181877E-1,2.120313E-1,7.6064956E-1,1.361998E-1,-5.161544E-1,4.284263E-1,3.8708437E-2,9.2290074E-1,5.117778E-1,-3.5142076E-1,-5.1939566E-2,5.712836E-2,-4.07041E-3,-1.221613E-2,2.522172E-2,1.0919304E-1,4.048181E-2,3.6155626E-2,7.1852215E-2,4.7415912E-2,-4.9172454E-2],"categories":[],"categories_nodes":[],"categories_segments":[],"categories_sizes":[],"default_left":[0,0,0,0,0,0,0,0,0,0,0,0,0,0,0,0,0,0,0,0,0,0,0],"id":26,"left_children":[1,3,5,7,9,-1,11,13,15,17,19,21,-1,-1,-1,-1,-1,-1,-1,-1,-1,-1,-1],"loss_changes":[5.253649E2,4.7016327E1,8.114349E0,8.201589E0,2.2109833E1,0E0,3.0384827E-1,6.54751E0,4.247443E0,2.9095062E1,6.6645546E0,2.6272173E0,0E0,0E0,0E0,0E0,0E0,0E0,0E0,0E0,0E0,0E0,0E0],"parents":[2147483647,0,0,1,1,2,2,3,3,4,4,6,6,7,7,8,8,9,9,10,10,11,11],"right_children":[2,4,6,8,10,-1,12,14,16,18,20,22,-1,-1,-1,-1,-1,-1,-1,-1,-1,-1,-1],"split_conditions":[2.1428572E-1,1.7166667E-1,4.0575E-1,6.666667E-1,6.666667E-1,1.361998E-1,2.5E-1,4.888E-1,4.875E-1,4.888E-1,4.8565E-1,4.888E-1,-5.1939566E-2,5.712836E-2,-4.07041E-3,-1.221613E-2,2.522172E-2,1.0919304E-1,4.048181E-2,3.6155626E-2,7.1852215E-2,4.7415912E-2,-4.9172454E-2],"split_indices":[1,0,3,2,2,0,1,3,3,3,3,3,0,0,0,0,0,0,0,0,0,0,0],"split_type":[0,0,0,0,0,0,0,0,0,0,0,0,0,0,0,0,0,0,0,0,0,0,0],"sum_hessian":[1.6876139E3,7.7635986E2,9.11254E2,2.1811508E2,5.5824475E2,1.3807335E0,9.0987335E2,9.634978E1,1.21765305E2,3.3629196E2,2.2195282E2,1.9668406E1,8.902049E2,7.369177E1,2.2658E1,6.968698E1,5.2078323E1,2.5272899E2,8.356297E1,1.3014069E2,9.181213E1,2.511375E0,1.715703E1],"tree_param":{"num_deleted":"0","num_feature":"5","num_nodes":"23","size_leaf_vector":"1"}},{"base_weights":[6.6134385E-3,-2.54115E-1,3.4467444E-1,-4.387683E-1,1.14981964E-1,3.1864003E-3,7.688455E-1,-2.23498E-1,-5.31626E-1,-7.873272E-2,2.3155965E-1,-2.4026942E-1,1.8407115E-1,6.53439E-1,1.0614935E0,-4.417879E-2,-1.5989562E-2,-5.513971E-2,-4.198381E-2,-9.863824E-3,4.4998486E-2,-2.5512287E-2,2.648097E-2,-3.7761874E-2,-1.8694058E-2,-5.2151155E-2,1.965951E-2,3.330486E-2,7.44754E-2,7.358571E-2,1.3557526E-1],"categories":[],"categories_nodes":[],"categories_segments":[],"categories_sizes":[],"default_left":[0,0,0,0,0,0,0,0,0,0,0,0,0,0,0,0,0,0,0,0,0,0,0,0,0,0,0,0,0,0,0],"id":27,"left_children":[1,3,5,7,9,11,13,15,17,19,21,23,25,27,29,-1,-1,-1,-1,-1,-1,-1,-1,-1,-1,-1,-1,-1,-1,-1,-1],"loss_changes":[3.7597757E2,1.6418484E2,2.6903168E2,3.1972443E1,1.8171362E1,4.5401005E1,2.728357E1,6.6703625E0,2.2458496E0,3.2306862E0,8.192545E0,3.1484394E0,5.3292675E0,1.7209183E1,2.1298279E1,0E0,0E0,0E0,0E0,0E0,0E0,0E0,0E0,0E0,0E0,0E0,0E0,0E0,0E0,0E0,0E0],"parents":[2147483647,0,0,1,1,2,2,3,3,4,4,5,5,6,6,7,7,8,8,9,9,10,10,11,11,12,12,13,13,14,14],"right_children":[2,4,6,8,10,12,14,16,18,20,22,24,26,28,30,-1,-1,-1,-1,-1,-1,-1,-1,-1,-1,-1,-1,-1,-1,-1,-1],"split_conditions":[4E-1,6.666667E-1,2.45E-1,4.895E-1,1.6666667E-1,1.4166667E-1,3.9E-1,1.7166667E-1,3.3333334E-1,4.95E-1,4.1E-1,7E-2,4.975E-1,6E-1,6E-1,-4.417879E-2,-1.5989562E-2,-5.513971E-2,-4.198381E-2,-9.863824E-3,4.4998486E-2,-2.5512287E-2,2.648097E-2,-3.7761874E-2,-1.8694058E-2,-5.2151155E-2,1.965951E-2,3.330486E-2,7.44754E-2,7.358571E-2,1.3557526E-1],"split_indices":[1,2,0,3,0,0,0,0,2,3,3,0,3,4,4,0,0,0,0,0,0,0,0,0,0,0,0,0,0,0,0],"split_type":[0,0,0,0,0,0,0,0,0,0,0,0,0,0,0,0,0,0,0,0,0,0,0,0,0,0,0,0,0,0,0],"sum_hessian":[4.2635903E3,2.407253E3,1.8563375E3,1.6044056E3,8.028473E2,1.0289592E3,8.2737823E2,4.845317E2,1.1198739E3,3.0175385E2,5.010934E2,4.3847717E2,5.904821E2,5.956966E2,2.3168169E2,1.0798161E2,3.765501E2,9.482344E2,1.7163954E2,2.9158936E2,1.016451E1,3.161853E1,4.6947488E2,1.2093254E2,3.1754462E2,9.589357E0,5.8089276E2,1.3315439E2,4.6254218E2,1.1163907E2,1.2004262E2],"tree_param":{"num_deleted":"0","num_feature":"5","num_nodes":"31","size_leaf_vector":"1"}},{"base_weights":[5.839474E-4,-2.9444766E-1,3.9578992E-1,-1.19604975E-1,-4.16823E-1,7.6949465E-1,-1.5909465E-1,-1.7417231E-1,2.1244922E-1,-2.3078023E-1,-5.140123E-1,1.1416322E0,1.4442608E-1,-2.4045137E-1,1.1949794E0,-3.588194E-2,2.3751508E-3,-4.7945745E-2,2.9619722E-2,-3.4776803E-2,-6.190226E-3,-5.1582664E-2,-1.892755E-2,4.4967756E-2,1.3166846E-1,8.354478E-2,-4.8351597E-2,-4.623234E-2,-5.132349E-3,1.495273E-1,2.5550796E-2],"categories":[],"categories_nodes":[],"categories_segments":[],"categories_sizes":[],"default_left":[0,0,0,0,0,0,0,0,0,0,0,0,0,0,0,0,0,0,0,0,0,0,0,0,0,0,0,0,0,0,0],"id":28,"left_children":[1,3,5,7,9,11,13,15,17,19,21,23,25,27,29,-1,-1,-1,-1,-1,-1,-1,-1,-1,-1,-1,-1,-1,-1,-1,-1],"loss_changes":[2.7504962E2,2.8849335E1,2.0920602E2,1.0138799E1,1.4240494E1,1.400268E2,4.508088E1,1.7527891E1,4.727705E0,5.398093E0,2.0922852E-1,4.514966E1,9.8494225E1,1.6106459E1,6.1668053E0,0E0,0E0,0E0,0E0,0E0,0E0,0E0,0E0,0E0,0E0,0E0,0E0,0E0,0E0,0E0,0E0],"parents":[2147483647,0,0,1,1,2,2,3,3,4,4,5,5,6,6,7,7,8,8,9,9,10,10,11,11,12,12,13,13,14,14],"right_children":[2,4,6,8,10,12,14,16,18,20,22,24,26,28,30,-1,-1,-1,-1,-1,-1,-1,-1,-1,-1,-1,-1,-1,-1,-1,-1],"split_conditions":[3.0166668E-1,6E-1,3.3333334E-1,1E0,3.877551E-1,3.9344263E-1,2.3529412E-1,1.6700819E-1,3.975E-1,1.81E-1,3E-1,3.5E-1,6E-1,6.666667E-1,4E-1,-3.588194E-2,2.3751508E-3,-4.7945745E-2,2.9619722E-2,-3.4776803E-2,-6.190226E-3,-5.1582664E-2,-1.892755E-2,4.4967756E-2,1.3166846E-1,8.354478E-2,-4.8351597E-2,-4.623234E-2,-5.132349E-3,1.495273E-1,2.5550796E-2],"split_indices":[0,4,2,2,1,1,1,1,3,0,0,0,4,2,4,0,0,0,0,0,0,0,0,0,0,0,0,0,0,0,0],"split_type":[0,0,0,0,0,0,0,0,0,0,0,0,0,0,0,0,0,0,0,0,0,0,0,0,0,0,0,0,0,0,0],"sum_hessian":[2.356952E3,1.3496545E3,1.0072975E3,5.565154E2,7.9313916E2,6.0168604E2,4.0561145E2,4.7837778E2,7.813761E1,2.7331863E2,5.198205E2,3.7663074E2,2.2505528E2,3.833982E2,2.2213257E1,2.4706914E2,2.3130864E2,7.926411E0,7.02112E1,1.6083984E2,1.12478775E2,5.163471E2,3.4733841E0,7.67639E1,2.9986685E2,1.0698866E2,1.1806662E2,1.7576181E2,2.0763637E2,1.6384493E1,5.828764E0],"tree_param":{"num_deleted":"0","num_feature":"5","num_nodes":"31","size_leaf_vector":"1"}},{"base_weights":[-6.5309154E-3,1.692509E0,-4.9363207E-2,1.0761987E0,2.4907374E-1,1.962866E-1,2.9755753E-1,4.8879523E-2,-3.1135147E-2],"categories":[],"categories_nodes":[],"categories_segments":[],"categories_sizes":[],"default_left":[0,0,0,0,0,0,0,0,0],"id":29,"left_children":[1,3,-1,5,-1,-1,7,-1,-1],"loss_changes":[7.2927605E1,6.9789963E0,0E0,8.281207E0,0E0,0E0,1.0855739E0,0E0,0E0],"parents":[2147483647,0,0,1,1,3,3,6,6],"right_children":[2,4,-1,6,-1,-1,8,-1,-1],"split_conditions":[4.2125E-1,1E0,-4.9363207E-2,3.2845E-1,2.4907374E-1,1.962866E-1,7.6E-1,4.8879523E-2,-3.1135147E-2],"split_indices":[3,0,0,3,0,0,0,0,0],"split_type":[0,0,0,0,0,0,0,0,0],"sum_hessian":[8.610941E1,1.8634928E1,6.747449E1,1.1840859E1,6.794069E0,4.8252664E0,7.015593E0,5.488958E0,1.5266352E0],"tree_param":{"num_deleted":"0","num_feature":"5","num_nodes":"9","size_leaf_vector":"1"}},{"base_weights":[-3.066739E-3,-6.83787E-1,3.6262262E-1,-7.2286683E-1,2.123112E-1,4.9230596E-1,-1.532644E-1,-7.415672E-2,-5.778785E-1,-5.8130103E-1,4.6674758E-1,6.098265E-1,3.8148052E-1,3.4067478E-2,-3.564219E-1,-6.994784E-2,1.7895168E-2,1.4946324E-2,-6.6423714E-2,5.518657E-2,-2.7181176E-2,-7.3934E-2,6.135912E-2,5.2032292E-2,2.9242638E-2,2.5967225E-2,-4.525374E-3,-2.5220945E-2,-6.3112E-2],"categories":[],"categories_nodes":[],"categories_segments":[],"categories_sizes":[],"default_left":[0,0,0,0,0,0,0,0,0,0,0,0,0,0,0,0,0,0,0,0,0,0,0,0,0,0,0,0,0],"id":30,"left_children":[1,3,5,7,9,11,13,-1,15,17,19,21,23,25,27,-1,-1,-1,-1,-1,-1,-1,-1,-1,-1,-1,-1,-1,-1],"loss_changes":[2.1052393E3,1.0365332E2,3.681422E2,7.2506104E0,2.5366299E1,5.7030518E1,4.2101517E1,0E0,3.0319626E1,1.9548674E0,6.1009445E0,1.1283508E1,2.785904E1,1.0324575E1,1.5031502E1,0E0,0E0,0E0,0E0,0E0,0E0,0E0,0E0,0E0,0E0,0E0,0E0,0E0,0E0],"parents":[2147483647,0,0,1,1,2,2,3,3,4,4,5,5,6,6,8,8,9,9,10,10,11,11,12,12,13,13,14,14],"right_children":[2,4,6,8,10,12,14,-1,16,18,20,22,24,26,28,-1,-1,-1,-1,-1,-1,-1,-1,-1,-1,-1,-1,-1,-1],"split_conditions":[2.5378788E-1,6E-1,3.125E-1,4E-1,2.1428572E-1,1.7375E-1,3.9E-1,-7.415672E-2,1.6700819E-1,3.3333334E-1,3.0666667E-1,4E-1,4E-1,5E-1,5.2E-1,-6.994784E-2,1.7895168E-2,1.4946324E-2,-6.6423714E-2,5.518657E-2,-2.7181176E-2,-7.3934E-2,6.135912E-2,5.2032292E-2,2.9242638E-2,2.5967225E-2,-4.525374E-3,-2.5220945E-2,-6.3112E-2],"split_indices":[1,4,0,4,1,0,0,0,1,2,0,4,1,3,0,0,0,0,0,0,0,0,0,0,0,0,0,0,0],"split_type":[0,0,0,0,0,0,0,0,0,0,0,0,0,0,0,0,0,0,0,0,0,0,0,0,0,0,0,0,0],"sum_hessian":[8.455084E3,2.9544993E3,5.500585E3,2.8312197E3,1.2327943E2,4.3956543E3,1.1049309E3,2.504128E3,3.2709195E2,2.9616858E1,9.366257E1,2.131202E3,2.2644524E3,5.752886E2,5.2964233E2,2.8187833E2,4.521362E1,2.9369287E0,2.667993E1,8.421021E1,9.452353E0,5.3866234E0,2.1258152E3,8.8297797E2,1.3814744E3,1.490599E2,4.2622867E2,3.8536447E2,1.4427788E2],"tree_param":{"num_deleted":"0","num_feature":"5","num_nodes":"29","size_leaf_vector":"1"}},{"base_weights":[-4.167896E-3,5.3387165E-1,-4.9748322E-1,5.8758587E-1,9.9148065E-2,-3.4155816E-1,-5.9963405E-1,6.515493E-1,3.5267434E-1,-3.2058993E-1,2.4212095E-1,-4.3101454E-1,-1.910847E-1,-5.01978E-1,-6.0194594E-1,-5.1393278E-2,6.677127E-2,4.4646364E-2,2.8974075E-2,-6.26657E-2,1.6082736E-2,-2.2222204E-2,3.9815597E-2,-5.030587E-2,-3.9457824E-2,-6.0330875E-2,-1.5378152E-2,-3.7856147E-2,-5.5817116E-2,-6.0243946E-2,-8.91105E-3],"categories":[],"categories_nodes":[],"categories_segments":[],"categories_sizes":[],"default_left":[0,0,0,0,0,0,0,0,0,0,0,0,0,0,0,0,0,0,0,0,0,0,0,0,0,0,0,0,0,0,0],"id":31,"left_children":[1,3,5,7,9,11,13,15,17,19,21,23,25,27,29,-1,-1,-1,-1,-1,-1,-1,-1,-1,-1,-1,-1,-1,-1,-1,-1],"loss_changes":[1.7189254E3,7.22749E1,5.360742E1,4.119348E1,2.0592941E1,1.7949615E1,1.5838623E-1,4.113977E1,3.3659592E0,1.2962501E1,1.8605425E1,2.004776E0,7.6151505E0,1.5762901E-1,4.494629E-1,0E0,0E0,0E0,0E0,0E0,0E0,0E0,0E0,0E0,0E0,0E0,0E0,0E0,0E0,0E0,0E0],"parents":[2147483647,0,0,1,1,2,2,3,3,4,4,5,5,6,6,7,7,8,8,9,9,10,10,11,11,12,12,13,13,14,14],"right_children":[2,4,6,8,10,12,14,16,18,20,22,24,26,28,30,-1,-1,-1,-1,-1,-1,-1,-1,-1,-1,-1,-1,-1,-1,-1,-1],"split_conditions":[2.5378788E-1,1.6700819E-1,3.877551E-1,8.85E-1,4.975E-1,2.5666666E-1,5E-1,3.3333334E-1,9.75E-1,4E-1,2.5E-1,1.3E-1,4E-1,4E-1,4.117647E-1,-5.1393278E-2,6.677127E-2,4.4646364E-2,2.8974075E-2,-6.26657E-2,1.6082736E-2,-2.2222204E-2,3.9815597E-2,-5.030587E-2,-3.9457824E-2,-6.0330875E-2,-1.5378152E-2,-3.7856147E-2,-5.5817116E-2,-6.0243946E-2,-8.91105E-3],"split_indices":[1,1,1,0,3,0,3,2,0,4,1,0,4,1,1,0,0,0,0,0,0,0,0,0,0,0,0,0,0,0,0],"split_type":[0,0,0,0,0,0,0,0,0,0,0,0,0,0,0,0,0,0,0,0,0,0,0,0,0,0,0,0,0,0,0],"sum_hessian":[6.4741694E3,3.0966707E3,3.3774985E3,2.7558123E3,3.4085843E2,1.3385907E3,2.0389078E3,2.164636E3,5.911762E2,8.6289246E1,2.5456918E2,8.383361E2,5.002546E2,5.2197147E1,1.9867107E3,2.9188236E1,2.1354478E3,2.3494531E2,3.5623087E2,5.256726E1,3.3721985E1,6.392154E1,1.9064764E2,2.77278E2,5.610581E2,4.025359E1,4.60001E2,1.8751097E1,3.3446053E1,1.984626E3,2.084709E0],"tree_param":{"num_deleted":"0","num_feature":"5","num_nodes":"31","size_leaf_vector":"1"}},{"base_weights":[5.2086273E-3,-5.180193E-2,5.370714E-1,1.918299E-1,6.6829765E-1,3.9277092E-1,2.613156E-2,8.108388E-1,4.4824347E-1,5.247138E-2,-5.7059745E-3,-1.0810769E-2,1.9054526E-2,7.290988E-2,1.4308429E-1,8.829223E-2,3.9875112E-2],"categories":[],"categories_nodes":[],"categories_segments":[],"categories_sizes":[],"default_left":[0,0,0,0,0,0,0,0,0,0,0,0,0,0,0,0,0],"id":32,"left_children":[1,-1,3,5,7,9,11,13,15,-1,-1,-1,-1,-1,-1,-1,-1],"loss_changes":[4.666591E2,0E0,3.754666E1,7.662174E0,1.852414E1,6.2067356E0,2.8316066E0,1.7414246E1,4.7885475E0,0E0,0E0,0E0,0E0,0E0,0E0,0E0,0E0],"parents":[2147483647,0,0,2,2,3,3,4,4,5,5,6,6,7,7,8,8],"right_children":[2,-1,4,6,8,10,12,14,16,-1,-1,-1,-1,-1,-1,-1,-1],"split_conditions":[3.3333334E-1,-5.180193E-2,1.7166667E-1,6.666667E-1,6.666667E-1,4.888E-1,4.875E-1,9.2E-1,4.2125E-1,5.247138E-2,-5.7059745E-3,-1.0810769E-2,1.9054526E-2,7.290988E-2,1.4308429E-1,8.829223E-2,3.9875112E-2],"split_indices":[2,0,0,2,2,3,3,0,3,0,0,0,0,0,0,0,0],"split_type":[0,0,0,0,0,0,0,0,0,0,0,0,0,0,0,0,0],"sum_hessian":[1.6749081E3,8.4432086E2,8.305872E2,2.29434E2,6.011532E2,1.03070656E2,1.2636334E2,3.6320245E2,2.3795078E2,7.956612E1,2.3504545E1,6.975378E1,5.6609566E1,3.2281866E2,4.038379E1,2.2602158E1,2.1534862E2],"tree_param":{"num_deleted":"0","num_feature":"5","num_nodes":"17","size_leaf_vector":"1"}},{"base_weights":[9.4016045E-3,-2.4359497E-1,3.239204E-1,-4.2947325E-1,1.0853602E-1,8.960432E-3,6.843543E-1,-2.1382044E-1,-5.2584916E-1,1.2046779E-2,3.1050774E-1,-2.233612E-1,1.7640948E-1,5.227502E-1,8.3514917E-1,-4.3279354E-2,-1.5171925E-2,-5.4654885E-2,-4.121766E-2,-4.5938015E-2,3.1930245E-3,5.118683E-3,3.9841477E-2,-3.63741E-2,-1.6970463E-2,1.879215E-2,-5.1497784E-2,1.6905718E-2,6.1004914E-2,6.014405E-2,9.7552836E-2],"categories":[],"categories_nodes":[],"categories_segments":[],"categories_sizes":[],"default_left":[0,0,0,0,0,0,0,0,0,0,0,0,0,0,0,0,0,0,0,0,0,0,0,0,0,0,0,0,0,0,0],"id":33,"left_children":[1,3,5,7,9,11,13,15,17,19,21,23,25,27,29,-1,-1,-1,-1,-1,-1,-1,-1,-1,-1,-1,-1,-1,-1,-1,-1],"loss_changes":[3.3611755E2,1.5327379E2,2.1376303E2,3.1736694E1,1.5773813E1,3.9172356E1,2.0962494E1,6.3935966E0,2.2651672E0,5.1598845E0,5.9452267E0,3.1153202E0,4.754097E0,1.3067253E1,1.4261475E1,0E0,0E0,0E0,0E0,0E0,0E0,0E0,0E0,0E0,0E0,0E0,0E0,0E0,0E0,0E0,0E0],"parents":[2147483647,0,0,1,1,2,2,3,3,4,4,5,5,6,6,7,7,8,8,9,9,10,10,11,11,12,12,13,13,14,14],"right_children":[2,4,6,8,10,12,14,16,18,20,22,24,26,28,30,-1,-1,-1,-1,-1,-1,-1,-1,-1,-1,-1,-1,-1,-1,-1,-1],"split_conditions":[4E-1,6.666667E-1,2.4166666E-1,4.895E-1,9.3E-1,1.4166667E-1,3.275E-1,1.7166667E-1,3.3333334E-1,3.9125E-1,4.589E-1,7E-2,4.052901E-1,6E-1,6E-1,-4.3279354E-2,-1.5171925E-2,-5.4654885E-2,-4.121766E-2,-4.5938015E-2,3.1930245E-3,5.118683E-3,3.9841477E-2,-3.63741E-2,-1.6970463E-2,1.879215E-2,-5.1497784E-2,1.6905718E-2,6.1004914E-2,6.014405E-2,9.7552836E-2],"split_indices":[1,2,0,3,0,0,0,0,2,3,3,0,1,4,4,0,0,0,0,0,0,0,0,0,0,0,0,0,0,0,0],"split_type":[0,0,0,0,0,0,0,0,0,0,0,0,0,0,0,0,0,0,0,0,0,0,0,0,0,0,0,0,0,0,0],"sum_hessian":[4.2220674E3,2.3400078E3,1.8820594E3,1.5314084E3,8.0859937E2,1.0049358E3,8.7712366E2,4.7399835E2,1.0574102E3,5.479049E2,2.6069446E2,4.207903E2,5.8414545E2,4.2554333E2,4.5158035E2,1.0340744E2,3.705909E2,8.912976E2,1.661125E2,2.1279324E1,5.266256E2,6.6400085E1,1.9429437E2,1.1476239E2,3.0602792E2,5.752947E2,8.850802E0,8.482205E1,3.4072128E2,1.7144182E2,2.8013855E2],"tree_param":{"num_deleted":"0","num_feature":"5","num_nodes":"31","size_leaf_vector":"1"}},{"base_weights":[2.0361089E-3,-2.8339612E-1,3.5861892E-1,-1.113117E-1,-4.085105E-1,6.799697E-1,-1.5430327E-1,-2.2344606E-1,4.6083312E-2,-2.1690474E-1,-5.110649E-1,1.2273716E0,3.6644945E-1,-2.4945232E-1,8.5712665E-1,1.8487452E-1,-2.4857277E-2,1.9185697E-1,-1.2697083E-2,-2.8455202E-2,7.8674685E-3,-5.1299352E-2,-1.7924339E-2,1.5415376E-1,9.5214665E-2,1.9703668E-2,1.0238601E-1,-7.015045E-4,-4.1868743E-2,3.811752E-2,1.2576176E-1],"categories":[],"categories_nodes":[],"categories_segments":[],"categories_sizes":[],"default_left":[0,0,0,0,0,0,0,0,0,0,0,0,0,0,0,0,0,0,0,0,0,0,0,0,0,0,0,0,0,0,0],"id":34,"left_children":[1,3,5,7,9,11,13,15,17,19,21,23,25,27,29,-1,-1,-1,-1,-1,-1,-1,-1,-1,-1,-1,-1,-1,-1,-1,-1],"loss_changes":[2.376196E2,2.787252E1,1.7118776E2,9.668968E0,1.46352005E1,1.0910132E2,3.8767998E1,1.7107864E1,7.428923E1,5.2884054E0,2.2039795E-1,1.8595337E1,4.5160336E1,1.5052462E1,6.129711E0,0E0,0E0,0E0,0E0,0E0,0E0,0E0,0E0,0E0,0E0,0E0,0E0,0E0,0E0,0E0,0E0],"parents":[2147483647,0,0,1,1,2,2,3,3,4,4,5,5,6,6,7,7,8,8,9,9,10,10,11,11,12,12,13,13,14,14],"right_children":[2,4,6,8,10,12,14,16,18,20,22,24,26,28,30,-1,-1,-1,-1,-1,-1,-1,-1,-1,-1,-1,-1,-1,-1,-1,-1],"split_conditions":[3.0166668E-1,6E-1,3.3333334E-1,2.2222222E-1,3.877551E-1,4E-1,1.6700819E-1,3.3333334E-1,4E-1,2.4E-1,3E-1,4.975E-1,4.75E-1,4.85E-1,6.666667E-1,1.8487452E-1,-2.4857277E-2,1.9185697E-1,-1.2697083E-2,-2.8455202E-2,7.8674685E-3,-5.1299352E-2,-1.7924339E-2,1.5415376E-1,9.5214665E-2,1.9703668E-2,1.0238601E-1,-7.015045E-4,-4.1868743E-2,3.811752E-2,1.2576176E-1],"split_indices":[0,4,2,1,1,4,1,2,4,0,0,3,0,3,2,0,0,0,0,0,0,0,0,0,0,0,0,0,0,0,0],"split_type":[0,0,0,0,0,0,0,0,0,0,0,0,0,0,0,0,0,0,0,0,0,0,0,0,0,0,0,0,0,0,0],"sum_hessian":[2.3326355E3,1.2956876E3,1.036948E3,5.4625244E2,7.494352E2,6.373293E2,3.9961877E2,3.187458E2,2.2750662E2,2.6236496E2,4.8707022E2,2.3103343E2,4.0629584E2,3.659462E2,3.3672577E1,2.9492028E0,3.157966E2,1.8393888E1,2.0911273E2,2.1353253E2,4.8832436E1,4.8371277E2,3.3574286E0,1.0573601E2,1.2529742E2,3.2408087E2,8.221496E1,1.5086559E2,2.150806E2,1.6278568E1,1.739401E1],"tree_param":{"num_deleted":"0","num_feature":"5","num_nodes":"31","size_leaf_vector":"1"}},{"base_weights":[-3.064361E-3,1.4032128E0,-4.9314138E-2,9.411224E-1,1.9345495E-1,1.6139513E-1,2.752288E-1,4.4920903E-2,-3.078091E-2],"categories":[],"categories_nodes":[],"categories_segments":[],"categories_sizes":[],"default_left":[0,0,0,0,0,0,0,0,0],"id":35,"left_children":[1,3,-1,5,-1,-1,7,-1,-1],"loss_changes":[6.004596E1,3.707779E0,0E0,5.823967E0,0E0,0E0,9.738129E-1,0E0,0E0],"parents":[2147483647,0,0,1,1,3,3,6,6],"right_children":[2,4,-1,6,-1,-1,8,-1,-1],"split_conditions":[4.2125E-1,1E0,-4.9314138E-2,3.2845E-1,1.9345495E-1,1.6139513E-1,7.6E-1,4.4920903E-2,-3.078091E-2],"split_indices":[3,0,0,3,0,0,0,0,0],"split_type":[0,0,0,0,0,0,0,0,0],"sum_hessian":[8.51221E1,2.151668E1,6.360542E1,1.2990445E1,8.526235E0,5.7533927E0,7.2370524E0,5.750595E0,1.4864572E0],"tree_param":{"num_deleted":"0","num_feature":"5","num_nodes":"9","size_leaf_vector":"1"}},{"base_weights":[-5.062015E-3,-6.5889776E-1,3.3874565E-1,-6.970043E-1,1.9837676E-1,4.635898E-1,-1.335337E-1,-7.1592204E-2,-5.5145997E-1,-6.30127E-1,4.1662833E-1,5.764103E-1,3.575836E-1,4.0469296E-2,-3.3451492E-1,-6.728204E-2,1.750063E-2,-6.892952E-2,2.0984575E-2,5.354276E-2,-1.1762827E-2,-7.0434265E-2,5.8003724E-2,4.8700877E-2,2.7574554E-2,2.6844192E-2,-4.0198527E-3,-2.3518275E-2,-6.021459E-2],"categories":[],"categories_nodes":[],"categories_segments":[],"categories_sizes":[],"default_left":[0,0,0,0,0,0,0,0,0,0,0,0,0,0,0,0,0,0,0,0,0,0,0,0,0,0,0,0,0],"id":36,"left_children":[1,3,5,7,9,11,13,-1,15,17,19,21,23,25,27,-1,-1,-1,-1,-1,-1,-1,-1,-1,-1,-1,-1,-1,-1],"loss_changes":[1.8514191E3,9.285974E1,3.1832166E2,7.088135E0,2.2245893E1,5.0855103E1,3.9507393E1,0E0,2.8063057E1,1.4242458E0,6.2085724E0,1.0008484E1,2.3208527E1,1.1158418E1,1.3792412E1,0E0,0E0,0E0,0E0,0E0,0E0,0E0,0E0,0E0,0E0,0E0,0E0,0E0,0E0],"parents":[2147483647,0,0,1,1,2,2,3,3,4,4,5,5,6,6,8,8,9,9,10,10,11,11,12,12,13,13,14,14],"right_children":[2,4,6,8,10,12,14,-1,16,18,20,22,24,26,28,-1,-1,-1,-1,-1,-1,-1,-1,-1,-1,-1,-1,-1,-1],"split_conditions":[2.5378788E-1,6E-1,3.1E-1,4E-1,1.6700819E-1,1.7375E-1,3.9E-1,-7.1592204E-2,1.6700819E-1,4.95E-1,2.7125E-1,4E-1,4E-1,5E-1,5.2E-1,-6.728204E-2,1.750063E-2,-6.892952E-2,2.0984575E-2,5.354276E-2,-1.1762827E-2,-7.0434265E-2,5.8003724E-2,4.8700877E-2,2.7574554E-2,2.6844192E-2,-4.0198527E-3,-2.3518275E-2,-6.021459E-2],"split_indices":[1,4,0,4,1,0,0,0,1,3,0,4,1,3,0,0,0,0,0,0,0,0,0,0,0,0,0,0,0],"split_type":[0,0,0,0,0,0,0,0,0,0,0,0,0,0,0,0,0,0,0,0,0,0,0,0,0,0,0,0,0],"sum_hessian":[8.234087E3,2.8373137E3,5.3967734E3,2.7167393E3,1.20574455E2,4.2684526E3,1.1283207E3,2.4007708E3,3.1596854E2,2.4746649E1,9.5827805E1,2.0656162E3,2.2028364E3,6.051769E2,5.231438E2,2.708031E2,4.5165417E1,2.3285769E1,1.4608805E0,7.83937E1,1.74341E1,5.287496E0,2.0603286E3,8.5140576E2,1.3514308E3,1.5756369E2,4.476132E2,3.829058E2,1.4023805E2],"tree_param":{"num_deleted":"0","num_feature":"5","num_nodes":"29","size_leaf_vector":"1"}},{"base_weights":[-5.1037506E-3,4.8419556E-1,-4.84091E-1,5.3171694E-1,9.285612E-2,-3.2468867E-1,-5.9078985E-1,5.9008807E-1,3.1746987E-1,-3.0818444E-1,2.2547007E-1,-4.1358343E-1,-1.8000932E-1,-4.8896864E-1,-5.932268E-1,-5.0222028E-2,6.0441542E-2,4.0346127E-2,2.5972819E-2,-6.1770674E-2,1.5876036E-2,-2.045329E-2,3.633898E-2,-4.8794635E-2,-3.7641715E-2,-5.9191685E-2,-1.4443583E-2,-3.619651E-2,-5.476827E-2,-5.9374657E-2,-7.6708565E-3],"categories":[],"categories_nodes":[],"categories_segments":[],"categories_sizes":[],"default_left":[0,0,0,0,0,0,0,0,0,0,0,0,0,0,0,0,0,0,0,0,0,0,0,0,0,0,0,0,0,0,0],"id":37,"left_children":[1,3,5,7,9,11,13,15,17,19,21,23,25,27,29,-1,-1,-1,-1,-1,-1,-1,-1,-1,-1,-1,-1,-1,-1,-1,-1],"loss_changes":[1.4884991E3,5.8377563E1,5.439325E1,3.4845703E1,1.8226917E1,1.6504776E1,1.8670654E-1,3.4739014E1,2.88414E0,1.242119E1,1.5324655E1,2.0210266E0,7.1292973E0,1.7906475E-1,4.569702E-1,0E0,0E0,0E0,0E0,0E0,0E0,0E0,0E0,0E0,0E0,0E0,0E0,0E0,0E0,0E0,0E0],"parents":[2147483647,0,0,1,1,2,2,3,3,4,4,5,5,6,6,7,7,8,8,9,9,10,10,11,11,12,12,13,13,14,14],"right_children":[2,4,6,8,10,12,14,16,18,20,22,24,26,28,30,-1,-1,-1,-1,-1,-1,-1,-1,-1,-1,-1,-1,-1,-1,-1,-1],"split_conditions":[2.5378788E-1,1.6700819E-1,3.877551E-1,8.85E-1,4.975E-1,2.5666666E-1,5E-1,3.3333334E-1,9.75E-1,4E-1,2.5E-1,1.3E-1,4E-1,4E-1,4.117647E-1,-5.0222028E-2,6.0441542E-2,4.0346127E-2,2.5972819E-2,-6.1770674E-2,1.5876036E-2,-2.045329E-2,3.633898E-2,-4.8794635E-2,-3.7641715E-2,-5.9191685E-2,-1.4443583E-2,-3.619651E-2,-5.476827E-2,-5.9374657E-2,-7.6708565E-3],"split_indices":[1,1,1,0,3,0,3,2,0,4,1,0,4,1,1,0,0,0,0,0,0,0,0,0,0,0,0,0,0,0,0],"split_type":[0,0,0,0,0,0,0,0,0,0,0,0,0,0,0,0,0,0,0,0,0,0,0,0,0,0,0,0,0,0,0],"sum_hessian":[6.349115E3,3.140744E3,3.2083713E3,2.8003335E3,3.404105E2,1.2880846E3,1.9202869E3,2.1993665E3,6.009669E2,8.426353E1,2.5614697E2,7.967079E2,4.9137668E2,4.9598347E1,1.8706885E3,2.8033741E1,2.1713328E3,2.3902031E2,3.6194666E2,5.0479477E1,3.3784046E1,6.2087864E1,1.9405911E2,2.614553E2,5.352526E2,3.7819798E1,4.535569E2,1.7945518E1,3.1652828E1,1.8686586E3,2.029971E0],"tree_param":{"num_deleted":"0","num_feature":"5","num_nodes":"31","size_leaf_vector":"1"}},{"base_weights":[7.987379E-3,-5.1677614E-2,4.8674896E-1,1.8099362E-1,5.9810096E-1,3.6113563E-1,2.7286654E-2,7.187115E-1,4.071512E-1,5.048114E-2,-8.602706E-4,-1.0219746E-2,1.819861E-2,1.360507E-1,6.523788E-2,2.8622005E-2,5.7065036E-2],"categories":[],"categories_nodes":[],"categories_segments":[],"categories_sizes":[],"default_left":[0,0,0,0,0,0,0,0,0,0,0,0,0,0,0,0,0],"id":38,"left_children":[1,-1,3,5,7,9,11,13,15,-1,-1,-1,-1,-1,-1,-1,-1],"loss_changes":[4.1771057E2,0E0,2.9492004E1,6.4564667E0,1.4374985E1,5.7117653E0,2.5644386E0,1.5673904E1,4.757015E0,0E0,0E0,0E0,0E0,0E0,0E0,0E0,0E0],"parents":[2147483647,0,0,2,2,3,3,4,4,5,5,6,6,7,7,8,8],"right_children":[2,-1,4,6,8,10,12,14,16,-1,-1,-1,-1,-1,-1,-1,-1],"split_conditions":[3.3333334E-1,-5.1677614E-2,1.7166667E-1,6.666667E-1,6.666667E-1,4E-1,4.875E-1,4.55E-1,4.8565E-1,5.048114E-2,-8.602706E-4,-1.0219746E-2,1.819861E-2,1.360507E-1,6.523788E-2,2.8622005E-2,5.7065036E-2],"split_indices":[2,0,0,2,2,4,3,3,3,0,0,0,0,0,0,0,0],"split_type":[0,0,0,0,0,0,0,0,0,0,0,0,0,0,0,0,0],"sum_hessian":[1.6606172E3,7.922091E2,8.684081E2,2.3253323E2,6.358749E2,1.0643898E2,1.26094246E2,3.8802243E2,2.4785245E2,7.63896E1,3.004938E1,6.882598E1,5.7268265E1,3.4519768E1,3.5350266E2,1.440542E2,1.0379823E2],"tree_param":{"num_deleted":"0","num_feature":"5","num_nodes":"17","size_leaf_vector":"1"}},{"base_weights":[1.2513644E-2,-2.3313276E-1,3.0627927E-1,-4.2000008E-1,1.02225505E-1,1.7948303E-2,6.1934835E-1,-2.029498E-1,-5.202931E-1,-7.095603E-2,2.0208794E-1,-2.0623027E-1,1.7237669E-1,-4.9574852E-1,6.3630986E-1,-4.240604E-2,-1.4162642E-2,-5.4211743E-2,-4.0324323E-2,-9.031259E-3,4.245728E-2,-4.2216327E-2,2.2323059E-2,-3.4960177E-2,-1.5232059E-2,-5.078296E-2,1.8327614E-2,-5.6003373E-2,1.6526503E-2,5.5095024E-2,8.48526E-2],"categories":[],"categories_nodes":[],"categories_segments":[],"categories_sizes":[],"default_left":[0,0,0,0,0,0,0,0,0,0,0,0,0,0,0,0,0,0,0,0,0,0,0,0,0,0,0,0,0,0,0],"id":39,"left_children":[1,3,5,7,9,11,13,15,17,19,21,23,25,27,29,-1,-1,-1,-1,-1,-1,-1,-1,-1,-1,-1,-1,-1,-1,-1,-1],"loss_changes":[3.0155045E2,1.4266173E2,1.7176616E2,3.1712555E1,1.4111838E1,3.4366306E1,1.7570831E1,6.225725E0,2.3335571E0,2.9050417E0,6.921467E0,3.0765648E0,4.4503593E0,6.972909E-1,1.5819244E1,0E0,0E0,0E0,0E0,0E0,0E0,0E0,0E0,0E0,0E0,0E0,0E0,0E0,0E0,0E0,0E0],"parents":[2147483647,0,0,1,1,2,2,3,3,4,4,5,5,6,6,7,7,8,8,9,9,10,10,11,11,12,12,13,13,14,14],"right_children":[2,4,6,8,10,12,14,16,18,20,22,24,26,28,30,-1,-1,-1,-1,-1,-1,-1,-1,-1,-1,-1,-1,-1,-1,-1,-1],"split_conditions":[4E-1,6.666667E-1,2.4166666E-1,4.895E-1,1.6666667E-1,1.4166667E-1,4.975E-1,1.7166667E-1,3.3333334E-1,4.95E-1,3.7875E-1,7E-2,4.975E-1,6.25E-1,3.9E-1,-4.240604E-2,-1.4162642E-2,-5.4211743E-2,-4.0324323E-2,-9.031259E-3,4.245728E-2,-4.2216327E-2,2.2323059E-2,-3.4960177E-2,-1.5232059E-2,-5.078296E-2,1.8327614E-2,-5.6003373E-2,1.6526503E-2,5.5095024E-2,8.48526E-2],"split_indices":[1,2,0,3,0,0,3,0,2,3,3,0,3,0,0,0,0,0,0,0,0,0,0,0,0,0,0,0,0,0,0],"split_type":[0,0,0,0,0,0,0,0,0,0,0,0,0,0,0,0,0,0,0,0,0,0,0,0,0,0,0,0,0,0,0],"sum_hessian":[4.1767817E3,2.274802E3,1.9019799E3,1.4606504E3,8.1415155E2,9.906585E2,9.113213E2,4.6257886E2,9.980715E2,2.9787167E2,5.1627985E2,4.039387E2,5.8671985E2,1.3231316E1,8.9809E2,9.9152954E1,3.634259E2,8.3816223E2,1.5990926E2,2.874605E2,1.0411163E1,1.6291607E1,4.9998825E2,1.0888272E2,2.9505597E2,8.534147E0,5.7818567E2,1.2197813E1,1.0335025E0,6.430374E2,2.5505261E2],"tree_param":{"num_deleted":"0","num_feature":"5","num_nodes":"31","size_leaf_vector":"1"}},{"base_weights":[3.6845417E-3,-2.7494487E-1,3.2480568E-1,-1.0853257E-1,-4.003136E-1,6.0205036E-1,-1.5026827E-1,-1.642895E-1,2.1308894E-1,-1.9935766E-1,-5.1025223E-2,8.698153E-1,1.1142296E-1,-2.4254043E-1,7.472419E-1,-3.441031E-2,2.264208E-3,2.946207E-2,-4.7385026E-2,-2.7136326E-2,1.2096808E-2,3.5953786E-2,9.943896E-2,6.769784E-2,-4.7344275E-2,-4.695366E-2,-6.2857256E-3,3.3184644E-2,1.0855686E-1],"categories":[],"categories_nodes":[],"categories_segments":[],"categories_sizes":[],"default_left":[0,0,0,0,0,0,0,0,0,0,0,0,0,0,0,0,0,0,0,0,0,0,0,0,0,0,0,0,0],"id":40,"left_children":[1,3,5,7,9,11,13,15,17,19,-1,21,23,25,27,-1,-1,-1,-1,-1,-1,-1,-1,-1,-1,-1,-1,-1,-1],"loss_changes":[2.062204E2,2.5702621E1,1.411214E2,9.568123E0,1.5439545E1,8.875835E1,3.2925957E1,1.5255513E1,4.563026E0,5.8082857E0,0E0,2.744754E1,7.968925E1,1.4624966E1,4.854555E0,0E0,0E0,0E0,0E0,0E0,0E0,0E0,0E0,0E0,0E0,0E0,0E0,0E0,0E0],"parents":[2147483647,0,0,1,1,2,2,3,3,4,4,5,5,6,6,7,7,8,8,9,9,11,11,12,12,13,13,14,14],"right_children":[2,4,6,8,10,12,14,16,18,20,-1,22,24,26,28,-1,-1,-1,-1,-1,-1,-1,-1,-1,-1,-1,-1,-1,-1],"split_conditions":[3E-1,6E-1,3.3333334E-1,1E0,3.877551E-1,3.9344263E-1,1.6700819E-1,1.6700819E-1,4E-1,2.4E-1,-5.1025223E-2,3.5E-1,6E-1,6.666667E-1,6.666667E-1,-3.441031E-2,2.264208E-3,2.946207E-2,-4.7385026E-2,-2.7136326E-2,1.2096808E-2,3.5953786E-2,9.943896E-2,6.769784E-2,-4.7344275E-2,-4.695366E-2,-6.2857256E-3,3.3184644E-2,1.0855686E-1],"split_indices":[0,4,2,2,1,1,1,1,4,0,0,0,4,2,2,0,0,0,0,0,0,0,0,0,0,0,0,0,0],"split_type":[0,0,0,0,0,0,0,0,0,0,0,0,0,0,0,0,0,0,0,0,0,0,0,0,0,0,0,0,0],"sum_hessian":[2.3028152E3,1.2330607E3,1.0697545E3,5.306073E2,7.024534E2,6.753595E2,3.9439502E2,4.52628E2,7.797927E1,2.4939665E2,4.5305676E2,4.3641092E2,2.3894858E2,3.582894E2,3.6105625E1,2.3027788E2,2.2235013E2,7.02165E1,7.7627754E0,2.0374904E2,4.5647614E1,8.639765E1,3.5001328E2,1.2139964E2,1.1754893E2,1.5759032E2,2.0069908E2,1.7096046E1,1.900958E1],"tree_param":{"num_deleted":"0","num_feature":"5","num_nodes":"29","size_leaf_vector":"1"}},{"base_weights":[6.55347E-4,1.195833E0,-4.9262118E-2,1.3602962E0,5.033641E-1,8.1059E-1,1.545241E-1,4.6153247E-2,1.0435666E-1,1.1091465E-1,1.2539548E-4,2.8876835E-2,-2.9402344E-2],"categories":[],"categories_nodes":[],"categories_segments":[],"categories_sizes":[],"default_left":[0,0,0,0,0,0,0,0,0,0,0,0,0],"id":41,"left_children":[1,3,-1,5,7,9,-1,11,-1,-1,-1,-1,-1],"loss_changes":[5.073098E1,2.178257E0,0E0,7.529869E-1,1.5355409E0,1.7068372E0,0E0,4.5787463E-1,0E0,0E0,0E0,0E0,0E0],"parents":[2147483647,0,0,1,1,3,3,4,4,5,5,7,7],"right_children":[2,4,-1,6,8,10,-1,12,-1,-1,-1,-1,-1],"split_conditions":[4.2125E-1,3.7875E-1,-4.9262118E-2,5E-2,1E0,3.2845E-1,1.545241E-1,2.68E-1,1.0435666E-1,1.1091465E-1,1.2539548E-4,2.8876835E-2,-2.9402344E-2],"split_indices":[3,3,0,0,0,3,0,0,0,0,0,0,0],"split_type":[0,0,0,0,0,0,0,0,0,0,0,0,0],"sum_hessian":[8.405068E1,2.4139048E1,5.9911636E1,1.8726934E1,5.412113E0,6.069527E0,1.2657408E1,3.5190954E0,1.8930175E0,4.163289E0,1.9062381E0,2.1423132E0,1.3767823E0],"tree_param":{"num_deleted":"0","num_feature":"5","num_nodes":"13","size_leaf_vector":"1"}},{"base_weights":[-7.12503E-3,-6.376134E-1,3.1697667E-1,-6.749692E-1,1.8585902E-1,4.352611E-1,-1.2283783E-1,-6.9421105E-2,-5.282595E-1,-5.3990746E-1,4.1173697E-1,5.4610133E-1,3.331681E-1,-2.9338298E-2,-4.588762E-1,-6.4999245E-2,1.7125776E-2,1.0615667E-2,-6.1627056E-2,4.683615E-2,-5.631828E-2,-6.8832755E-2,5.4968692E-2,4.57664E-2,2.5570635E-2,2.1130638E-2,-1.1885638E-2,-3.3366963E-2,-6.1245855E-2],"categories":[],"categories_nodes":[],"categories_segments":[],"categories_sizes":[],"default_left":[0,0,0,0,0,0,0,0,0,0,0,0,0,0,0,0,0,0,0,0,0,0,0,0,0,0,0,0,0],"id":42,"left_children":[1,3,5,7,9,11,13,-1,15,17,19,21,23,25,27,-1,-1,-1,-1,-1,-1,-1,-1,-1,-1,-1,-1,-1,-1],"loss_changes":[1.6362871E3,8.3757324E1,2.7519733E2,6.97583E0,1.9691746E1,4.6984863E1,3.5230057E1,0E0,2.6148148E1,1.4774914E0,5.295188E0,9.21698E0,2.0831497E1,1.8952204E1,4.489559E0,0E0,0E0,0E0,0E0,0E0,0E0,0E0,0E0,0E0,0E0,0E0,0E0,0E0,0E0],"parents":[2147483647,0,0,1,1,2,2,3,3,4,4,5,5,6,6,8,8,9,9,10,10,11,11,12,12,13,13,14,14],"right_children":[2,4,6,8,10,12,14,-1,16,18,20,22,24,26,28,-1,-1,-1,-1,-1,-1,-1,-1,-1,-1,-1,-1,-1,-1],"split_conditions":[2.5378788E-1,6E-1,3.1E-1,4E-1,2.1428572E-1,1.7375E-1,4.6E-1,-6.9421105E-2,1.6700819E-1,3.3333334E-1,3.8166666E-1,4E-1,4E-1,5E-1,5.45E-1,-6.4999245E-2,1.7125776E-2,1.0615667E-2,-6.1627056E-2,4.683615E-2,-5.631828E-2,-6.8832755E-2,5.4968692E-2,4.57664E-2,2.5570635E-2,2.1130638E-2,-1.1885638E-2,-3.3366963E-2,-6.1245855E-2],"split_indices":[1,4,0,4,1,0,0,0,1,2,0,4,1,3,0,0,0,0,0,0,0,0,0,0,0,0,0,0,0],"split_type":[0,0,0,0,0,0,0,0,0,0,0,0,0,0,0,0,0,0,0,0,0,0,0,0,0,0,0,0,0],"sum_hessian":[8.0055884E3,2.7177227E3,5.2878657E3,2.5999592E3,1.17763466E2,4.1671543E3,1.120711E3,2.2951985E3,3.0476077E2,2.7621809E1,9.0141655E1,1.995899E3,2.1712556E3,8.7761127E2,2.430998E2,2.5964676E2,4.511403E1,2.8784823E0,2.4743326E1,8.5684586E1,4.457073E0,5.227511E0,1.9906715E3,8.309122E2,1.3403434E3,2.3758067E2,6.400306E2,1.3566928E2,1.0743052E2],"tree_param":{"num_deleted":"0","num_feature":"5","num_nodes":"29","size_leaf_vector":"1"}},{"base_weights":[-5.9562153E-3,4.4116223E-1,-4.7113523E-1,4.8361716E-1,8.711801E-2,-3.0777684E-1,-5.8287454E-1,5.378172E-1,2.8551802E-1,-2.9802912E-1,2.1146026E-1,-3.9654186E-1,-1.6779102E-1,-4.542906E-1,-5.849352E-1,-4.9455293E-2,5.5084396E-2,3.654593E-2,2.3189617E-2,-6.1097115E-2,1.582589E-2,-1.8745385E-2,3.3416133E-2,-4.7342308E-2,-3.5859294E-2,-5.830136E-2,-1.332179E-2,-2.0195538E-2,-5.2711297E-2,-5.8601644E-2,-4.2233802E-2],"categories":[],"categories_nodes":[],"categories_segments":[],"categories_sizes":[],"default_left":[0,0,0,0,0,0,0,0,0,0,0,0,0,0,0,0,0,0,0,0,0,0,0,0,0,0,0,0,0,0,0],"id":43,"left_children":[1,3,5,7,9,11,13,15,17,19,21,23,25,27,29,-1,-1,-1,-1,-1,-1,-1,-1,-1,-1,-1,-1,-1,-1,-1,-1],"loss_changes":[1.2934865E3,4.7621704E1,5.5456116E1,3.0246094E1,1.638197E1,1.5343086E1,2.1350098E-1,3.015393E1,2.5316277E0,1.2030947E1,1.2699844E1,2.042244E0,6.8554153E0,5.000782E-1,6.4941406E-2,0E0,0E0,0E0,0E0,0E0,0E0,0E0,0E0,0E0,0E0,0E0,0E0,0E0,0E0,0E0,0E0],"parents":[2147483647,0,0,1,1,2,2,3,3,4,4,5,5,6,6,7,7,8,8,9,9,10,10,11,11,12,12,13,13,14,14],"right_children":[2,4,6,8,10,12,14,16,18,20,22,24,26,28,30,-1,-1,-1,-1,-1,-1,-1,-1,-1,-1,-1,-1,-1,-1,-1,-1],"split_conditions":[2.5378788E-1,1.6700819E-1,3.877551E-1,8.85E-1,4.975E-1,2.5666666E-1,4E-1,3.3333334E-1,9.75E-1,4E-1,2.5E-1,1.3E-1,4E-1,6E-1,4.117647E-1,-4.9455293E-2,5.5084396E-2,3.654593E-2,2.3189617E-2,-6.1097115E-2,1.582589E-2,-1.8745385E-2,3.3416133E-2,-4.7342308E-2,-3.5859294E-2,-5.830136E-2,-1.332179E-2,-2.0195538E-2,-5.2711297E-2,-5.8601644E-2,-4.2233802E-2],"split_indices":[1,1,1,0,3,0,1,2,0,4,1,0,4,4,1,0,0,0,0,0,0,0,0,0,0,0,0,0,0,0,0],"split_type":[0,0,0,0,0,0,0,0,0,0,0,0,0,0,0,0,0,0,0,0,0,0,0,0,0,0,0,0,0,0,0],"sum_hessian":[6.216981E3,3.170055E3,3.046926E3,2.8302964E3,3.397585E2,1.239127E3,1.8077991E3,2.2209326E3,6.0936365E2,8.257808E1,2.5718045E2,7.571716E2,4.8195535E2,3.200737E1,1.7757917E3,2.7214579E1,2.193718E3,2.4230777E2,3.670559E2,4.8782166E1,3.3795914E1,6.037316E1,1.9680728E2,2.4643674E2,5.107348E2,3.5825733E1,4.4612964E2,8.013438E0,2.3993933E1,1.7614746E3,1.431711E1],"tree_param":{"num_deleted":"0","num_feature":"5","num_nodes":"31","size_leaf_vector":"1"}},{"base_weights":[1.0893426E-2,4.5243245E-1,-5.068333E-1,2.5677025E-1,5.8871526E-1,1.1133253E-1,-5.119805E-1,3.729636E-1,8.672476E-2,7.270324E-1,3.9992025E-1,-3.2731867E-1,-5.1583476E-2,4.8490364E-2,-1.7200032E-3,-7.986013E-3,2.820586E-2,7.932087E-2,-6.44958E-3,2.9026324E-2,5.5194017E-2,3.9209697E-2,-4.8389617E-2],"categories":[],"categories_nodes":[],"categories_segments":[],"categories_sizes":[],"default_left":[0,0,0,0,0,0,0,0,0,0,0,0,0,0,0,0,0,0,0,0,0,0,0],"id":44,"left_children":[1,3,5,7,9,-1,11,13,15,17,19,21,-1,-1,-1,-1,-1,-1,-1,-1,-1,-1,-1],"loss_changes":[3.7661597E2,2.3558868E1,6.8939514E0,7.2155266E0,1.3375534E1,0E0,3.697052E-1,9.512825E0,4.910327E0,1.5808563E1,3.5657654E0,2.2405179E0,0E0,0E0,0E0,0E0,0E0,0E0,0E0,0E0,0E0,0E0,0E0],"parents":[2147483647,0,0,1,1,2,2,3,3,4,4,6,6,7,7,8,8,9,9,10,10,11,11],"right_children":[2,4,6,8,10,-1,12,14,16,18,20,22,-1,-1,-1,-1,-1,-1,-1,-1,-1,-1,-1],"split_conditions":[2.1428572E-1,3.3666667E-1,4.0575E-1,6.666667E-1,6.666667E-1,1.1133253E-1,2.5E-1,4.895E-1,4.875E-1,4.95E-1,4.8565E-1,4.888E-1,-5.1583476E-2,4.8490364E-2,-1.7200032E-3,-7.986013E-3,2.820586E-2,7.932087E-2,-6.44958E-3,2.9026324E-2,5.5194017E-2,3.9209697E-2,-4.8389617E-2],"split_indices":[1,0,3,2,2,0,1,3,3,3,3,3,0,0,0,0,0,0,0,0,0,0,0],"split_type":[0,0,0,0,0,0,0,0,0,0,0,0,0,0,0,0,0,0,0,0,0,0,0],"sum_hessian":[1.6455105E3,8.88169E2,7.5734155E2,3.6582935E2,5.2233966E2,1.7165864E0,7.55625E2,2.1661877E2,1.4921057E2,2.9982648E2,2.2251315E2,1.7205837E1,7.384191E2,1.6813666E2,4.848212E1,8.08506E1,6.835997E1,2.7669138E2,2.313512E1,1.309581E2,9.155507E1,2.8065603E0,1.4399278E1],"tree_param":{"num_deleted":"0","num_feature":"5","num_nodes":"23","size_leaf_vector":"1"}},{"base_weights":[1.5459832E-2,-2.2256117E-1,2.8960803E-1,-4.1049224E-1,9.761091E-2,2.7717673E-4,5.389541E-1,-1.9235522E-1,-5.1487726E-1,-6.424932E-2,1.8865785E-1,-2.0688346E-1,1.3557878E-1,3.9791545E-1,6.5593195E-1,-4.154527E-2,-1.31855225E-2,-5.3793132E-2,-3.9419495E-2,-8.300219E-3,3.9929114E-2,-4.1323937E-2,2.0800333E-2,-3.352427E-2,-1.522097E-2,-5.0480958E-2,1.4714352E-2,1.2070691E-2,4.598181E-2,4.4565976E-2,7.7414624E-2],"categories":[],"categories_nodes":[],"categories_segments":[],"categories_sizes":[],"default_left":[0,0,0,0,0,0,0,0,0,0,0,0,0,0,0,0,0,0,0,0,0,0,0,0,0,0,0,0,0,0,0],"id":45,"left_children":[1,3,5,7,9,11,13,15,17,19,21,23,25,27,29,-1,-1,-1,-1,-1,-1,-1,-1,-1,-1,-1,-1,-1,-1,-1,-1],"loss_changes":[2.6966888E2,1.3314417E2,1.3855531E2,3.1645447E1,1.2081648E1,2.4973955E1,1.6758026E1,6.056938E0,2.4096832E0,2.6026E0,6.1922226E0,2.4194136E0,4.0659065E0,8.0134735E0,1.3633026E1,0E0,0E0,0E0,0E0,0E0,0E0,0E0,0E0,0E0,0E0,0E0,0E0,0E0,0E0,0E0,0E0],"parents":[2147483647,0,0,1,1,2,2,3,3,4,4,5,5,6,6,7,7,8,8,9,9,10,10,11,11,12,12,13,13,14,14],"right_children":[2,4,6,8,10,12,14,16,18,20,22,24,26,28,30,-1,-1,-1,-1,-1,-1,-1,-1,-1,-1,-1,-1,-1,-1,-1,-1],"split_conditions":[4E-1,6.666667E-1,2.2666667E-1,4.895E-1,1.6666667E-1,1.35E-1,3.1E-1,1.7166667E-1,3.3333334E-1,4.95E-1,3.7875E-1,7E-2,4.975E-1,6E-1,6E-1,-4.154527E-2,-1.31855225E-2,-5.3793132E-2,-3.9419495E-2,-8.300219E-3,3.9929114E-2,-4.1323937E-2,2.0800333E-2,-3.352427E-2,-1.522097E-2,-5.0480958E-2,1.4714352E-2,1.2070691E-2,4.598181E-2,4.4565976E-2,7.7414624E-2],"split_indices":[1,2,0,3,0,0,0,0,2,3,3,0,3,4,4,0,0,0,0,0,0,0,0,0,0,0,0,0,0,0,0],"split_type":[0,0,0,0,0,0,0,0,0,0,0,0,0,0,0,0,0,0,0,0,0,0,0,0,0,0,0,0,0,0,0],"sum_hessian":[4.130677E3,2.2111233E3,1.9195536E3,1.3931218E3,8.180014E2,8.8899817E2,1.0305555E3,4.5180722E2,9.4131464E2,2.9458765E2,5.2341376E2,3.5102057E2,5.379776E2,4.6922205E2,5.6133344E2,9.513266E1,3.5667456E2,7.8743304E2,1.5388155E2,2.839223E2,1.0665345E1,1.5665046E1,5.0774875E2,1.0332044E2,2.4770012E2,8.786407E0,5.2919116E2,8.6192085E1,3.8302997E2,2.037268E2,3.5760663E2],"tree_param":{"num_deleted":"0","num_feature":"5","num_nodes":"31","size_leaf_vector":"1"}},{"base_weights":[5.2345246E-3,-2.636167E-1,2.9761964E-1,-9.995424E-2,-3.9156404E-1,5.4153156E-1,-1.4452787E-1,-1.543239E-1,2.0163986E-1,-1.8505451E-1,-5.0758183E-2,9.641086E-1,2.9177836E-1,-2.3411626E-1,6.5817845E-1,-3.357874E-2,2.9720583E-3,-4.7595587E-2,2.7868092E-2,-3.1389654E-2,-7.6067046E-4,1.2427193E-1,7.311208E-2,1.5372643E-2,7.908293E-2,-1.1097224E-5,-4.0767062E-2,2.8935855E-2,9.5220625E-2],"categories":[],"categories_nodes":[],"categories_segments":[],"categories_sizes":[],"default_left":[0,0,0,0,0,0,0,0,0,0,0,0,0,0,0,0,0,0,0,0,0,0,0,0,0,0,0,0,0],"id":46,"left_children":[1,3,5,7,9,11,13,15,17,19,-1,21,23,25,27,-1,-1,-1,-1,-1,-1,-1,-1,-1,-1,-1,-1,-1,-1],"loss_changes":[1.788803E2,2.4785828E1,1.1763794E2,8.582508E0,1.5839035E1,7.38857E1,2.8080906E1,1.4785497E1,4.313429E0,5.502719E0,0E0,1.6008743E1,3.040738E1,1.4217957E1,3.981161E0,0E0,0E0,0E0,0E0,0E0,0E0,0E0,0E0,0E0,0E0,0E0,0E0,0E0,0E0],"parents":[2147483647,0,0,1,1,2,2,3,3,4,4,5,5,6,6,7,7,8,8,9,9,11,11,12,12,13,13,14,14],"right_children":[2,4,6,8,10,12,14,16,18,20,-1,22,24,26,28,-1,-1,-1,-1,-1,-1,-1,-1,-1,-1,-1,-1,-1,-1],"split_conditions":[3E-1,6E-1,3.3333334E-1,1E0,3.877551E-1,4E-1,1.6700819E-1,1.6700819E-1,3.975E-1,1.81E-1,-5.0758183E-2,4.975E-1,4.75E-1,4.85E-1,6.666667E-1,-3.357874E-2,2.9720583E-3,-4.7595587E-2,2.7868092E-2,-3.1389654E-2,-7.6067046E-4,1.2427193E-1,7.311208E-2,1.5372643E-2,7.908293E-2,-1.1097224E-5,-4.0767062E-2,2.8935855E-2,9.5220625E-2],"split_indices":[0,4,2,2,1,4,1,1,3,0,0,3,0,3,2,0,0,0,0,0,0,0,0,0,0,0,0,0,0],"split_type":[0,0,0,0,0,0,0,0,0,0,0,0,0,0,0,0,0,0,0,0,0,0,0,0,0,0,0,0,0],"sum_hessian":[2.2735981E3,1.1845188E3,1.0890793E3,5.205035E2,6.640154E2,7.0173846E2,3.8734085E2,4.4141583E2,7.9087616E1,2.397895E2,4.2422583E2,2.5961514E2,4.4212335E2,3.4908817E2,3.8252663E1,2.2185127E2,2.1956456E2,7.5454555E0,7.154216E1,1.3847562E2,1.01313896E2,1.1625801E2,1.4335712E2,3.4734555E2,9.47778E1,1.4908112E2,2.0000706E2,1.7848343E1,2.040432E1],"tree_param":{"num_deleted":"0","num_feature":"5","num_nodes":"29","size_leaf_vector":"1"}},{"base_weights":[4.3515954E-3,1.0388196E0,-4.920712E-2,1.5212661E-1,8.178905E-1,4.2494276E-1,1.2130511E-1,6.4015515E-2,-3.6471542E-2],"categories":[],"categories_nodes":[],"categories_segments":[],"categories_sizes":[],"default_left":[0,0,0,0,0,0,0,0,0],"id":47,"left_children":[1,3,-1,-1,5,7,-1,-1,-1],"loss_changes":[4.3619785E1,1.691412E0,0E0,0E0,2.7537594E0,2.2890902E0,0E0,0E0,0E0],"parents":[2147483647,0,0,1,1,4,4,5,5],"right_children":[2,4,-1,-1,6,8,-1,-1,-1],"split_conditions":[4.2125E-1,3.066E-1,-4.920712E-2,1.5212661E-1,1E0,7.6E-1,1.2130511E-1,6.4015515E-2,-3.6471542E-2],"split_indices":[3,3,0,0,0,0,0,0,0],"split_type":[0,0,0,0,0,0,0,0,0],"sum_hessian":[8.294509E1,2.654235E1,5.6402744E1,6.488194E0,2.0054157E1,1.1095829E1,8.958328E0,8.868222E0,2.2276065E0],"tree_param":{"num_deleted":"0","num_feature":"5","num_nodes":"9","size_leaf_vector":"1"}},{"base_weights":[-9.37944E-3,-6.190711E-1,2.9671964E-1,-6.558157E-1,1.7363489E-1,4.0044323E-1,-1.4863062E-1,-6.75484E-2,-5.072665E-1,-5.202044E-1,3.8639894E-1,4.616357E-1,2.0051607E-1,-5.611908E-2,-4.3520314E-1,-6.296296E-2,1.662284E-2,9.115962E-3,-5.9434433E-2,4.672072E-2,-2.6936306E-2,5.625021E-2,3.998293E-2,3.6158785E-2,9.883295E-3,1.745322E-2,-1.4267348E-2,-3.125408E-2,-5.889119E-2],"categories":[],"categories_nodes":[],"categories_segments":[],"categories_sizes":[],"default_left":[0,0,0,0,0,0,0,0,0,0,0,0,0,0,0,0,0,0,0,0,0,0,0,0,0,0,0,0,0],"id":48,"left_children":[1,3,5,7,9,11,13,-1,15,17,19,21,23,25,27,-1,-1,-1,-1,-1,-1,-1,-1,-1,-1,-1,-1,-1,-1],"loss_changes":[1.4506715E3,7.5791504E1,2.3911118E2,6.9125977E0,1.7308838E1,5.1262268E1,2.5912216E1,0E0,2.4363174E1,1.3062372E0,4.856079E0,1.9806885E1,1.6104805E1,1.4812608E1,4.3146095E0,0E0,0E0,0E0,0E0,0E0,0E0,0E0,0E0,0E0,0E0,0E0,0E0,0E0,0E0],"parents":[2147483647,0,0,1,1,2,2,3,3,4,4,5,5,6,6,8,8,9,9,10,10,11,11,12,12,13,13,14,14],"right_children":[2,4,6,8,10,12,14,-1,16,18,20,22,24,26,28,-1,-1,-1,-1,-1,-1,-1,-1,-1,-1,-1,-1,-1,-1],"split_conditions":[2.5378788E-1,6E-1,3.25E-1,4E-1,2.1428572E-1,2.4625E-1,4.6E-1,-6.75484E-2,1.6700819E-1,3.3333334E-1,3.0666667E-1,1.3166666E-1,4E-1,5E-1,5.45E-1,-6.296296E-2,1.662284E-2,9.115962E-3,-5.9434433E-2,4.672072E-2,-2.6936306E-2,5.625021E-2,3.998293E-2,3.6158785E-2,9.883295E-3,1.745322E-2,-1.4267348E-2,-3.125408E-2,-5.889119E-2],"split_indices":[1,4,0,4,1,0,0,0,1,2,0,0,1,3,0,0,0,0,0,0,0,0,0,0,0,0,0,0,0],"split_type":[0,0,0,0,0,0,0,0,0,0,0,0,0,0,0,0,0,0,0,0,0,0,0,0,0,0,0,0,0],"sum_hessian":[7.7711606E3,2.5971348E3,5.174026E3,2.482247E3,1.1488783E2,4.1967007E3,9.773252E2,2.1888865E3,2.933605E2,2.6623068E1,8.826477E1,3.2122163E3,9.8448444E2,7.397231E2,2.3760211E2,2.4831148E2,4.504901E1,2.8545601E0,2.3768507E1,7.883733E1,9.427434E0,1.2173816E3,1.9948347E3,3.7999503E2,6.044894E2,2.0156735E2,5.3815576E2,1.3383374E2,1.0376837E2],"tree_param":{"num_deleted":"0","num_feature":"5","num_nodes":"29","size_leaf_vector":"1"}},{"base_weights":[-6.831987E-3,4.0358546E-1,-4.5871335E-1,4.4186014E-1,8.150207E-2,-2.9155335E-1,-5.757405E-1,5.052757E-1,2.9269046E-1,-2.874255E-1,1.9762535E-1,-3.8427284E-1,-1.630885E-1,-4.4107807E-1,-5.779251E-1,-4.823759E-2,5.183375E-2,3.5804104E-2,2.0750958E-2,-6.0407605E-2,1.5512704E-2,-2.7809102E-2,2.8590877E-2,-4.5935996E-2,-3.4541275E-2,-5.7348747E-2,-1.32070845E-2,-1.8656136E-2,-5.1674474E-2,-5.7906747E-2,-4.0933672E-2],"categories":[],"categories_nodes":[],"categories_segments":[],"categories_sizes":[],"default_left":[0,0,0,0,0,0,0,0,0,0,0,0,0,0,0,0,0,0,0,0,0,0,0,0,0,0,0,0,0,0,0],"id":49,"left_children":[1,3,5,7,9,11,13,15,17,19,21,23,25,27,29,-1,-1,-1,-1,-1,-1,-1,-1,-1,-1,-1,-1,-1,-1,-1,-1],"loss_changes":[1.1280939E3,3.925952E1,5.6466675E1,2.6800842E1,1.4613754E1,1.4161827E1,2.4572754E-1,2.602005E1,4.669548E0,1.1550339E1,1.09584255E1,1.8630524E0,6.3189306E0,5.0814104E-1,8.48999E-2,0E0,0E0,0E0,0E0,0E0,0E0,0E0,0E0,0E0,0E0,0E0,0E0,0E0,0E0,0E0,0E0],"parents":[2147483647,0,0,1,1,2,2,3,3,4,4,5,5,6,6,7,7,8,8,9,9,10,10,11,11,12,12,13,13,14,14],"right_children":[2,4,6,8,10,12,14,16,18,20,22,24,26,28,30,-1,-1,-1,-1,-1,-1,-1,-1,-1,-1,-1,-1,-1,-1,-1,-1],"split_conditions":[2.5378788E-1,1.6700819E-1,3.877551E-1,8.025E-1,4.975E-1,2.5E-1,4E-1,3.3333334E-1,9.75E-1,4E-1,2.2083333E-1,1.3E-1,4E-1,6E-1,4.117647E-1,-4.823759E-2,5.183375E-2,3.5804104E-2,2.0750958E-2,-6.0407605E-2,1.5512704E-2,-2.7809102E-2,2.8590877E-2,-4.5935996E-2,-3.4541275E-2,-5.7348747E-2,-1.32070845E-2,-1.8656136E-2,-5.1674474E-2,-5.7906747E-2,-4.0933672E-2],"split_indices":[1,1,1,0,3,0,1,2,0,4,0,0,4,4,1,0,0,0,0,0,0,0,0,0,0,0,0,0,0,0,0],"split_type":[0,0,0,0,0,0,0,0,0,0,0,0,0,0,0,0,0,0,0,0,0,0,0,0,0,0,0,0,0,0,0],"sum_hessian":[6.080682E3,3.1865928E3,2.8940894E3,2.8478032E3,3.3878958E2,1.1932125E3,1.7008768E3,1.9966094E3,8.511939E2,8.075453E1,2.5803506E2,6.9186664E2,5.0134586E2,3.039123E1,1.6704856E3,2.5591606E1,1.9710178E3,4.798504E2,3.7134354E2,4.686045E1,3.389408E1,4.0053925E1,2.1798112E2,2.3226111E2,4.596055E2,3.3999866E1,4.67346E2,7.758812E0,2.2632418E1,1.6568241E3,1.3661458E1],"tree_param":{"num_deleted":"0","num_feature":"5","num_nodes":"31","size_leaf_vector":"1"}},{"base_weights":[1.3905749E-2,-5.1454376E-2,4.090685E-1,1.6150606E-1,4.9365366E-1,3.0778188E-1,2.9031102E-2,8.1518346E-1,4.4502106E-1,4.2685073E-2,-1.6839966E-3,-8.997309E-3,1.6406083E-2,1.00282885E-1,3.7946902E-2,2.131989E-2,5.4035317E-2],"categories":[],"categories_nodes":[],"categories_segments":[],"categories_sizes":[],"default_left":[0,0,0,0,0,0,0,0,0,0,0,0,0,0,0,0,0],"id":50,"left_children":[1,-1,3,5,7,9,11,13,15,-1,-1,-1,-1,-1,-1,-1,-1],"loss_changes":[3.4078815E2,0E0,1.9472153E1,4.62751E0,1.05117035E1,4.398299E0,2.050066E0,6.9914055E0,1.3283524E1,0E0,0E0,0E0,0E0,0E0,0E0,0E0,0E0],"parents":[2147483647,0,0,2,2,3,3,4,4,5,5,6,6,7,7,8,8],"right_children":[2,-1,4,6,8,10,12,14,16,-1,-1,-1,-1,-1,-1,-1,-1],"split_conditions":[3.3333334E-1,-5.1454376E-2,1.7166667E-1,6.666667E-1,4.55E-1,4E-1,4.875E-1,1E0,4.8565E-1,4.2685073E-2,-1.6839966E-3,-8.997309E-3,1.6406083E-2,1.00282885E-1,3.7946902E-2,2.131989E-2,5.4035317E-2],"split_indices":[2,0,0,2,3,4,3,2,3,0,0,0,0,0,0,0,0],"split_type":[0,0,0,0,0,0,0,0,0,0,0,0,0,0,0,0,0],"sum_hessian":[1.629935E3,6.9723004E2,9.32705E2,2.382648E2,6.944402E2,1.12605286E2,1.25659515E2,8.916591E1,6.052743E2,8.215612E1,3.0449162E1,6.697069E1,5.8688828E1,6.1415184E1,2.7750725E1,1.773188E2,4.2795547E2],"tree_param":{"num_deleted":"0","num_feature":"5","num_nodes":"17","size_leaf_vector":"1"}},{"base_weights":[1.851004E-2,-2.1202333E-1,2.7485397E-1,-4.008687E-1,9.3623176E-2,2.9081637E-3,4.8745477E-1,-5.335387E-1,-2.20071E-1,-5.7132907E-2,1.7639033E-1,-1.8972583E-1,1.2989017E-1,4.1854742E-1,6.8766445E-1,-8.012424E-3,-5.348272E-2,-2.6874086E-2,5.8535423E-2,-7.530202E-3,3.7741046E-2,-4.045583E-2,1.9415101E-2,-3.2067727E-2,-1.34845525E-2,-4.9847692E-2,1.4124975E-2,-5.4739904E-2,4.3323424E-2,4.5438297E-2,9.024483E-2],"categories":[],"categories_nodes":[],"categories_segments":[],"categories_sizes":[],"default_left":[0,0,0,0,0,0,0,0,0,0,0,0,0,0,0,0,0,0,0,0,0,0,0,0,0,0,0,0,0,0,0],"id":51,"left_children":[1,3,5,7,9,11,13,15,17,19,21,23,25,27,29,-1,-1,-1,-1,-1,-1,-1,-1,-1,-1,-1,-1,-1,-1,-1,-1],"loss_changes":[2.4139749E2,1.2417827E2,1.1182138E2,3.17742E1,1.026889E1,2.0807348E1,1.4687561E1,4.0470886E-1,2.2282532E1,2.3350782E0,5.5576096E0,2.3855486E0,3.7298107E0,1.1729889E1,1.3438248E1,0E0,0E0,0E0,0E0,0E0,0E0,0E0,0E0,0E0,0E0,0E0,0E0,0E0,0E0,0E0,0E0],"parents":[2147483647,0,0,1,1,2,2,3,3,4,4,5,5,6,6,7,7,8,8,9,9,10,10,11,11,12,12,13,13,14,14],"right_children":[2,4,6,8,10,12,14,16,18,20,22,24,26,28,30,-1,-1,-1,-1,-1,-1,-1,-1,-1,-1,-1,-1,-1,-1,-1,-1],"split_conditions":[4E-1,6.666667E-1,2.225E-1,3.3333334E-1,1.6666667E-1,1.35E-1,3.9E-1,2.4E-2,1.6700819E-1,4.95E-1,3.7875E-1,7E-2,4.975E-1,4.975E-1,6E-1,-8.012424E-3,-5.348272E-2,-2.6874086E-2,5.8535423E-2,-7.530202E-3,3.7741046E-2,-4.045583E-2,1.9415101E-2,-3.2067727E-2,-1.34845525E-2,-4.9847692E-2,1.4124975E-2,-5.4739904E-2,4.3323424E-2,4.5438297E-2,9.024483E-2],"split_indices":[1,2,0,2,0,0,0,0,1,3,3,0,3,3,4,0,0,0,0,0,0,0,0,0,0,0,0,0,0,0,0],"split_type":[0,0,0,0,0,0,0,0,0,0,0,0,0,0,0,0,0,0,0,0,0,0,0,0,0,0,0,0,0,0,0],"sum_hessian":[4.0828618E3,2.1497432E3,1.9331185E3,1.3285685E3,8.2117487E2,8.486243E2,1.0844943E3,7.6514856E2,5.6341986E2,2.9115707E2,5.3001776E2,3.369583E2,5.11666E2,8.0910895E2,2.7538528E2,2.3471656E0,7.6280145E2,5.319422E2,3.1477621E1,2.8026535E2,1.0891736E1,1.5076897E1,5.1494086E2,9.808109E1,2.3887723E2,8.3241625E0,5.0334183E2,1.1574665E1,7.9753424E2,1.335017E2,1.418836E2],"tree_param":{"num_deleted":"0","num_feature":"5","num_nodes":"31","size_leaf_vector":"1"}},{"base_weights":[6.934291E-3,-2.522587E-1,2.747914E-1,-9.161227E-2,-3.8260105E-1,4.9249318E-1,-1.387607E-1,-1.4463271E-1,1.9216245E-1,-1.7072591E-1,-5.04976E-1,7.0042264E-1,8.7852195E-2,-2.2535656E-1,5.803381E-1,-3.273321E-2,3.5940658E-3,3.167815E-2,-2.0864496E-2,-2.4510596E-2,1.4019287E-2,-3.215009E-2,-5.0725598E-2,1.029432E-1,5.6783676E-2,5.668809E-2,-4.6991713E-2,-4.6114985E-2,-5.054938E-3,3.5662886E-2,1.0227615E-1],"categories":[],"categories_nodes":[],"categories_segments":[],"categories_sizes":[],"default_left":[0,0,0,0,0,0,0,0,0,0,0,0,0,0,0,0,0,0,0,0,0,0,0,0,0,0,0,0,0,0,0],"id":52,"left_children":[1,3,5,7,9,11,13,15,17,19,21,23,25,27,29,-1,-1,-1,-1,-1,-1,-1,-1,-1,-1,-1,-1,-1,-1,-1,-1],"loss_changes":[1.5572772E2,2.3834976E1,9.937955E1,7.7304296E0,1.6223488E1,6.0758987E1,2.3868528E1,1.4261113E1,4.1130466E0,5.3952584E0,3.4942627E-3,2.0238937E1,6.613211E1,1.4030077E1,3.7180452E0,0E0,0E0,0E0,0E0,0E0,0E0,0E0,0E0,0E0,0E0,0E0,0E0,0E0,0E0,0E0,0E0],"parents":[2147483647,0,0,1,1,2,2,3,3,4,4,5,5,6,6,7,7,8,8,9,9,10,10,11,11,12,12,13,13,14,14],"right_children":[2,4,6,8,10,12,14,16,18,20,22,24,26,28,30,-1,-1,-1,-1,-1,-1,-1,-1,-1,-1,-1,-1,-1,-1,-1,-1],"split_conditions":[3E-1,6E-1,3.3333334E-1,1E0,3.877551E-1,3.9344263E-1,1.6700819E-1,1.6700819E-1,4.8825E-1,2.4E-1,4E-1,4.975E-1,6E-1,6.666667E-1,2.857143E-1,-3.273321E-2,3.5940658E-3,3.167815E-2,-2.0864496E-2,-2.4510596E-2,1.4019287E-2,-3.215009E-2,-5.0725598E-2,1.029432E-1,5.6783676E-2,5.668809E-2,-4.6991713E-2,-4.6114985E-2,-5.054938E-3,3.5662886E-2,1.0227615E-1],"split_indices":[0,4,2,2,1,1,1,1,3,0,1,3,4,2,1,0,0,0,0,0,0,0,0,0,0,0,0,0,0,0,0],"split_type":[0,0,0,0,0,0,0,0,0,0,0,0,0,0,0,0,0,0,0,0,0,0,0,0,0,0,0,0,0,0,0],"sum_hessian":[2.2410547E3,1.1389772E3,