{"learner":{"attributes":{},"feature_names":[],"feature_types":[],"gradient_booster":{"model":{"cats":{"enc":[],"feature_segments":[],"sorted_idx":[]},"gbtree_model_param":{"num_parallel_tree":"1","num_trees":"1200"},"iteration_indptr":[0,6,12,18,24,30,36,42,48,54,60,66,72,78,84,90,96,102,108,114,120,126,132,138,144,150,156,162,168,174,180,186,192,198,204,210,216,222,228,234,240,246,252,258,264,270,276,282,288,294,300,306,312,318,324,330,336,342,348,354,360,366,372,378,384,390,396,402,408,414,420,426,432,438,444,450,456,462,468,474,480,486,492,498,504,510,516,522,528,534,540,546,552,558,564,570,576,582,588,594,600,606,612,618,624,630,636,642,648,654,660,666,672,678,684,690,696,702,708,714,720,726,732,738,744,750,756,762,768,774,780,786,792,798,804,810,816,822,828,834,840,846,852,858,864,870,876,882,888,894,900,906,912,918,924,930,936,942,948,954,960,966,972,978,984,990,996,1002,1008,1014,1020,1026,1032,1038,1044,1050,1056,1062,1068,1074,1080,1086,1092,1098,1104,1110,1116,1122,1128,1134,1140,1146,1152,1158,1164,1170,1176,1182,1188,1194,1200],"tree_info":[0,1,2,3,4,5,0,1,2,3,4,5,0,1,2,3,4,5,0,1,2,3,4,5,0,1,2,3,4,5,0,1,2,3,4,5,0,1,2,3,4,5,0,1,2,3,4,5,0,1,2,3,4,5,0,1,2,3,4,5,0,1,2,3,4,5,0,1,2,3,4,5,0,1,2,3,4,5,0,1,2,3,4,5,0,1,2,3,4,5,0,1,2,3,4,5,0,1,2,3,4,5,0,1,2,3,4,5,0,1,2,3,4,5,0,1,2,3,4,5,0,1,2,3,4,5,0,1,2,3,4,5,0,1,2,3,4,5,0,1,2,3,4,5,0,1,2,3,4,5,0,1,2,3,4,5,0,1,2,3,4,5,0,1,2,3,4,5,0,1,2,3,4,5,0,1,2,3,4,5,0,1,2,3,4,5,0,1,2,3,4,5,0,1,2,3,4,5,0,1,2,3,4,5,0,1,2,3,4,5,0,1,2,3,4,5,0,1,2,3,4,5,0,1,2,3,4,5,0,1,2,3,4,5,0,1,2,3,4,5,0,1,2,3,4,5,0,1,2,3,4,5,0,1,2,3,4,5,0,1,2,3,4,5,0,1,2,3,4,5,0,1,2,3,4,5,0,1,2,3,4,5,0,1,2,3,4,5,0,1,2,3,4,5,0,1,2,3,4,5,0,1,2,3,4,5,0,1,2,3,4,5,0,1,2,3,4,5,0,1,2,3,4,5,0,1,2,3,4,5,0,1,2,3,4,5,0,1,2,3,4,5,0,1,2,3,4,5,0,1,2,3,4,5,0,1,2,3,4,5,0,1,2,3,4,5,0,1,2,3,4,5,0,1,2,3,4,5,0,1,2,3,4,5,0,1,2,3,4,5,0,1,2,3,4,5,0,1,2,3,4,5,0,1,2,3,4,5,0,1,2,3,4,5,0,1,2,3,4,5,0,1,2,3,4,5,0,1,2,3,4,5,0,1,2,3,4,5,0,1,2,3,4,5,0,1,2,3,4,5,0,1,2,3,4,5,0,1,2,3,4,5,0,1,2,3,4,5,0,1,2,3,4,5,0,1,2,3,4,5,0,1,2,3,4,5,0,1,2,3,4,5,0,1,2,3,4,5,0,1,2,3,4,5,0,1,2,3,4,5,0,1,2,3,4,5,0,1,2,3,4,5,0,1,2,3,4,5,0,1,2,3,4,5,0,1,2,3,4,5,0,1,2,3,4,5,0,1,2,3,4,5,0,1,2,3,4,5,0,1,2,3,4,5,0,1,2,3,4,5,0,1,2,3,4,5,0,1,2,3,4,5,0,1,2,3,4,5,0,1,2,3,4,5,0,1,2,3,4,5,0,1,2,3,4,5,0,1,2,3,4,5,0,1,2,3,4,5,0,1,2,3,4,5,0,1,2,3,4,5,0,1,2,3,4,5,0,1,2,3,4,5,0,1,2,3,4,5,0,1,2,3,4,5,0,1,2,3,4,5,0,1,2,3,4,5,0,1,2,3,4,5,0,1,2,3,4,5,0,1,2,3,4,5,0,1,2,3,4,5,0,1,2,3,4,5,0,1,2,3,4,5,0,1,2,3,4,5,0,1,2,3,4,5,0,1,2,3,4,5,0,1,2,3,4,5,0,1,2,3,4,5,0,1,2,3,4,5,0,1,2,3,4,5,0,1,2,3,4,5,0,1,2,3,4,5,0,1,2,3,4,5,0,1,2,3,4,5,0,1,2,3,4,5,0,1,2,3,4,5,0,1,2,3,4,5,0,1,2,3,4,5,0,1,2,3,4,5,0,1,2,3,4,5,0,1,2,3,4,5,0,1,2,3,4,5,0,1,2,3,4,5,0,1,2,3,4,5,0,1,2,3,4,5,0,1,2,3,4,5,0,1,2,3,4,5,0,1,2,3,4,5,0,1,2,3,4,5,0,1,2,3,4,5,0,1,2,3,4,5,0,1,2,3,4,5,0,1,2,3,4,5,0,1,2,3,4,5,0,1,2,3,4,5,0,1,2,3,4,5,0,1,2,3,4,5,0,1,2,3,4,5,0,1,2,3,4,5,0,1,2,3,4,5,0,1,2,3,4,5,0,1,2,3,4,5,0,1,2,3,4,5,0,1,2,3,4,5,0,1,2,3,4,5,0,1,2,3,4,5,0,1,2,3,4,5,0,1,2,3,4,5,0,1,2,3,4,5,0,1,2,3,4,5,0,1,2,3,4,5,0,1,2,3,4,5,0,1,2,3,4,5,0,1,2,3,4,5,0,1,2,3,4,5,0,1,2,3,4,5,0,1,2,3,4,5,0,1,2,3,4,5,0,1,2,3,4,5,0,1,2,3,4,5,0,1,2,3,4,5,0,1,2,3,4,5,0,1,2,3,4,5,0,1,2,3,4,5,0,1,2,3,4,5,0,1,2,3,4,5,0,1,2,3,4,5,0,1,2,3,4,5,0,1,2,3,4,5,0,1,2,3,4,5,0,1,2,3,4,5,0,1,2,3,4,5,0,1,2,3,4,5,0,1,2,3,4,5,0,1,2,3,4,5,0,1,2,3,4,5,0,1,2,3,4,5,0,1,2,3,4,5,0,1,2,3,4,5,0,1,2,3,4,5,0,1,2,3,4,5,0,1,2,3,4,5,0,1,2,3,4,5,0,1,2,3,4,5,0,1,2,3,4,5,0,1,2,3,4,5],"trees":[{"base_weights":[4.5663114E-6,-1.0380018E0,4.7375482E-1,-1.0883079E0,3.252164E-1,6.358514E-1,-2.1599978E-1,-1.1093991E-1,-8.7837493E-1,-9.983616E-2,6.696722E-1,7.012691E-1,3.3125013E-1,4.886952E-2,-5.718649E-1,-1.0979386E-1,-1.6654879E-2,7.658833E-2,-3.2699075E-2,-9.703874E-2,7.080544E-2,6.956731E-2,2.2037564E-2,5.6842398E-2,-1.6944056E-2,-4.1149277E-2,-9.45403E-2],"categories":[],"categories_nodes":[],"categories_segments":[],"categories_sizes":[],"default_left":[0,0,0,0,0,0,0,0,0,0,0,0,0,0,0,0,0,0,0,0,0,0,0,0,0,0,0],"id":0,"left_children":[1,3,5,7,9,11,13,-1,15,-1,17,19,21,23,25,-1,-1,-1,-1,-1,-1,-1,-1,-1,-1,-1,-1],"loss_changes":[1.9965222E3,8.7606445E1,3.1181897E2,4.4594727E0,2.1663528E1,4.4750854E1,5.009829E1,0E0,1.8078743E1,0E0,3.811716E0,2.1755493E1,1.6049438E1,3.474285E1,1.3194229E1,0E0,0E0,0E0,0E0,0E0,0E0,0E0,0E0,0E0,0E0,0E0,0E0],"parents":[2147483647,0,0,1,1,2,2,3,3,4,4,5,5,6,6,8,8,10,10,11,11,12,12,13,13,14,14],"right_children":[2,4,6,8,10,12,14,-1,16,-1,18,20,22,24,26,-1,-1,-1,-1,-1,-1,-1,-1,-1,-1,-1,-1],"split_conditions":[2.6666668E-1,6E-1,3.15E-1,1.6589862E-1,1.5384616E-1,2.5125E-1,4.05E-1,-1.1093991E-1,4E-1,-9.983616E-2,3.6E-1,4E-1,5E-1,5E-1,5.4E-1,-1.0979386E-1,-1.6654879E-2,7.658833E-2,-3.2699075E-2,-9.703874E-2,7.080544E-2,6.956731E-2,2.2037564E-2,5.6842398E-2,-1.6944056E-2,-4.1149277E-2,-9.45403E-2],"split_indices":[1,4,0,1,1,0,0,0,4,0,0,4,3,3,0,0,0,0,0,0,0,0,0,0,0,0,0],"split_type":[0,0,0,0,0,0,0,0,0,0,0,0,0,0,0,0,0,0,0,0,0,0,0,0,0,0,0],"sum_hessian":[4.0579873E3,1.271308E3,2.7866792E3,1.2262577E3,4.5050243E1,2.2564727E3,5.302067E2,1.1104142E3,1.1584348E2,8.911037E0,3.6139206E1,1.8564661E3,4.0000656E2,3.0446042E2,2.2574628E2,8.8120255E1,2.7723227E1,3.316886E1,2.9703457E0,6.9308066E0,1.8495353E3,9.208072E1,3.0792584E2,8.960543E1,2.1485501E2,1.5940855E2,6.633772E1],"tree_param":{"num_deleted":"0","num_feature":"5","num_nodes":"27","size_leaf_vector":"1"}},{"base_weights":[7.2722634E-7,1.4300178E0,-5.441472E-1,1.8197823E0,1.1983237E0,-4.447342E-1,-6.136007E-1,1.0800682E0,1.830164E-1,-5.454719E-2,1.2242986E0,-5.140761E-1,-2.2870031E-1,-6.153181E-2,-1.2193815E-2,1.3303606E-1,7.7758767E-3,1.3642387E-1,8.785974E-2,-5.2776933E-2,-2.0997405E-2,-3.2237563E-2,3.2194633E-2,-3.8997293E-2,3.7022013E-2],"categories":[],"categories_nodes":[],"categories_segments":[],"categories_sizes":[],"default_left":[0,0,0,0,0,0,0,0,0,0,0,0,0,0,0,0,0,0,0,0,0,0,0,0,0],"id":1,"left_children":[1,3,5,7,9,11,13,15,-1,-1,17,19,21,-1,23,-1,-1,-1,-1,-1,-1,-1,-1,-1,-1],"loss_changes":[2.082083E3,6.4421875E1,1.3109558E1,1.1999512E-1,2.1751709E1,1.1878555E1,1.168335E0,1.4566936E0,0E0,0E0,2.10047E1,2.4102173E0,1.0233621E1,0E0,7.6007265E-1,0E0,0E0,0E0,0E0,0E0,0E0,0E0,0E0,0E0,0E0],"parents":[2147483647,0,0,1,1,2,2,3,3,4,4,5,5,6,6,7,7,10,10,11,11,12,12,14,14],"right_children":[2,4,6,8,10,12,14,16,-1,-1,18,20,22,-1,24,-1,-1,-1,-1,-1,-1,-1,-1,-1,-1],"split_conditions":[1.5384616E-1,2.4333334E-1,3.8505748E-1,3.8495E-1,3.3333334E-1,3.25E-1,4.2145595E-1,1.4166667E-2,1.830164E-1,-5.454719E-2,9.45E-1,3.846154E-1,5E-1,-6.153181E-2,1.85E-1,1.3303606E-1,7.7758767E-3,1.3642387E-1,8.785974E-2,-5.2776933E-2,-2.0997405E-2,-3.2237563E-2,3.2194633E-2,-3.8997293E-2,3.7022013E-2],"split_indices":[1,0,1,3,2,0,1,0,0,0,0,1,3,0,0,0,0,0,0,0,0,0,0,0,0],"split_type":[0,0,0,0,0,0,0,0,0,0,0,0,0,0,0,0,0,0,0,0,0,0,0,0,0],"sum_hessian":[2.6737148E3,7.365192E2,1.9371957E3,2.720359E2,4.6448334E2,7.997986E2,1.1373971E3,5.218914E0,2.66817E2,6.5236425E0,4.5795972E2,6.0441547E2,1.9538309E2,1.1341353E3,3.2618213E0,3.9141855E0,1.3047285E0,3.2389886E2,1.3406085E2,5.776685E2,2.6746935E1,1.6733144E2,2.8051662E1,1.6309106E0,1.6309106E0],"tree_param":{"num_deleted":"0","num_feature":"5","num_nodes":"25","size_leaf_vector":"1"}},{"base_weights":[-9.01908E-6,1.3462842E0,-5.1514226E-1,1.90742E0,7.9176164E-1,1.1177325E-1,-5.212943E-2,2.2887557E0,3.7499937E-1,3.7170103E-1,1.5655003E0,1.2423744E-1,2.694849E-1,9.485921E-3,1.14908986E-1,4.8224103E-2,-3.5230186E-2,1.9095756E-1,1.21630035E-1],"categories":[],"categories_nodes":[],"categories_segments":[],"categories_sizes":[],"default_left":[0,0,0,0,0,0,0,0,0,0,0,0,0,0,0,0,0,0,0],"id":2,"left_children":[1,3,5,7,9,-1,-1,11,13,15,17,-1,-1,-1,-1,-1,-1,-1,-1],"loss_changes":[4.673988E2,5.652466E1,5.4792786E0,5.289908E1,3.0462917E1,0E0,0E0,2.7869843E1,4.1253743E0,5.2294083E0,1.6781921E0,0E0,0E0,0E0,0E0,0E0,0E0,0E0,0E0],"parents":[2147483647,0,0,1,1,2,2,3,3,4,4,7,7,8,8,9,9,10,10],"right_children":[2,4,6,8,10,-1,-1,12,14,16,18,-1,-1,-1,-1,-1,-1,-1,-1],"split_conditions":[1.6666667E-1,6.666667E-1,4.4375E-1,4.889E-1,9.15E-1,1.1177325E-1,-5.212943E-2,2.4333334E-1,7.35E-1,4.889E-1,1E0,1.2423744E-1,2.694849E-1,9.485921E-3,1.14908986E-1,4.8224103E-2,-3.5230186E-2,1.9095756E-1,1.21630035E-1],"split_indices":[1,2,3,3,0,0,0,0,0,3,2,0,0,0,0,0,0,0,0],"split_type":[0,0,0,0,0,0,0,0,0,0,0,0,0,0,0,0,0,0,0],"sum_hessian":[6.7195105E2,1.8550998E2,4.864411E2,9.099252E1,9.4517456E1,1.1476535E0,4.8529346E2,7.246612E1,1.8526405E1,6.221921E1,3.2298244E1,2.1395538E1,5.1070576E1,1.4427643E1,4.098762E0,5.4267612E1,7.9515986E0,1.4017767E1,1.828048E1],"tree_param":{"num_deleted":"0","num_feature":"5","num_nodes":"19","size_leaf_vector":"1"}},{"base_weights":[-1.5568944E-6,-2.6535377E-1,3.5793045E-1,-4.1400626E-1,-1.08907335E-1,-4.2808373E-2,1.2268925E0,-5.1224613E-1,-5.0212603E-2,-2.4260408E-1,2.1535885E-1,-5.3683716E-1,2.864494E-1,7.950954E-1,1.7732196E0,-2.911663E-2,-5.542637E-2,-1.032942E-2,3.4987014E-2,-4.2133834E-2,-1.2914327E-2,-3.0784553E-2,3.1006454E-2,-5.464952E-2,-1.833311E-2,1.3541131E-2,4.5127675E-2,7.26602E-3,1.0285713E-1,1.181152E-1,2.147435E-1],"categories":[],"categories_nodes":[],"categories_segments":[],"categories_sizes":[],"default_left":[0,0,0,0,0,0,0,0,0,0,0,0,0,0,0,0,0,0,0,0,0,0,0,0,0,0,0,0,0,0,0],"id":3,"left_children":[1,3,5,7,9,11,13,15,17,19,21,23,25,27,29,-1,-1,-1,-1,-1,-1,-1,-1,-1,-1,-1,-1,-1,-1,-1,-1],"loss_changes":[1.5915016E2,2.2333664E1,2.4847025E2,1.7596153E1,2.0437088E1,7.972697E1,5.1712585E1,3.4439774E0,2.286156E0,6.7067738E0,6.923484E0,5.689583E-1,7.263071E0,2.1446121E1,1.9308838E1,0E0,0E0,0E0,0E0,0E0,0E0,0E0,0E0,0E0,0E0,0E0,0E0,0E0,0E0,0E0,0E0],"parents":[2147483647,0,0,1,1,2,2,3,3,4,4,5,5,6,6,7,7,8,8,9,9,10,10,11,11,12,12,13,13,14,14],"right_children":[2,4,6,8,10,12,14,16,18,20,22,24,26,28,30,-1,-1,-1,-1,-1,-1,-1,-1,-1,-1,-1,-1,-1,-1,-1,-1],"split_conditions":[2.5125E-1,4E-1,3.9802632E-1,6.666667E-1,1.91E-1,3.3333334E-1,3.4125E-1,4E-1,1.6666667E-1,1.03E-1,6E-1,1E0,6.666667E-1,6E-1,6E-1,-2.911663E-2,-5.542637E-2,-1.032942E-2,3.4987014E-2,-4.2133834E-2,-1.2914327E-2,-3.0784553E-2,3.1006454E-2,-5.464952E-2,-1.833311E-2,1.3541131E-2,4.5127675E-2,7.26602E-3,1.0285713E-1,1.181152E-1,2.147435E-1],"split_indices":[0,1,1,2,0,2,0,4,0,0,4,4,2,4,4,0,0,0,0,0,0,0,0,0,0,0,0,0,0,0,0],"split_type":[0,0,0,0,0,0,0,0,0,0,0,0,0,0,0,0,0,0,0,0,0,0,0,0,0,0,0,0,0,0,0],"sum_hessian":[1.6736519E3,9.6127277E2,7.123791E2,4.920704E2,4.692024E2,4.88191E2,2.241881E2,3.871226E2,1.0494779E2,3.3240274E2,1.3679965E2,1.9499055E2,2.9320044E2,1.2659072E2,9.759737E1,6.3091183E1,3.240314E2,9.3309616E1,1.163818E1,1.2801997E2,2.0438277E2,2.0622038E1,1.1617761E2,1.8927354E2,5.7170005E0,1.5395065E2,1.392498E2,3.1239325E1,9.53514E1,3.9406467E1,5.81909E1],"tree_param":{"num_deleted":"0","num_feature":"5","num_nodes":"31","size_leaf_vector":"1"}},{"base_weights":[-3.0496692E-6,-3.174721E-1,5.62043E-1,-4.3697178E-1,-2.0924956E-1,1.2246082E0,-2.2764435E-1,1.2211753E-1,-4.4136408E-1,7.61489E-2,-2.4521866E-1,5.2154434E-1,6.35829E-1,-2.9171717E-1,1.8031446E0,-3.4536216E-2,6.706676E-2,-3.0601004E-2,-4.5039248E-2,-3.5861842E-2,4.3674645E-1,-2.9947175E-2,-3.1353233E-3,3.0643374E-2,1.3126606E-1,-3.8242806E-2,3.7315947E-3,2.421973E-1,2.2815473E-3],"categories":[],"categories_nodes":[],"categories_segments":[],"categories_sizes":[],"default_left":[0,0,0,0,0,0,0,0,0,0,0,0,0,0,0,0,0,0,0,0,0,0,0,0,0,0,0,0,0],"id":4,"left_children":[1,3,5,7,9,11,13,15,17,19,21,-1,23,25,27,-1,-1,-1,-1,-1,-1,-1,-1,-1,-1,-1,-1,-1,-1],"loss_changes":[2.2853453E2,1.0493576E1,2.4217021E2,1.0068436E0,4.4474697E0,5.8775085E2,2.8080643E1,1.2081653E0,3.329544E-1,9.308047E1,4.438841E0,0E0,4.8722878E1,6.1671906E0,7.234001E0,0E0,0E0,0E0,0E0,0E0,0E0,0E0,0E0,0E0,0E0,0E0,0E0,0E0,0E0],"parents":[2147483647,0,0,1,1,2,2,3,3,4,4,5,5,6,6,7,7,8,8,9,9,10,10,12,12,13,13,14,14],"right_children":[2,4,6,8,10,12,14,16,18,20,22,-1,24,26,28,-1,-1,-1,-1,-1,-1,-1,-1,-1,-1,-1,-1,-1,-1],"split_conditions":[2.825E-1,1.5E-1,3.3333334E-1,3.9695E-1,4E-1,4E-1,2.498386E-1,3.7375E-1,4.7005E-1,1.923077E-1,2.4916667E-1,5.2154434E-1,3.95E-1,1E0,4E-1,-3.4536216E-2,6.706676E-2,-3.0601004E-2,-4.5039248E-2,-3.5861842E-2,4.3674645E-1,-2.9947175E-2,-3.1353233E-3,3.0643374E-2,1.3126606E-1,-3.8242806E-2,3.7315947E-3,2.421973E-1,2.2815473E-3],"split_indices":[0,0,2,3,4,4,1,3,3,1,0,0,0,0,4,0,0,0,0,0,0,0,0,0,0,0,0,0,0],"split_type":[0,0,0,0,0,0,0,0,0,0,0,0,0,0,0,0,0,0,0,0,0,0,0,0,0,0,0,0,0],"sum_hessian":[1.2787919E3,8.174783E2,4.613136E2,3.8705414E2,4.3042416E2,2.5054773E2,2.1076587E2,2.8081315E0,3.84246E2,4.805025E1,3.823739E2,3.1201462E1,2.1934627E2,2.0514961E2,5.616263E0,1.7160803E0,1.0920511E0,2.6209227E1,3.5803677E2,4.4462082E1,3.588168E0,3.0468228E2,7.7691635E1,1.4851895E2,7.082732E1,1.6068753E2,4.4462082E1,3.9001827E0,1.7160803E0],"tree_param":{"num_deleted":"0","num_feature":"5","num_nodes":"29","size_leaf_vector":"1"}},{"base_weights":[-3.0082132E-4,6.150264E-1,-4.814926E-2],"categories":[],"categories_nodes":[],"categories_segments":[],"categories_sizes":[],"default_left":[0,0,0],"id":5,"left_children":[1,-1,-1],"loss_changes":[8.279639E1,0E0,0E0],"parents":[2147483647,0,0],"right_children":[2,-1,-1],"split_conditions":[4.5625E-1,6.150264E-1,-4.814926E-2],"split_indices":[3,0,0],"split_type":[0,0,0],"sum_hessian":[2.5974945E1,1.0298716E0,2.4945074E1],"tree_param":{"num_deleted":"0","num_feature":"5","num_nodes":"3","size_leaf_vector":"1"}},{"base_weights":[1.342208E-3,-9.410874E-1,4.3982062E-1,-9.8605675E-1,3.0121893E-1,5.919045E-1,-1.9739829E-1,-1.0034638E-1,-7.859039E-1,-9.1224164E-2,6.24314E-1,6.9626325E-1,4.212122E-1,4.7886655E-2,-5.245779E-1,-9.9359624E-2,1.1834712E-2,7.1715705E-2,-3.1800356E-2,-8.2558654E-2,7.012776E-2,5.846097E-2,3.1002173E-2,5.3476155E-2,-1.5426934E-2,-3.7547197E-2,-8.70969E-2],"categories":[],"categories_nodes":[],"categories_segments":[],"categories_sizes":[],"default_left":[0,0,0,0,0,0,0,0,0,0,0,0,0,0,0,0,0,0,0,0,0,0,0,0,0,0,0],"id":6,"left_children":[1,3,5,7,9,11,13,-1,15,-1,17,19,21,23,25,-1,-1,-1,-1,-1,-1,-1,-1,-1,-1,-1,-1],"loss_changes":[1.6706035E3,7.201135E1,2.6749872E2,3.5283203E0,1.845155E1,3.9389038E1,4.274884E1,0E0,1.9602669E1,0E0,3.431264E0,1.1116943E1,1.5220917E1,3.0119703E1,1.1458668E1,0E0,0E0,0E0,0E0,0E0,0E0,0E0,0E0,0E0,0E0,0E0,0E0],"parents":[2147483647,0,0,1,1,2,2,3,3,4,4,5,5,6,6,8,8,10,10,11,11,12,12,13,13,14,14],"right_children":[2,4,6,8,10,12,14,-1,16,-1,18,20,22,24,26,-1,-1,-1,-1,-1,-1,-1,-1,-1,-1,-1,-1],"split_conditions":[2.6666668E-1,6E-1,3.15E-1,1.923077E-1,1.5384616E-1,2.0083334E-1,4.05E-1,-1.0034638E-1,4E-1,-9.1224164E-2,3.6E-1,4E-1,3.9800996E-1,5E-1,5.4E-1,-9.9359624E-2,1.1834712E-2,7.1715705E-2,-3.1800356E-2,-8.2558654E-2,7.012776E-2,5.846097E-2,3.1002173E-2,5.3476155E-2,-1.5426934E-2,-3.7547197E-2,-8.70969E-2],"split_indices":[1,4,0,1,1,0,0,0,4,0,0,4,1,3,0,0,0,0,0,0,0,0,0,0,0,0,0],"split_type":[0,0,0,0,0,0,0,0,0,0,0,0,0,0,0,0,0,0,0,0,0,0,0,0,0,0,0],"sum_hessian":[4.040743E3,1.2826893E3,2.7580537E3,1.2380792E3,4.461007E1,2.2266858E3,5.31368E2,1.1353281E3,1.0275108E2,8.9968405E0,3.5613228E1,1.3799347E3,8.4675104E2,3.0417963E2,2.2718834E2,8.347855E1,1.9272526E1,3.263661E1,2.9766207E0,3.9943752E0,1.3759403E3,3.411556E2,5.055954E2,8.876108E1,2.1541853E2,1.6027922E2,6.690911E1],"tree_param":{"num_deleted":"0","num_feature":"5","num_nodes":"27","size_leaf_vector":"1"}},{"base_weights":[-1.6271509E-3,1.1729776E0,-5.296101E-1,1.4590065E-1,9.961185E-1,-4.2911685E-1,-6.010492E-1,-5.3985815E-2,1.0164409E0,-4.9804288E-1,-2.2266091E-1,-6.0284585E-1,2.5095127E-3,1.1258288E-1,7.3873386E-2,-5.121514E-2,-1.91675E-2,-3.135123E-2,2.8688509E-2,-6.0371663E-2,-3.5626013E-2,-3.7668593E-2,3.693955E-2],"categories":[],"categories_nodes":[],"categories_segments":[],"categories_sizes":[],"default_left":[0,0,0,0,0,0,0,0,0,0,0,0,0,0,0,0,0,0,0,0,0,0,0],"id":7,"left_children":[1,3,5,-1,7,9,11,-1,13,15,17,19,21,-1,-1,-1,-1,-1,-1,-1,-1,-1,-1],"loss_changes":[1.6571606E3,4.046472E1,1.29765625E1,0E0,1.6630066E1,1.0838791E1,1.1672974E0,0E0,1.4624634E1,2.3918E0,9.089319E0,1.5045166E-2,7.215693E-1,0E0,0E0,0E0,0E0,0E0,0E0,0E0,0E0,0E0,0E0],"parents":[2147483647,0,0,1,1,2,2,4,4,5,5,6,6,8,8,9,9,10,10,11,11,12,12],"right_children":[2,4,6,-1,8,10,12,-1,14,16,18,20,22,-1,-1,-1,-1,-1,-1,-1,-1,-1,-1],"split_conditions":[1.5384616E-1,2.4333334E-1,3.8505748E-1,1.4590065E-1,3.3333334E-1,3.25E-1,4.2145595E-1,-5.3985815E-2,9.45E-1,3.846154E-1,5E-1,4.117647E-1,1.85E-1,1.1258288E-1,7.3873386E-2,-5.121514E-2,-1.91675E-2,-3.135123E-2,2.8688509E-2,-6.0371663E-2,-3.5626013E-2,-3.7668593E-2,3.693955E-2],"split_indices":[1,0,1,0,2,0,1,0,0,1,3,1,0,0,0,0,0,0,0,0,0,0,0],"split_type":[0,0,0,0,0,0,0,0,0,0,0,0,0,0,0,0,0,0,0,0,0,0,0],"sum_hessian":[2.6700999E3,8.276357E2,1.8424642E3,3.134511E2,5.141846E2,7.6846783E2,1.0739965E3,6.3804603E0,5.078041E2,5.7506726E2,1.9340056E2,1.0708099E3,3.1864364E0,3.6211435E2,1.4568977E2,5.491087E2,2.595856E1,1.6446193E2,2.893863E1,1.0655989E3,5.2111053E0,1.5537968E0,1.6326396E0],"tree_param":{"num_deleted":"0","num_feature":"5","num_nodes":"23","size_leaf_vector":"1"}},{"base_weights":[-1.0291915E-3,1.0852176E0,-5.132531E-1,1.4647644E0,6.697245E-1,9.994692E-2,-5.1977795E-2,1.6990764E0,3.014918E-1,3.2221317E-1,1.2441012E0,1.4830391E-1,2.623974E-1,2.909426E-3,9.996864E-2,4.1791078E-2,-3.5041574E-2,1.466593E-1,8.635924E-2],"categories":[],"categories_nodes":[],"categories_segments":[],"categories_sizes":[],"default_left":[0,0,0,0,0,0,0,0,0,0,0,0,0,0,0,0,0,0,0],"id":8,"left_children":[1,3,5,7,9,-1,-1,11,13,15,17,-1,-1,-1,-1,-1,-1,-1,-1],"loss_changes":[3.754424E2,3.3117874E1,5.045418E0,3.0058945E1,2.0570946E1,0E0,0E0,1.4718994E1,3.7784142E0,4.447025E0,2.056919E0,0E0,0E0,0E0,0E0,0E0,0E0,0E0,0E0],"parents":[2147483647,0,0,1,1,2,2,3,3,4,4,7,7,8,8,9,9,10,10],"right_children":[2,4,6,8,10,-1,-1,12,14,16,18,-1,-1,-1,-1,-1,-1,-1,-1],"split_conditions":[1.6666667E-1,6.666667E-1,4.4375E-1,4.893E-1,9.15E-1,9.994692E-2,-5.1977795E-2,8.65E-1,7.35E-1,4.889E-1,4.8055E-1,1.4830391E-1,2.623974E-1,2.909426E-3,9.996864E-2,4.1791078E-2,-3.5041574E-2,1.466593E-1,8.635924E-2],"split_indices":[1,2,3,3,0,0,0,0,0,3,3,0,0,0,0,0,0,0,0],"split_type":[0,0,0,0,0,0,0,0,0,0,0,0,0,0,0,0,0,0,0],"sum_hessian":[6.727677E2,2.152274E2,4.575403E2,1.111595E2,1.040679E2,1.3114607E0,4.5622885E2,9.213968E1,1.9019823E1,6.5811424E1,3.8256477E1,7.680342E1,1.5336257E1,1.4431219E1,4.5886054E0,5.794592E1,7.865506E0,2.2339685E1,1.5916793E1],"tree_param":{"num_deleted":"0","num_feature":"5","num_nodes":"19","size_leaf_vector":"1"}},{"base_weights":[4.8410363E-4,-2.5249326E-1,3.1752473E-1,-4.0496463E-1,-9.380367E-2,-4.866558E-2,1.0398767E0,-5.0512296E-1,-5.7218622E-2,-2.270083E-1,2.1817942E-1,-5.3182167E-1,2.4570584E-1,8.216916E-1,1.668393E0,-2.8850928E-2,-5.485761E-2,-1.0860296E-2,3.2354217E-2,-4.0956695E-2,-1.1368095E-2,-2.9337307E-2,3.0649994E-2,-5.4183133E-2,-1.7804595E-2,1.1294515E-2,3.8616452E-2,1.7764473E-2,1.02580346E-1,1.234987E-1,2.0262301E-1],"categories":[],"categories_nodes":[],"categories_segments":[],"categories_sizes":[],"default_left":[0,0,0,0,0,0,0,0,0,0,0,0,0,0,0,0,0,0,0,0,0,0,0,0,0,0,0,0,0,0,0],"id":9,"left_children":[1,3,5,7,9,11,13,15,17,19,21,23,25,27,29,-1,-1,-1,-1,-1,-1,-1,-1,-1,-1,-1,-1,-1,-1,-1,-1],"loss_changes":[1.3420116E2,2.2479675E1,1.9648074E2,1.64916E1,1.9054958E1,7.035379E1,3.289273E1,3.3067627E0,2.1323965E0,6.5941734E0,6.2953296E0,5.666008E-1,5.6903324E0,2.4458473E1,7.3325806E0,0E0,0E0,0E0,0E0,0E0,0E0,0E0,0E0,0E0,0E0,0E0,0E0,0E0,0E0,0E0,0E0],"parents":[2147483647,0,0,1,1,2,2,3,3,4,4,5,5,6,6,7,7,8,8,9,9,10,10,11,11,12,12,13,13,14,14],"right_children":[2,4,6,8,10,12,14,16,18,20,22,24,26,28,30,-1,-1,-1,-1,-1,-1,-1,-1,-1,-1,-1,-1,-1,-1,-1,-1],"split_conditions":[2.5125E-1,4E-1,3.9802632E-1,6.666667E-1,1.91E-1,3.3333334E-1,4E-1,4E-1,4.8965E-1,1.03E-1,6E-1,1E0,6.666667E-1,6E-1,6E-1,-2.8850928E-2,-5.485761E-2,-1.0860296E-2,3.2354217E-2,-4.0956695E-2,-1.1368095E-2,-2.9337307E-2,3.0649994E-2,-5.4183133E-2,-1.7804595E-2,1.1294515E-2,3.8616452E-2,1.7764473E-2,1.02580346E-1,1.234987E-1,2.0262301E-1],"split_indices":[0,1,1,2,0,2,0,4,3,0,4,4,2,4,4,0,0,0,0,0,0,0,0,0,0,0,0,0,0,0,0],"split_type":[0,0,0,0,0,0,0,0,0,0,0,0,0,0,0,0,0,0,0,0,0,0,0,0,0,0,0,0,0,0,0],"sum_hessian":[1.6712458E3,9.296502E2,7.415956E2,4.7332272E2,4.563275E2,4.9273856E2,2.4885706E2,3.671291E2,1.0619365E2,3.1998062E2,1.363469E2,1.8624512E2,3.0649344E2,1.8644225E2,6.241481E1,6.2617996E1,3.0451108E2,9.419645E1,1.1997203E1,1.21554634E2,1.9842598E2,1.9732798E1,1.166141E2,1.8060358E2,5.641533E0,1.5849193E2,1.4800151E2,4.5317978E1,1.4112427E2,3.023995E1,3.217486E1],"tree_param":{"num_deleted":"0","num_feature":"5","num_nodes":"31","size_leaf_vector":"1"}},{"base_weights":[-1.0643384E-3,-3.0637723E-1,4.8562986E-1,-4.2919168E-1,-1.9683412E-1,1.0171866E0,-2.2765665E-1,1.0346487E-1,-4.336891E-1,5.995723E-2,-2.3121646E-1,3.0888321E0,5.6488615E-1,-2.8992906E-1,1.4494661E0,-3.5752248E-2,7.103961E-2,-4.5942023E-2,-3.8077366E-2,-3.550625E-2,2.9831025E-1,-2.852957E-2,-2.5633757E-3,5.748565E-2,3.1399003E-1,2.6466487E-2,1.0520317E-1,-3.7902813E-2,1.9811976E-3,1.8739407E-1,1.0552694E-3],"categories":[],"categories_nodes":[],"categories_segments":[],"categories_sizes":[],"default_left":[0,0,0,0,0,0,0,0,0,0,0,0,0,0,0,0,0,0,0,0,0,0,0,0,0,0,0,0,0,0,0],"id":10,"left_children":[1,3,5,7,9,11,13,15,17,19,21,23,25,27,29,-1,-1,-1,-1,-1,-1,-1,-1,-1,-1,-1,-1,-1,-1,-1,-1],"loss_changes":[1.9036615E2,1.0506821E1,1.8748029E2,9.319382E-1,3.704033E0,2.6357983E2,2.252981E1,1.3473253E0,3.2530212E-1,6.1895813E1,4.093014E0,4.6809387E0,3.3892067E1,5.663748E0,4.7112045E0,0E0,0E0,0E0,0E0,0E0,0E0,0E0,0E0,0E0,0E0,0E0,0E0,0E0,0E0,0E0,0E0],"parents":[2147483647,0,0,1,1,2,2,3,3,4,4,5,5,6,6,7,7,8,8,9,9,10,10,11,11,12,12,13,13,14,14],"right_children":[2,4,6,8,10,12,14,16,18,20,22,24,26,28,30,-1,-1,-1,-1,-1,-1,-1,-1,-1,-1,-1,-1,-1,-1,-1,-1],"split_conditions":[2.825E-1,1.5E-1,3.3333334E-1,3.9695E-1,4E-1,4E-1,2.498386E-1,3.7515E-1,1.11666664E-1,1.923077E-1,2.4916667E-1,4.647E-1,3.85E-1,1E0,4E-1,-3.5752248E-2,7.103961E-2,-4.5942023E-2,-3.8077366E-2,-3.550625E-2,2.9831025E-1,-2.852957E-2,-2.5633757E-3,5.748565E-2,3.1399003E-1,2.6466487E-2,1.0520317E-1,-3.7902813E-2,1.9811976E-3,1.8739407E-1,1.0552694E-3],"split_indices":[0,0,2,3,4,4,1,3,0,1,0,3,0,0,4,0,0,0,0,0,0,0,0,0,0,0,0,0,0,0,0],"split_type":[0,0,0,0,0,0,0,0,0,0,0,0,0,0,0,0,0,0,0,0,0,0,0,0,0,0,0,0,0,0,0],"sum_hessian":[1.2791146E3,7.8625305E2,4.9286157E2,3.6929703E2,4.16956E2,2.821621E2,2.1069946E2,2.9077594E0,3.6638928E2,4.914712E1,3.678089E2,4.9519894E1,2.3264223E2,2.0395369E2,6.7457757E0,1.8861164E0,1.0216429E0,2.413474E2,1.2504188E2,4.3806183E1,5.340941E0,2.9089914E2,7.690976E1,1.2299232E0,4.828997E1,1.4489108E2,8.7751144E1,1.5821764E2,4.5736053E1,4.975647E0,1.7701291E0],"tree_param":{"num_deleted":"0","num_feature":"5","num_nodes":"31","size_leaf_vector":"1"}},{"base_weights":[6.3021006E-3,5.330431E-1,-4.418769E-1,2.4024036E-2,-4.8027765E-2],"categories":[],"categories_nodes":[],"categories_segments":[],"categories_sizes":[],"default_left":[0,0,0,0,0],"id":11,"left_children":[1,-1,3,-1,-1],"loss_changes":[6.588186E1,0E0,7.827802E-1,0E0,0E0],"parents":[2147483647,0,0,2,2],"right_children":[2,-1,4,-1,-1],"split_conditions":[4.3315E-1,5.330431E-1,4.615E-1,2.4024036E-2,-4.8027765E-2],"split_indices":[3,0,3,0,0],"split_type":[0,0,0,0,0],"sum_hessian":[2.5622858E1,1.1436286E0,2.447923E1,1.0245134E0,2.3454716E1],"tree_param":{"num_deleted":"0","num_feature":"5","num_nodes":"5","size_leaf_vector":"1"}},{"base_weights":[1.3209169E-3,-8.6908704E-1,4.0950632E-1,-9.102328E-1,2.7995846E-1,5.5312204E-1,-1.8210872E-1,-9.260145E-2,-7.285491E-1,-8.463839E-2,5.8461535E-1,6.129753E-1,2.7973384E-1,4.3730125E-2,-4.8206595E-1,-9.184496E-2,9.796305E-3,6.749178E-2,-3.0851189E-2,-8.66974E-2,6.1924603E-2,6.1658908E-2,1.7917993E-2,5.0418526E-2,-1.4496217E-2,-3.0295392E-2,-7.407373E-2],"categories":[],"categories_nodes":[],"categories_segments":[],"categories_sizes":[],"default_left":[0,0,0,0,0,0,0,0,0,0,0,0,0,0,0,0,0,0,0,0,0,0,0,0,0,0,0],"id":12,"left_children":[1,3,5,7,9,11,13,-1,15,-1,17,19,21,23,25,-1,-1,-1,-1,-1,-1,-1,-1,-1,-1,-1,-1],"loss_changes":[1.4193627E3,6.055243E1,2.311712E2,2.8565063E0,1.5886837E1,3.5641052E1,3.605853E1,0E0,1.6274319E1,0E0,3.103386E0,1.7191956E1,1.3266754E1,2.6520893E1,1.0365898E1,0E0,0E0,0E0,0E0,0E0,0E0,0E0,0E0,0E0,0E0,0E0,0E0],"parents":[2147483647,0,0,1,1,2,2,3,3,4,4,5,5,6,6,8,8,10,10,11,11,12,12,13,13,14,14],"right_children":[2,4,6,8,10,12,14,-1,16,-1,18,20,22,24,26,-1,-1,-1,-1,-1,-1,-1,-1,-1,-1,-1,-1],"split_conditions":[2.6666668E-1,6E-1,3.15E-1,1.923077E-1,1.5384616E-1,2.5125E-1,4.05E-1,-9.260145E-2,4E-1,-8.463839E-2,3.6E-1,4E-1,5E-1,5E-1,5E-1,-9.184496E-2,9.796305E-3,6.749178E-2,-3.0851189E-2,-8.66974E-2,6.1924603E-2,6.1658908E-2,1.7917993E-2,5.0418526E-2,-1.4496217E-2,-3.0295392E-2,-7.407373E-2],"split_indices":[1,4,0,1,1,0,0,0,4,0,0,4,3,3,0,0,0,0,0,0,0,0,0,0,0,0,0],"split_type":[0,0,0,0,0,0,0,0,0,0,0,0,0,0,0,0,0,0,0,0,0,0,0,0,0,0,0],"sum_hessian":[3.9929639E3,1.274376E3,2.718588E3,1.2305206E3,4.385537E1,2.187607E3,5.30981E2,1.128406E3,1.0211451E2,8.958155E0,3.4897217E1,1.7936735E3,3.939335E2,3.0340247E2,2.2757857E2,8.2945595E1,1.9168917E1,3.19147E1,2.9825153E0,6.988785E0,1.7866847E3,8.9379745E1,3.0455374E2,8.770613E1,2.1569632E2,1.3575136E2,9.182721E1],"tree_param":{"num_deleted":"0","num_feature":"5","num_nodes":"27","size_leaf_vector":"1"}},{"base_weights":[-3.109087E-3,9.934788E-1,-5.159625E-1,1.2228075E0,8.5054815E-1,-4.13555E-1,-5.899241E-1,1.1281514E0,1.2843797E-1,-5.3358097E-2,8.6708254E-1,-4.821414E-1,-2.1632789E-1,-5.9180677E-1,1.6253462E-2,1.1756662E-1,9.1478996E-2,9.561859E-2,6.349421E-2,-4.9674947E-2,-1.7224403E-2,-3.0441916E-2,2.5639141E-2,-5.9271425E-2,-3.4083407E-2,-3.6359493E-2,3.66636E-2],"categories":[],"categories_nodes":[],"categories_segments":[],"categories_sizes":[],"default_left":[0,0,0,0,0,0,0,0,0,0,0,0,0,0,0,0,0,0,0,0,0,0,0,0,0,0,0],"id":13,"left_children":[1,3,5,7,9,11,13,15,-1,-1,17,19,21,23,25,-1,-1,-1,-1,-1,-1,-1,-1,-1,-1,-1,-1],"loss_changes":[1.3560144E3,2.850708E1,1.302359E1,5.548706E-1,1.3246826E1,9.877647E0,1.1677246E0,3.815918E-1,0E0,0E0,1.0818878E1,2.3893814E0,8.082391E0,2.8381348E-2,6.809996E-1,0E0,0E0,0E0,0E0,0E0,0E0,0E0,0E0,0E0,0E0,0E0,0E0],"parents":[2147483647,0,0,1,1,2,2,3,3,4,4,5,5,6,6,7,7,10,10,11,11,12,12,13,13,14,14],"right_children":[2,4,6,8,10,12,14,16,-1,-1,18,20,22,24,26,-1,-1,-1,-1,-1,-1,-1,-1,-1,-1,-1,-1],"split_conditions":[1.5384616E-1,2.3875E-1,3.8505748E-1,4.8565E-1,3.3333334E-1,3.25E-1,4.2145595E-1,1.41E-1,1.2843797E-1,-5.3358097E-2,9.45E-1,3.846154E-1,5E-1,4.117647E-1,1.85E-1,1.1756662E-1,9.1478996E-2,9.561859E-2,6.349421E-2,-4.9674947E-2,-1.7224403E-2,-3.0441916E-2,2.5639141E-2,-5.9271425E-2,-3.4083407E-2,-3.6359493E-2,3.66636E-2],"split_indices":[1,0,1,3,2,0,1,0,0,0,0,1,3,1,0,0,0,0,0,0,0,0,0,0,0,0,0],"split_type":[0,0,0,0,0,0,0,0,0,0,0,0,0,0,0,0,0,0,0,0,0,0,0,0,0,0,0],"sum_hessian":[2.6511084E3,9.0043207E2,1.7506763E3,3.4282394E2,5.5760815E2,7.3692236E2,1.01375397E3,1.4272792E2,2.0009602E2,6.213236E0,5.513949E2,5.457065E2,1.9121591E2,1.0106388E3,3.1151357E0,1.130434E2,2.9684517E1,3.9620065E2,1.5519424E2,5.205649E2,2.5141558E1,1.614801E2,2.9735804E1,1.0056408E3,4.9980083E0,1.4766243E0,1.6385114E0],"tree_param":{"num_deleted":"0","num_feature":"5","num_nodes":"27","size_leaf_vector":"1"}},{"base_weights":[-6.436187E-4,9.085204E-1,-5.114265E-1,1.1889875E0,5.795643E-1,8.910971E-2,-5.183473E-2,1.3532492E0,2.668299E-1,2.8556645E-1,1.0256695E0,3.2075506E-2,1.4423959E-1,1.772427E-3,8.6357705E-2,7.0699595E-2,1.5049839E-2,1.1881262E-1,7.343218E-2],"categories":[],"categories_nodes":[],"categories_segments":[],"categories_sizes":[],"default_left":[0,0,0,0,0,0,0,0,0,0,0,0,0,0,0,0,0,0,0],"id":14,"left_children":[1,3,5,7,9,-1,-1,11,13,15,17,-1,-1,-1,-1,-1,-1,-1,-1],"loss_changes":[3.126007E2,2.1651535E1,4.645401E0,1.9293549E1,1.4578709E1,0E0,0E0,9.652115E0,3.0861845E0,3.862926E0,1.2412262E0,0E0,0E0,0E0,0E0,0E0,0E0,0E0,0E0],"parents":[2147483647,0,0,1,1,2,2,3,3,4,4,7,7,8,8,9,9,10,10],"right_children":[2,4,6,8,10,-1,-1,12,14,16,18,-1,-1,-1,-1,-1,-1,-1,-1],"split_conditions":[1.6666667E-1,6.666667E-1,4.4375E-1,4.893E-1,9.15E-1,8.910971E-2,-5.183473E-2,8.625E-2,7.35E-1,4.6315E-1,4.8055E-1,3.2075506E-2,1.4423959E-1,1.772427E-3,8.6357705E-2,7.0699595E-2,1.5049839E-2,1.1881262E-1,7.343218E-2],"split_indices":[1,2,3,3,0,0,0,0,0,3,3,0,0,0,0,0,0,0,0],"split_type":[0,0,0,0,0,0,0,0,0,0,0,0,0,0,0,0,0,0,0],"sum_hessian":[6.711486E2,2.4114528E2,4.3000333E2,1.2875485E2,1.1239044E2,1.4840968E0,4.2851923E2,1.0889089E2,1.9863955E1,6.873317E1,4.3657272E1,9.01997E0,9.987092E1,1.4740425E1,5.12353E0,1.5654567E1,5.30786E1,2.605233E1,1.760494E1],"tree_param":{"num_deleted":"0","num_feature":"5","num_nodes":"19","size_leaf_vector":"1"}},{"base_weights":[2.1728412E-3,-2.3955972E-1,2.862362E-1,-3.952554E-1,-8.034255E-2,-5.1523916E-2,9.0206635E-1,-4.9788088E-1,-5.9571248E-2,-2.6181552E-1,1.321806E-1,-5.267503E-1,2.149987E-1,6.227055E-1,1.2113028E0,-2.8222596E-2,-5.4341186E-2,-5.0684907E-2,-1.6128588E-3,-3.9713427E-2,-1.3494273E-2,-9.4788065E-3,2.5679281E-2,-5.371939E-2,-1.6834076E-2,2.5553761E-2,-1.6757486E-2,5.900967E-3,7.814505E-2,8.538603E-2,1.4160739E-1],"categories":[],"categories_nodes":[],"categories_segments":[],"categories_sizes":[],"default_left":[0,0,0,0,0,0,0,0,0,0,0,0,0,0,0,0,0,0,0,0,0,0,0,0,0,0,0,0,0,0,0],"id":15,"left_children":[1,3,5,7,9,11,13,15,17,19,21,23,25,27,29,-1,-1,-1,-1,-1,-1,-1,-1,-1,-1,-1,-1,-1,-1,-1,-1],"loss_changes":[1.1438756E2,2.2278027E1,1.593457E2,1.5636787E1,1.724364E1,6.287688E1,2.2684433E1,3.2651062E0,2.08286E0,4.0843487E0,5.8559275E0,5.771141E-1,4.9776745E0,1.28934555E1,8.138824E0,0E0,0E0,0E0,0E0,0E0,0E0,0E0,0E0,0E0,0E0,0E0,0E0,0E0,0E0,0E0,0E0],"parents":[2147483647,0,0,1,1,2,2,3,3,4,4,5,5,6,6,7,7,8,8,9,9,10,10,11,11,12,12,13,13,14,14],"right_children":[2,4,6,8,10,12,14,16,18,20,22,24,26,28,30,-1,-1,-1,-1,-1,-1,-1,-1,-1,-1,-1,-1,-1,-1,-1,-1],"split_conditions":[2.5125E-1,4E-1,3.9802632E-1,6.666667E-1,1.6166666E-1,3.3333334E-1,3.4125E-1,4.889E-1,4.2125E-1,1.03E-1,8E-1,1E0,4E-1,6E-1,6E-1,-2.8222596E-2,-5.4341186E-2,-5.0684907E-2,-1.6128588E-3,-3.9713427E-2,-1.3494273E-2,-9.4788065E-3,2.5679281E-2,-5.371939E-2,-1.6834076E-2,2.5553761E-2,-1.6757486E-2,5.900967E-3,7.814505E-2,8.538603E-2,1.4160739E-1],"split_indices":[0,1,1,2,0,2,0,3,3,0,4,4,4,4,4,0,0,0,0,0,0,0,0,0,0,0,0,0,0,0,0],"split_type":[0,0,0,0,0,0,0,0,0,0,0,0,0,0,0,0,0,0,0,0,0,0,0,0,0,0,0,0,0,0,0],"sum_hessian":[1.6638228E3,8.9897156E2,7.648512E2,4.537626E2,4.4520898E2,4.9453394E2,2.703173E2,3.4714893E2,1.06613686E2,2.4002248E2,2.0518651E2,1.7734334E2,3.1719058E2,1.4360225E2,1.26715034E2,6.1771236E1,2.853777E2,8.493992E0,9.811969E1,1.1511454E2,1.2490793E2,7.28099E1,1.3237662E2,1.718374E2,5.5059347E0,2.8710043E2,3.0090162E1,3.1855738E1,1.11746506E2,4.8035484E1,7.867955E1],"tree_param":{"num_deleted":"0","num_feature":"5","num_nodes":"31","size_leaf_vector":"1"}},{"base_weights":[-4.480086E-4,-2.94927E-1,4.2933944E-1,-4.2067054E-1,-1.8505797E-1,8.733873E-1,-2.2544192E-1,9.447001E-2,-4.2530394E-1,-2.3352829E-1,-1.656911E-2,2.2561533E0,5.0691134E-1,-3.011059E-1,9.719687E-1,-3.54469E-2,6.574943E-2,-4.5236647E-2,-3.697541E-2,7.675731E-3,-2.722765E-2,7.550647E-3,-4.4989802E-2,1.7789548E-2,2.2882639E-1,2.4936879E-2,8.915826E-2,-4.5708608E-2,-1.4808563E-2,1.4614926E-1,-2.1079065E-2],"categories":[],"categories_nodes":[],"categories_segments":[],"categories_sizes":[],"default_left":[0,0,0,0,0,0,0,0,0,0,0,0,0,0,0,0,0,0,0,0,0,0,0,0,0,0,0,0,0,0,0],"id":16,"left_children":[1,3,5,7,9,11,13,15,17,19,21,23,25,27,29,-1,-1,-1,-1,-1,-1,-1,-1,-1,-1,-1,-1,-1,-1,-1,-1],"loss_changes":[1.6133171E2,1.0372414E1,1.5089023E2,8.802223E-1,3.3075762E0,1.554653E2,1.9340462E1,1.2328875E0,3.573761E-1,3.8059464E0,3.6912668E0,3.8944092E0,2.4107933E1,4.6702995E0,7.6796722E0,0E0,0E0,0E0,0E0,0E0,0E0,0E0,0E0,0E0,0E0,0E0,0E0,0E0,0E0,0E0,0E0],"parents":[2147483647,0,0,1,1,2,2,3,3,4,4,5,5,6,6,7,7,8,8,9,9,10,10,11,11,12,12,13,13,14,14],"right_children":[2,4,6,8,10,12,14,16,18,20,22,24,26,28,30,-1,-1,-1,-1,-1,-1,-1,-1,-1,-1,-1,-1,-1,-1,-1,-1],"split_conditions":[2.825E-1,1.5E-1,3.3333334E-1,3.9695E-1,2.4916667E-1,4E-1,1.6666667E-1,3.7515E-1,1.11666664E-1,4E-1,3.3333334E-1,4.485E-1,3.85E-1,6.666667E-1,4E-1,-3.54469E-2,6.574943E-2,-4.5236647E-2,-3.697541E-2,7.675731E-3,-2.722765E-2,7.550647E-3,-4.4989802E-2,1.7789548E-2,2.2882639E-1,2.4936879E-2,8.915826E-2,-4.5708608E-2,-1.4808563E-2,1.4614926E-1,-2.1079065E-2],"split_indices":[0,0,2,3,0,4,1,3,0,4,2,3,0,2,4,0,0,0,0,0,0,0,0,0,0,0,0,0,0,0,0],"split_type":[0,0,0,0,0,0,0,0,0,0,0,0,0,0,0,0,0,0,0,0,0,0,0,0,0,0,0,0,0,0,0],"sum_hessian":[1.2727103E3,7.5542615E2,5.1728424E2,3.5094534E2,4.044808E2,3.0804556E2,2.0923866E2,2.9555788E0,3.4798978E2,3.1381696E2,9.066385E1,6.345698E1,2.4458858E2,1.975068E2,1.1731851E1,1.8504801E0,1.1050986E0,2.2919035E2,1.18799416E2,3.4729683E1,2.7908728E2,7.545632E1,1.5207529E1,1.0650494E0,6.2391933E1,1.4749019E2,9.70984E1,9.682342E1,1.0068339E2,8.130933E0,3.6009176E0],"tree_param":{"num_deleted":"0","num_feature":"5","num_nodes":"31","size_leaf_vector":"1"}},{"base_weights":[1.3555062E-2,4.6528974E-1,-4.008203E-1,6.1400563E-2,-4.7966298E-2],"categories":[],"categories_nodes":[],"categories_segments":[],"categories_sizes":[],"default_left":[0,0,0,0,0],"id":17,"left_children":[1,-1,3,-1,-1],"loss_changes":[5.231633E1,0E0,2.2957978E0,0E0,0E0],"parents":[2147483647,0,0,2,2],"right_children":[2,-1,4,-1,-1],"split_conditions":[4.1375E-1,4.6528974E-1,4.485E-1,6.1400563E-2,-4.7966298E-2],"split_indices":[3,0,3,0,0],"split_type":[0,0,0,0,0],"sum_hessian":[2.5243542E1,1.2311294E0,2.4012413E1,1.241728E0,2.2770685E1],"tree_param":{"num_deleted":"0","num_feature":"5","num_nodes":"5","size_leaf_vector":"1"}},{"base_weights":[4.5440253E-4,-8.1329954E-1,3.8213605E-1,-8.515635E-1,2.610522E-1,5.458826E-1,-7.714301E-2,-8.660759E-2,-6.846247E-1,-7.933508E-2,5.493689E-1,6.50796E-1,4.4601348E-1,1.2644146E-1,-4.019595E-1,-8.614307E-2,7.738416E-3,6.378275E-2,-2.9938266E-2,-7.138956E-2,6.55807E-2,-8.41231E-2,4.5319885E-2,5.2243143E-2,-1.4409978E-3,-2.4985533E-2,-6.936345E-2],"categories":[],"categories_nodes":[],"categories_segments":[],"categories_sizes":[],"default_left":[0,0,0,0,0,0,0,0,0,0,0,0,0,0,0,0,0,0,0,0,0,0,0,0,0,0,0],"id":18,"left_children":[1,3,5,7,9,11,13,-1,15,-1,17,19,21,23,25,-1,-1,-1,-1,-1,-1,-1,-1,-1,-1,-1,-1],"loss_changes":[1.2190841E3,5.173944E1,2.0097675E2,2.3392334E0,1.3770465E1,2.0347656E1,4.6544796E1,0E0,1.375145E1,0E0,2.8214235E0,7.0223694E0,9.744324E0,2.4156437E1,1.1855389E1,0E0,0E0,0E0,0E0,0E0,0E0,0E0,0E0,0E0,0E0,0E0,0E0],"parents":[2147483647,0,0,1,1,2,2,3,3,4,4,5,5,6,6,8,8,10,10,11,11,12,12,13,13,14,14],"right_children":[2,4,6,8,10,12,14,-1,16,-1,18,20,22,24,26,-1,-1,-1,-1,-1,-1,-1,-1,-1,-1,-1,-1],"split_conditions":[2.6666668E-1,6E-1,2.85E-1,1.923077E-1,1.5384616E-1,1.6166666E-1,3.85E-1,-8.660759E-2,4E-1,-7.933508E-2,3.6E-1,4E-1,4E-1,5E-1,5E-1,-8.614307E-2,7.738416E-3,6.378275E-2,-2.9938266E-2,-7.138956E-2,6.55807E-2,-8.41231E-2,4.5319885E-2,5.2243143E-2,-1.4409978E-3,-2.4985533E-2,-6.936345E-2],"split_indices":[1,4,0,1,1,0,0,0,4,0,0,4,4,3,0,0,0,0,0,0,0,0,0,0,0,0,0],"split_type":[0,0,0,0,0,0,0,0,0,0,0,0,0,0,0,0,0,0,0,0,0,0,0,0,0,0,0],"sum_hessian":[3.9229963E3,1.252183E3,2.6708132E3,1.2093193E3,4.2863605E1,1.9687185E3,7.020947E2,1.1087457E3,1.00573685E2,8.827799E0,3.403581E1,9.574219E2,1.01129663E3,4.3196426E2,2.701305E2,8.152685E1,1.9046837E1,3.1048391E1,2.9874158E0,2.9851847E0,9.544367E2,4.969376E0,1.0063273E3,1.1262396E2,3.1934027E2,1.7876424E2,9.1366264E1],"tree_param":{"num_deleted":"0","num_feature":"5","num_nodes":"27","size_leaf_vector":"1"}},{"base_weights":[-4.3838224E-3,8.608099E-1,-5.03063E-1,1.0499165E0,7.364737E-1,-3.9893073E-1,-5.7968706E-1,9.8846036E-1,1.1138831E0,-5.266424E-2,7.506007E-1,-4.6743345E-1,-2.0922452E-1,-5.8166504E-1,2.9163284E-2,1.00017264E-1,5.0029466E-3,1.1949419E-1,1.0232637E-1,8.2822636E-2,5.5123385E-2,-4.8253957E-2,-1.5495464E-2,-2.9453501E-2,2.291878E-2,-5.826201E-2,-3.2373257E-2,-3.5166267E-2,3.6487054E-2],"categories":[],"categories_nodes":[],"categories_segments":[],"categories_sizes":[],"default_left":[0,0,0,0,0,0,0,0,0,0,0,0,0,0,0,0,0,0,0,0,0,0,0,0,0,0,0,0,0],"id":19,"left_children":[1,3,5,7,9,11,13,15,17,-1,19,21,23,25,27,-1,-1,-1,-1,-1,-1,-1,-1,-1,-1,-1,-1,-1,-1],"loss_changes":[1.1312565E3,2.1768127E1,1.3040131E1,3.8467407E-1,1.0776001E1,9.106621E0,1.1682129E0,2.166153E0,7.966614E-2,0E0,8.453278E0,2.3777542E0,7.163165E0,4.6142578E-2,6.4581645E-1,0E0,0E0,0E0,0E0,0E0,0E0,0E0,0E0,0E0,0E0,0E0,0E0,0E0,0E0],"parents":[2147483647,0,0,1,1,2,2,3,3,4,4,5,5,6,6,7,7,8,8,10,10,11,11,12,12,13,13,14,14],"right_children":[2,4,6,8,10,12,14,16,18,-1,20,22,24,26,28,-1,-1,-1,-1,-1,-1,-1,-1,-1,-1,-1,-1,-1,-1],"split_conditions":[1.5384616E-1,2.4916667E-1,3.8505748E-1,4.8835E-1,3.3333334E-1,3.25E-1,4.2145595E-1,2.4333334E-1,9.75E-2,-5.266424E-2,9.45E-1,3.846154E-1,5E-1,4.117647E-1,1.85E-1,1.00017264E-1,5.0029466E-3,1.1949419E-1,1.0232637E-1,8.2822636E-2,5.5123385E-2,-4.8253957E-2,-1.5495464E-2,-2.9453501E-2,2.291878E-2,-5.826201E-2,-3.2373257E-2,-3.5166267E-2,3.6487054E-2],"split_indices":[1,0,1,3,2,0,1,0,0,0,0,1,3,1,0,0,0,0,0,0,0,0,0,0,0,0,0,0,0],"split_type":[0,0,0,0,0,0,0,0,0,0,0,0,0,0,0,0,0,0,0,0,0,0,0,0,0,0,0,0,0],"sum_hessian":[2.619959E3,9.5768225E2,1.6622769E3,3.7693973E2,5.807425E2,7.072836E2,9.5499316E2,2.0063338E2,1.7630637E2,6.0220776E0,5.747204E2,5.1856604E2,1.8871762E2,9.519453E2,3.0478773E0,1.9809521E2,2.5381646E0,8.662989E1,8.967647E1,4.1138794E2,1.6333246E2,4.9413397E2,2.4432056E1,1.5825166E2,3.0465958E1,9.4717926E2,4.766E0,1.4057118E0,1.6421655E0],"tree_param":{"num_deleted":"0","num_feature":"5","num_nodes":"29","size_leaf_vector":"1"}},{"base_weights":[6.106582E-4,7.800033E-1,-5.096605E-1,8.59357E-1,4.8552226E-2,7.999586E-2,-5.170017E-2,1.1063802E0,5.67468E-1,-2.314791E-1,6.248933E-1,1.877754E-1,1.0042667E-1,3.260685E-2,9.00816E-2,-4.097046E-2,1.6878478E-2,1.0172667E-1,2.374087E-2],"categories":[],"categories_nodes":[],"categories_segments":[],"categories_sizes":[],"default_left":[0,0,0,0,0,0,0,0,0,0,0,0,0,0,0,0,0,0,0],"id":20,"left_children":[1,3,5,7,9,-1,-1,11,13,15,17,-1,-1,-1,-1,-1,-1,-1,-1],"loss_changes":[2.6643253E2,1.5343567E1,4.3060226E0,1.6609497E1,4.502591E0,0E0,0E0,8.230392E0,8.689434E0,1.4175746E0,1.1420226E0,0E0,0E0,0E0,0E0,0E0,0E0,0E0,0E0],"parents":[2147483647,0,0,1,1,2,2,3,3,4,4,7,7,8,8,9,9,10,10],"right_children":[2,4,6,8,10,-1,-1,12,14,16,18,-1,-1,-1,-1,-1,-1,-1,-1],"split_conditions":[1.6666667E-1,4.8965E-1,4.4375E-1,6.666667E-1,7.65E-1,7.999586E-2,-5.170017E-2,4.59E-1,9.15E-1,4.95E-1,8.95E-1,1.877754E-1,1.0042667E-1,3.260685E-2,9.00816E-2,-4.097046E-2,1.6878478E-2,1.0172667E-1,2.374087E-2],"split_indices":[1,3,3,2,0,0,0,3,0,3,0,0,0,0,0,0,0,0,0],"split_type":[0,0,0,0,0,0,0,0,0,0,0,0,0,0,0,0,0,0,0],"sum_hessian":[6.679311E2,2.640659E2,4.038652E2,2.3806395E2,2.6001953E1,1.6494299E0,4.0221576E2,1.2743032E2,1.1063363E2,1.790209E1,8.099863E0,1.2864212E1,1.1456611E2,6.531376E1,4.531987E1,1.2370356E1,5.5317354E0,3.216983E0,4.88288E0],"tree_param":{"num_deleted":"0","num_feature":"5","num_nodes":"19","size_leaf_vector":"1"}},{"base_weights":[4.6710074E-3,-2.257822E-1,2.594121E-1,-3.8533983E-1,-6.521704E-2,-5.291156E-2,7.90706E-1,-4.9073815E-1,-5.942037E-2,-2.4630576E-1,1.4032243E-1,-5.2204305E-1,1.9133112E-1,6.3729006E-1,1.1684822E0,-2.7426517E-2,-5.3838816E-2,-1.0966776E-2,3.090374E-2,-3.8498875E-2,-1.19020315E-2,-7.932357E-3,2.5757808E-2,-5.3290065E-2,-1.6311215E-2,2.2814633E-2,-1.6686467E-2,1.3523988E-2,7.7945754E-2,8.938253E-2,1.3766105E-1],"categories":[],"categories_nodes":[],"categories_segments":[],"categories_sizes":[],"default_left":[0,0,0,0,0,0,0,0,0,0,0,0,0,0,0,0,0,0,0,0,0,0,0,0,0,0,0,0,0,0,0],"id":21,"left_children":[1,3,5,7,9,11,13,15,17,19,21,23,25,27,29,-1,-1,-1,-1,-1,-1,-1,-1,-1,-1,-1,-1,-1,-1,-1,-1],"loss_changes":[9.715036E1,2.223462E1,1.3046799E2,1.4934128E1,1.61984E1,5.692651E1,1.612407E1,3.2460938E0,2.0256565E0,4.035902E0,5.27541E0,5.7585526E-1,4.348631E0,1.4825943E1,3.506256E0,0E0,0E0,0E0,0E0,0E0,0E0,0E0,0E0,0E0,0E0,0E0,0E0,0E0,0E0,0E0,0E0],"parents":[2147483647,0,0,1,1,2,2,3,3,4,4,5,5,6,6,7,7,8,8,9,9,10,10,11,11,12,12,13,13,14,14],"right_children":[2,4,6,8,10,12,14,16,18,20,22,24,26,28,30,-1,-1,-1,-1,-1,-1,-1,-1,-1,-1,-1,-1,-1,-1,-1,-1],"split_conditions":[2.5125E-1,4E-1,3.9802632E-1,6.666667E-1,1.6166666E-1,3.3333334E-1,3.95E-1,4.889E-1,1.6666667E-1,1.03E-1,8E-1,1E0,4E-1,6E-1,6E-1,-2.7426517E-2,-5.3838816E-2,-1.0966776E-2,3.090374E-2,-3.8498875E-2,-1.19020315E-2,-7.932357E-3,2.5757808E-2,-5.3290065E-2,-1.6311215E-2,2.2814633E-2,-1.6686467E-2,1.3523988E-2,7.7945754E-2,8.938253E-2,1.3766105E-1],"split_indices":[0,1,1,2,0,2,0,3,0,0,4,4,4,4,4,0,0,0,0,0,0,0,0,0,0,0,0,0,0,0,0],"split_type":[0,0,0,0,0,0,0,0,0,0,0,0,0,0,0,0,0,0,0,0,0,0,0,0,0,0,0,0,0,0,0],"sum_hessian":[1.6528676E3,8.6786316E2,7.850044E2,4.3459515E2,4.33268E2,4.9494748E2,2.900569E2,3.2801382E2,1.0658133E2,2.302287E2,2.0303929E2,1.6906906E2,3.2587842E2,2.0819522E2,8.186167E1,6.0395245E1,2.676186E2,9.440894E1,1.2172393E1,1.0921245E2,1.2101625E2,7.0778625E1,1.3226067E2,1.6363448E2,5.4345913E0,2.9583563E2,3.0042786E1,4.637562E1,1.618196E2,3.7572987E1,4.428868E1],"tree_param":{"num_deleted":"0","num_feature":"5","num_nodes":"31","size_leaf_vector":"1"}},{"base_weights":[8.0494175E-4,-2.829768E-1,3.8391736E-1,-4.1206086E-1,-1.7234941E-1,7.629413E-1,-2.2185169E-1,8.665264E-2,-4.1682833E-1,-2.1969031E-1,-1.3061769E-2,1.7957906E0,4.5660394E-1,-2.9572952E-1,8.258453E-1,-3.5110284E-2,6.1046507E-2,-4.452095E-2,-3.5876613E-2,6.509386E-3,-2.5747895E-2,7.6004528E-3,-4.4524923E-2,1.5568241E-2,1.8183257E-1,2.3452107E-2,7.6670885E-2,-4.520759E-2,-1.4747421E-2,1.203918E-1,-2.0954732E-2],"categories":[],"categories_nodes":[],"categories_segments":[],"categories_sizes":[],"default_left":[0,0,0,0,0,0,0,0,0,0,0,0,0,0,0,0,0,0,0,0,0,0,0,0,0,0,0,0,0,0,0],"id":22,"left_children":[1,3,5,7,9,11,13,15,17,19,21,23,25,27,29,-1,-1,-1,-1,-1,-1,-1,-1,-1,-1,-1,-1,-1,-1,-1,-1],"loss_changes":[1.374964E2,1.0303932E1,1.2373021E2,8.3161163E-1,2.9603052E0,1.0398985E2,1.6335869E1,1.130623E0,3.8667297E-1,3.2760057E0,3.540304E0,2.504959E0,1.7507355E1,4.451887E0,5.716136E0,0E0,0E0,0E0,0E0,0E0,0E0,0E0,0E0,0E0,0E0,0E0,0E0,0E0,0E0,0E0,0E0],"parents":[2147483647,0,0,1,1,2,2,3,3,4,4,5,5,6,6,7,7,8,8,9,9,10,10,11,11,12,12,13,13,14,14],"right_children":[2,4,6,8,10,12,14,16,18,20,22,24,26,28,30,-1,-1,-1,-1,-1,-1,-1,-1,-1,-1,-1,-1,-1,-1,-1,-1],"split_conditions":[2.825E-1,1.5E-1,3.3333334E-1,3.9695E-1,2.4916667E-1,4E-1,1.6666667E-1,3.7515E-1,1.11666664E-1,4E-1,3.3333334E-1,4.485E-1,3.85E-1,6.666667E-1,4E-1,-3.5110284E-2,6.1046507E-2,-4.452095E-2,-3.5876613E-2,6.509386E-3,-2.5747895E-2,7.6004528E-3,-4.4524923E-2,1.5568241E-2,1.8183257E-1,2.3452107E-2,7.6670885E-2,-4.520759E-2,-1.4747421E-2,1.203918E-1,-2.0954732E-2],"split_indices":[0,0,2,3,0,4,1,3,0,4,2,3,0,2,4,0,0,0,0,0,0,0,0,0,0,0,0,0,0,0,0],"split_type":[0,0,0,0,0,0,0,0,0,0,0,0,0,0,0,0,0,0,0,0,0,0,0,0,0,0,0,0,0,0,0],"sum_hessian":[1.2626807E3,7.255256E2,5.3715515E2,3.3357434E2,3.9195126E2,3.30257E2,2.0689813E2,2.9959884E0,3.3057834E2,3.0185852E2,9.009273E1,7.443369E1,2.5582329E2,1.9394028E2,1.2957868E1,1.8116719E0,1.1843165E0,2.1756395E2,1.13014404E2,3.5277367E1,2.6658115E2,7.538196E1,1.4710767E1,1.1160479E0,7.331764E1,1.5009117E2,1.05732124E2,9.33969E1,1.0054337E2,9.372678E0,3.585189E0],"tree_param":{"num_deleted":"0","num_feature":"5","num_nodes":"31","size_leaf_vector":"1"}},{"base_weights":[2.1514459E-2,3.3658218E-1,-3.9598837E-1,5.7079166E-2,-4.784676E-2],"categories":[],"categories_nodes":[],"categories_segments":[],"categories_sizes":[],"default_left":[0,0,0,0,0],"id":23,"left_children":[1,-1,3,-1,-1],"loss_changes":[3.7406208E1,0E0,2.1759322E0,0E0,0E0],"parents":[2147483647,0,0,2,2],"right_children":[2,-1,4,-1,-1],"split_conditions":[4.1375E-1,3.3658218E-1,4.485E-1,5.7079166E-2,-4.784676E-2],"split_indices":[3,0,3,0,0],"split_type":[0,0,0,0,0],"sum_hessian":[2.483576E1,1.9726357E0,2.2863123E1,1.3318151E0,2.153131E1],"tree_param":{"num_deleted":"0","num_feature":"5","num_nodes":"5","size_leaf_vector":"1"}},{"base_weights":[-1.0120008E-3,-7.688568E-1,3.5713595E-1,-8.04864E-1,2.4393891E-1,5.131446E-1,-7.1320556E-2,-8.184668E-2,-6.4875513E-1,-7.497182E-2,5.176464E-1,6.159575E-1,4.1653416E-1,9.344637E-2,-4.1477358E-1,-8.156075E-2,5.790015E-3,6.55457E-2,-4.462402E-3,-6.985758E-2,6.209431E-2,-8.171078E-2,4.2356286E-2,4.8364174E-2,-4.5670867E-3,-2.8471872E-2,-7.237674E-2],"categories":[],"categories_nodes":[],"categories_segments":[],"categories_sizes":[],"default_left":[0,0,0,0,0,0,0,0,0,0,0,0,0,0,0,0,0,0,0,0,0,0,0,0,0,0,0],"id":24,"left_children":[1,3,5,7,9,11,13,-1,15,-1,17,19,21,23,25,-1,-1,-1,-1,-1,-1,-1,-1,-1,-1,-1,-1],"loss_changes":[1.0559023E3,4.4733765E1,1.7505408E2,1.973877E0,1.2000153E1,1.8810059E1,3.9639084E1,0E0,1.1763519E1,0E0,2.6689634E0,6.514496E0,8.953857E0,2.5737226E1,8.918404E0,0E0,0E0,0E0,0E0,0E0,0E0,0E0,0E0,0E0,0E0,0E0,0E0],"parents":[2147483647,0,0,1,1,2,2,3,3,4,4,5,5,6,6,8,8,10,10,11,11,12,12,13,13,14,14],"right_children":[2,4,6,8,10,12,14,-1,16,-1,18,20,22,24,26,-1,-1,-1,-1,-1,-1,-1,-1,-1,-1,-1,-1],"split_conditions":[2.6666668E-1,6E-1,2.85E-1,1.923077E-1,1.5384616E-1,1.6166666E-1,4.05E-1,-8.184668E-2,4E-1,-7.497182E-2,2.5833333E-1,4E-1,4E-1,5E-1,5.4E-1,-8.156075E-2,5.790015E-3,6.55457E-2,-4.462402E-3,-6.985758E-2,6.209431E-2,-8.171078E-2,4.2356286E-2,4.8364174E-2,-4.5670867E-3,-2.8471872E-2,-7.237674E-2],"split_indices":[1,4,0,1,1,0,0,0,4,0,0,4,4,3,0,0,0,0,0,0,0,0,0,0,0,0,0],"split_type":[0,0,0,0,0,0,0,0,0,0,0,0,0,0,0,0,0,0,0,0,0,0,0,0,0,0,0],"sum_hessian":[3.8376177E3,1.220278E3,2.6173396E3,1.178582E3,4.169591E1,1.91856E3,6.9877966E2,1.0802133E3,9.8368835E1,8.629302E0,3.306661E1,9.268405E2,9.917195E2,4.727245E2,2.260552E2,7.9454254E1,1.8914577E1,2.6424353E1,6.6422563E0,2.9762383E0,9.2386426E2,4.9653916E0,9.867541E2,1.235935E2,3.4913098E2,1.6044548E2,6.560973E1],"tree_param":{"num_deleted":"0","num_feature":"5","num_nodes":"27","size_leaf_vector":"1"}},{"base_weights":[-5.591106E-3,7.5782377E-1,-4.907539E-1,9.2348754E-1,6.4857423E-1,-3.8482887E-1,-5.702926E-1,8.2455176E-1,9.53614E-1,-5.192333E-2,6.6070884E-1,-4.4415483E-1,-1.7319886E-1,-5.723752E-1,4.17204E-2,9.5748596E-2,5.93835E-2,9.8015934E-2,8.321819E-2,7.2938986E-2,4.8349112E-2,-5.0956514E-2,-3.5044264E-2,-2.5693107E-2,4.025871E-2,-5.733801E-2,-3.0828154E-2,-3.403918E-2,3.6391225E-2],"categories":[],"categories_nodes":[],"categories_segments":[],"categories_sizes":[],"default_left":[0,0,0,0,0,0,0,0,0,0,0,0,0,0,0,0,0,0,0,0,0,0,0,0,0,0,0,0,0],"id":25,"left_children":[1,3,5,7,9,11,13,15,17,-1,19,21,23,25,27,-1,-1,-1,-1,-1,-1,-1,-1,-1,-1,-1,-1,-1,-1],"loss_changes":[9.562588E2,1.7558228E1,1.3080444E1,3.949585E-1,8.957642E0,8.46154E0,1.1703796E0,2.4953613E0,1.430664E-1,0E0,6.9757996E0,3.073471E0,7.361365E0,6.1157227E-2,6.141897E-1,0E0,0E0,0E0,0E0,0E0,0E0,0E0,0E0,0E0,0E0,0E0,0E0,0E0,0E0],"parents":[2147483647,0,0,1,1,2,2,3,3,4,4,5,5,6,6,7,7,8,8,10,10,11,11,12,12,13,13,14,14],"right_children":[2,4,6,8,10,12,14,16,18,-1,20,22,24,26,28,-1,-1,-1,-1,-1,-1,-1,-1,-1,-1,-1,-1,-1,-1],"split_conditions":[1.5384616E-1,2.4916667E-1,3.8505748E-1,4.7005E-1,3.3333334E-1,3.55E-1,4.2145595E-1,5.5833332E-2,1E0,-5.192333E-2,9.45E-1,3.6607143E-1,5E-1,4.117647E-1,1.85E-1,9.5748596E-2,5.93835E-2,9.8015934E-2,8.321819E-2,7.2938986E-2,4.8349112E-2,-5.0956514E-2,-3.5044264E-2,-2.5693107E-2,4.025871E-2,-5.733801E-2,-3.0828154E-2,-3.403918E-2,3.6391225E-2],"split_indices":[1,0,1,3,2,0,1,0,2,0,0,1,3,1,0,0,0,0,0,0,0,0,0,0,0,0,0,0,0],"split_type":[0,0,0,0,0,0,0,0,0,0,0,0,0,0,0,0,0,0,0,0,0,0,0,0,0,0,0,0,0],"sum_hessian":[2.5798242E3,1.00223004E3,1.5775941E3,3.9532065E2,6.069094E2,6.790769E2,8.985173E2,9.890026E1,2.9642038E2,5.81173E0,6.010977E2,5.295344E2,1.4954247E2,8.955346E2,2.9826438E0,6.074831E1,3.815195E1,2.374431E2,5.8977287E1,4.3096198E2,1.7013571E2,3.0924594E2,2.202885E2,1.3104007E2,1.8502394E1,8.909732E2,4.56139E0,1.3386033E0,1.6440406E0],"tree_param":{"num_deleted":"0","num_feature":"5","num_nodes":"29","size_leaf_vector":"1"}},{"base_weights":[2.5643795E-3,6.8252164E-1,-5.079476E-1,7.4719167E-1,4.2564403E-2,7.2118655E-2,-5.1573433E-2,9.448042E-1,5.037201E-1,-2.2705607E-1,5.6088984E-1,8.8948674E-2,2.0604931E-1,2.9785786E-2,7.71728E-2,-4.0548805E-2,1.5442929E-2,2.581108E-2,9.87739E-2],"categories":[],"categories_nodes":[],"categories_segments":[],"categories_sizes":[],"default_left":[0,0,0,0,0,0,0,0,0,0,0,0,0,0,0,0,0,0,0],"id":26,"left_children":[1,3,5,7,9,-1,-1,11,13,15,17,-1,-1,-1,-1,-1,-1,-1,-1],"loss_changes":[2.3101959E2,1.1779572E1,4.010063E0,1.1992157E1,3.9360878E0,0E0,0E0,6.9248886E0,6.2938347E0,1.3314168E0,9.8755956E-1,0E0,0E0,0E0,0E0,0E0,0E0,0E0,0E0],"parents":[2147483647,0,0,1,1,2,2,3,3,4,4,7,7,8,8,9,9,10,10],"right_children":[2,4,6,8,10,-1,-1,12,14,16,18,-1,-1,-1,-1,-1,-1,-1,-1],"split_conditions":[1.6666667E-1,4.8965E-1,4.4375E-1,6.666667E-1,7.65E-1,7.2118655E-2,-5.1573433E-2,9.75E-1,9.15E-1,4.95E-1,4.95E-1,8.8948674E-2,2.0604931E-1,2.9785786E-2,7.71728E-2,-4.0548805E-2,1.5442929E-2,2.581108E-2,9.87739E-2],"split_indices":[1,3,3,2,0,0,0,0,0,3,3,0,0,0,0,0,0,0,0],"split_type":[0,0,0,0,0,0,0,0,0,0,0,0,0,0,0,0,0,0,0],"sum_hessian":[6.635214E2,2.843951E2,3.791263E2,2.5814142E2,2.6253689E1,1.8099167E0,3.773164E2,1.4090002E2,1.1724141E2,1.763982E1,8.613869E0,1.3595636E2,4.9436617E0,6.750265E1,4.9738758E1,1.1975572E1,5.664248E0,5.9780893E0,2.6357796E0],"tree_param":{"num_deleted":"0","num_feature":"5","num_nodes":"19","size_leaf_vector":"1"}},{"base_weights":[7.817428E-3,-2.0045339E-1,2.6761156E-1,-5.275601E-1,5.3129043E-2,-4.8462383E-2,7.1033996E-1,1.0979324E-2,-5.299724E-1,-1.7103258E-1,1.7608063E-1,-1.8021968E-1,2.2150946E-1,5.127606E-1,9.0877515E-1,-3.0162463E-2,-5.346039E-2,-3.2831933E-2,-5.746556E-3,2.0976784E-2,-1.6194446E-2,-3.716165E-2,-7.111666E-3,-2.8589217E-2,3.0576123E-2,2.8123355E-2,7.321861E-2,8.3038814E-2,1.5085007E-1],"categories":[],"categories_nodes":[],"categories_segments":[],"categories_sizes":[],"default_left":[0,0,0,0,0,0,0,0,0,0,0,0,0,0,0,0,0,0,0,0,0,0,0,0,0,0,0,0,0],"id":27,"left_children":[1,3,5,7,9,11,13,-1,15,17,19,21,23,25,27,-1,-1,-1,-1,-1,-1,-1,-1,-1,-1,-1,-1,-1,-1],"loss_changes":[8.880363E1,7.559205E1,1.0222566E2,6.6996E-1,1.4198353E1,1.5229391E1,1.1462875E1,0E0,2.5816345E-1,3.242774E0,3.8198662E0,5.977557E0,6.093763E0,7.6559143E0,5.8226776E0,0E0,0E0,0E0,0E0,0E0,0E0,0E0,0E0,0E0,0E0,0E0,0E0,0E0,0E0],"parents":[2147483647,0,0,1,1,2,2,3,3,4,4,5,5,6,6,8,8,9,9,10,10,11,11,12,12,13,13,14,14],"right_children":[2,4,6,8,10,12,14,-1,16,18,20,22,24,26,28,-1,-1,-1,-1,-1,-1,-1,-1,-1,-1,-1,-1,-1,-1],"split_conditions":[4E-1,3.3333334E-1,2.525E-1,4.5625E-1,2.55E-1,1.91E-1,3.4125E-1,1.0979324E-2,4.889E-1,6.666667E-1,4E-1,1.03E-1,6E-1,8E-1,1E0,-3.0162463E-2,-5.346039E-2,-3.2831933E-2,-5.746556E-3,2.0976784E-2,-1.6194446E-2,-3.716165E-2,-7.111666E-3,-2.8589217E-2,3.0576123E-2,2.8123355E-2,7.321861E-2,8.3038814E-2,1.5085007E-1],"split_indices":[1,2,0,3,0,0,0,0,3,2,4,0,4,4,4,0,0,0,0,0,0,0,0,0,0,0,0,0,0],"split_type":[0,0,0,0,0,0,0,0,0,0,0,0,0,0,0,0,0,0,0,0,0,0,0,0,0,0,0,0,0],"sum_hessian":[1.639252E3,9.09975E2,7.29277E2,3.9690717E2,5.130678E2,4.260212E2,3.0325577E2,1.3286945E0,3.9557846E2,1.8159615E2,3.3147168E2,2.865201E2,1.395011E2,1.5375143E2,1.4950433E2,9.178463E0,3.864E2,7.534907E1,1.0624708E2,3.017764E2,2.9695274E1,1.0315381E2,1.8336632E2,1.9524223E1,1.19976875E2,7.592294E1,7.782849E1,1.343312E2,1.5173121E1],"tree_param":{"num_deleted":"0","num_feature":"5","num_nodes":"29","size_leaf_vector":"1"}},{"base_weights":[2.4593954E-3,-2.706336E-1,3.461477E-1,-4.0255022E-1,-1.6049905E-1,6.748618E-1,-2.1733047E-1,8.177637E-2,-4.0747112E-1,-2.1326329E-1,-2.1427218E-2,1.5012923E0,4.1280082E-1,-2.5902778E-1,1.401646E0,-3.6130786E-2,6.800178E-2,-4.3732744E-2,-3.4665387E-2,6.7007183E-3,-2.5208054E-2,6.4480104E-3,-4.5509458E-2,1.3568255E-2,1.5188369E-1,2.3261724E-2,6.8589665E-2,-3.4534927E-2,2.0820792E-3,1.6499847E-1,2.0365192E-2],"categories":[],"categories_nodes":[],"categories_segments":[],"categories_sizes":[],"default_left":[0,0,0,0,0,0,0,0,0,0,0,0,0,0,0,0,0,0,0,0,0,0,0,0,0,0,0,0,0,0,0],"id":28,"left_children":[1,3,5,7,9,11,13,15,17,19,21,23,25,27,29,-1,-1,-1,-1,-1,-1,-1,-1,-1,-1,-1,-1,-1,-1,-1,-1],"loss_changes":[1.1748677E2,1.0069225E1,1.0280306E2,7.8813934E-1,2.797104E0,7.5241516E1,1.4198882E1,1.3108425E0,4.1798782E-1,3.0269442E0,3.9830852E0,1.8053436E0,1.2994801E1,4.8543262E0,1.2413969E0,0E0,0E0,0E0,0E0,0E0,0E0,0E0,0E0,0E0,0E0,0E0,0E0,0E0,0E0,0E0,0E0],"parents":[2147483647,0,0,1,1,2,2,3,3,4,4,5,5,6,6,7,7,8,8,9,9,10,10,11,11,12,12,13,13,14,14],"right_children":[2,4,6,8,10,12,14,16,18,20,22,24,26,28,30,-1,-1,-1,-1,-1,-1,-1,-1,-1,-1,-1,-1,-1,-1,-1,-1],"split_conditions":[2.825E-1,1.5E-1,3.3333334E-1,3.9695E-1,2.4333334E-1,4E-1,2.6666668E-1,3.825E-1,1.11666664E-1,4E-1,3.3333334E-1,4.485E-1,3.95E-1,1E0,4E-1,-3.6130786E-2,6.800178E-2,-4.3732744E-2,-3.4665387E-2,6.7007183E-3,-2.5208054E-2,6.4480104E-3,-4.5509458E-2,1.3568255E-2,1.5188369E-1,2.3261724E-2,6.8589665E-2,-3.4534927E-2,2.0820792E-3,1.6499847E-1,2.0365192E-2],"split_indices":[0,0,2,3,0,4,1,3,0,4,2,3,0,0,4,0,0,0,0,0,0,0,0,0,0,0,0,0,0,0,0],"split_type":[0,0,0,0,0,0,0,0,0,0,0,0,0,0,0,0,0,0,0,0,0,0,0,0,0,0,0,0,0,0,0],"sum_hessian":[1.2497407E3,6.9650995E2,5.532307E2,3.1570758E2,3.8080234E2,3.492768E2,2.0395393E2,3.0183408E0,3.1268924E2,2.7567645E2,1.0512588E2,8.295203E1,2.6632477E2,1.9965184E2,4.3020988E0,1.9615669E0,1.0567739E0,2.0557693E2,1.0711231E2,3.3447887E1,2.4222856E2,8.845475E1,1.6671127E1,1.1629746E0,8.178905E1,1.6157341E2,1.04751366E2,1.5240672E2,4.7245106E1,3.2509105E0,1.0511883E0],"tree_param":{"num_deleted":"0","num_feature":"5","num_nodes":"31","size_leaf_vector":"1"}},{"base_weights":[2.7896285E-2,2.5529878E0,-3.9084238E-1,1.1786711E-2,3.9697558E-1,5.332E-2,-4.771835E-2],"categories":[],"categories_nodes":[],"categories_segments":[],"categories_sizes":[],"default_left":[0,0,0,0,0,0,0],"id":29,"left_children":[1,3,5,-1,-1,-1,-1],"loss_changes":[2.7971207E1,1.2509005E1,2.069404E0,0E0,0E0,0E0,0E0],"parents":[2147483647,0,0,1,1,2,2],"right_children":[2,4,6,-1,-1,-1,-1],"split_conditions":[4.1375E-1,1E0,4.485E-1,1.1786711E-2,3.9697558E-1,5.332E-2,-4.771835E-2],"split_indices":[3,2,3,0,0,0,0],"split_type":[0,0,0,0,0,0,0],"sum_hessian":[2.451029E1,2.761422E0,2.1748869E1,1.4140931E0,1.3473288E0,1.416257E0,2.0332611E1],"tree_param":{"num_deleted":"0","num_feature":"5","num_nodes":"7","size_leaf_vector":"1"}},{"base_weights":[-2.9064957E-3,-7.327769E-1,3.3421278E-1,-7.669527E-1,2.277785E-1,4.8447716E-1,-6.272493E-2,-7.79777E-2,-6.202995E-1,-7.133554E-2,4.8827353E-1,5.6073785E-1,3.6099398E-1,1.1176452E-1,-3.464344E-1,-7.796868E-2,3.9524985E-3,6.254984E-2,-5.2133896E-3,-7.233618E-2,5.6580573E-2,4.9784865E-2,2.6913464E-2,4.64217E-2,-9.0274774E-4,-2.3580188E-2,-6.855883E-2],"categories":[],"categories_nodes":[],"categories_segments":[],"categories_sizes":[],"default_left":[0,0,0,0,0,0,0,0,0,0,0,0,0,0,0,0,0,0,0,0,0,0,0,0,0,0,0],"id":30,"left_children":[1,3,5,7,9,11,13,-1,15,-1,17,19,21,23,25,-1,-1,-1,-1,-1,-1,-1,-1,-1,-1,-1,-1],"loss_changes":[9.2109973E2,3.900232E1,1.5276666E2,1.6647339E0,1.0499732E1,1.7290955E1,3.4893444E1,0E0,1.0206005E1,0E0,2.4816103E0,7.8710327E0,8.817406E0,1.8596344E1,9.907845E0,0E0,0E0,0E0,0E0,0E0,0E0,0E0,0E0,0E0,0E0,0E0,0E0],"parents":[2147483647,0,0,1,1,2,2,3,3,4,4,5,5,6,6,8,8,10,10,11,11,12,12,13,13,14,14],"right_children":[2,4,6,8,10,12,14,-1,16,-1,18,20,22,24,26,-1,-1,-1,-1,-1,-1,-1,-1,-1,-1,-1,-1],"split_conditions":[2.6666668E-1,6E-1,2.825E-1,1.923077E-1,1.5384616E-1,1.91E-1,3.85E-1,-7.79777E-2,4E-1,-7.133554E-2,2.5833333E-1,4E-1,3.9800996E-1,5E-1,5.4E-1,-7.796868E-2,3.9524985E-3,6.254984E-2,-5.2133896E-3,-7.233618E-2,5.6580573E-2,4.9784865E-2,2.6913464E-2,4.64217E-2,-9.0274774E-4,-2.3580188E-2,-6.855883E-2],"split_indices":[1,4,0,1,1,0,0,0,4,0,0,4,1,3,0,0,0,0,0,0,0,0,0,0,0,0,0],"split_type":[0,0,0,0,0,0,0,0,0,0,0,0,0,0,0,0,0,0,0,0,0,0,0,0,0,0,0],"sum_hessian":[3.7415E3,1.1817698E3,2.5597302E3,1.1413625E3,4.0407204E1,1.8566558E3,7.030745E2,1.0456105E3,9.5752106E1,8.382801E0,3.2024403E1,1.1456096E3,7.110462E2,4.357078E2,2.673667E2,7.69761E1,1.8776005E1,2.5413689E1,6.610715E0,3.9463437E0,1.1416632E3,2.8380527E2,4.2724094E2,1.10485374E2,3.2522244E2,2.0288164E2,6.448506E1],"tree_param":{"num_deleted":"0","num_feature":"5","num_nodes":"27","size_leaf_vector":"1"}},{"base_weights":[-6.764701E-3,6.7312235E-1,-4.8054487E-1,8.208711E-1,5.7611144E-1,-3.7402067E-1,-5.6171143E-1,8.234719E-1,2.4732302E-3,6.335659E-1,4.252554E-1,-4.394592E-1,-2.026931E-1,-5.639069E-1,5.354122E-2,7.733589E-2,8.759358E-2,-1.9504737E-2,6.481405E-2,2.1287631E-2,6.015571E-2,-4.5585547E-2,-1.1440425E-2,-2.8740285E-2,1.9582184E-2,-5.649668E-2,-2.932441E-2,-3.2962568E-2,3.6264077E-2],"categories":[],"categories_nodes":[],"categories_segments":[],"categories_sizes":[],"default_left":[0,0,0,0,0,0,0,0,0,0,0,0,0,0,0,0,0,0,0,0,0,0,0,0,0,0,0,0,0],"id":31,"left_children":[1,3,5,7,9,11,13,15,-1,17,19,21,23,25,27,-1,-1,-1,-1,-1,-1,-1,-1,-1,-1,-1,-1,-1,-1],"loss_changes":[8.1661194E2,1.4449707E1,1.270752E1,8.291626E-1,5.2068176E0,7.188019E0,1.1728516E0,3.977356E-1,0E0,5.627533E0,6.5107574E0,2.4465408E0,6.174982E0,7.6171875E-2,5.839509E-1,0E0,0E0,0E0,0E0,0E0,0E0,0E0,0E0,0E0,0E0,0E0,0E0,0E0,0E0],"parents":[2147483647,0,0,1,1,2,2,3,3,4,4,5,5,6,6,7,7,9,9,10,10,11,11,12,12,13,13,14,14],"right_children":[2,4,6,8,10,12,14,16,-1,18,20,22,24,26,28,-1,-1,-1,-1,-1,-1,-1,-1,-1,-1,-1,-1,-1,-1],"split_conditions":[1.6700819E-1,2.4916667E-1,3.8505748E-1,1.25E-1,9.45E-1,3.25E-1,4.2145595E-1,4.8835E-1,2.4732302E-3,3.3333334E-1,1E0,3.846154E-1,5E-1,4.117647E-1,1.85E-1,7.733589E-2,8.759358E-2,-1.9504737E-2,6.481405E-2,2.1287631E-2,6.015571E-2,-4.5585547E-2,-1.1440425E-2,-2.8740285E-2,1.9582184E-2,-5.649668E-2,-2.932441E-2,-3.2962568E-2,3.6264077E-2],"split_indices":[1,0,1,1,0,0,1,3,0,2,2,1,3,1,0,0,0,0,0,0,0,0,0,0,0,0,0,0,0],"split_type":[0,0,0,0,0,0,0,0,0,0,0,0,0,0,0,0,0,0,0,0,0,0,0,0,0,0,0,0,0],"sum_hessian":[2.5331365E3,1.0401184E3,1.4930181E3,4.0929523E2,6.308231E2,6.4807837E2,8.449397E2,4.0792834E2,1.3669049E0,4.5451752E2,1.7630559E2,4.6782697E2,1.802514E2,8.420185E2,2.9212093E0,2.1668922E2,1.912391E2,7.6423254E0,4.468752E2,8.097173E1,9.533386E1,4.449792E2,2.2847801E1,1.488831E2,3.1368298E1,8.3765094E2,4.3675704E0,1.2746804E0,1.646529E0],"tree_param":{"num_deleted":"0","num_feature":"5","num_nodes":"29","size_leaf_vector":"1"}},{"base_weights":[5.0627054E-3,6.06461E-1,-5.062912E-1,6.6039586E-1,3.8979065E-2,6.498491E-2,-5.1454615E-2,8.241394E-1,4.521627E-1,-2.2160937E-1,5.092944E-1,1.1169529E-1,6.863939E-2,2.745629E-2,6.724136E-2,-4.007484E-2,1.4328735E-2,8.420156E-2,1.7982006E-2],"categories":[],"categories_nodes":[],"categories_segments":[],"categories_sizes":[],"default_left":[0,0,0,0,0,0,0,0,0,0,0,0,0,0,0,0,0,0,0],"id":32,"left_children":[1,3,5,7,9,-1,-1,11,13,15,17,-1,-1,-1,-1,-1,-1,-1,-1],"loss_changes":[2.030283E2,9.259903E0,3.7397842E0,9.071777E0,3.4702756E0,0E0,0E0,5.438385E0,4.6715164E0,1.2552273E0,9.5250034E-1,0E0,0E0,0E0,0E0,0E0,0E0,0E0,0E0],"parents":[2147483647,0,0,1,1,2,2,3,3,4,4,7,7,8,8,9,9,10,10],"right_children":[2,4,6,8,10,-1,-1,12,14,16,18,-1,-1,-1,-1,-1,-1,-1,-1],"split_conditions":[1.6666667E-1,4.8965E-1,4.4375E-1,6.666667E-1,7.65E-1,6.498491E-2,-5.1454615E-2,4.875E-1,9.15E-1,4.95E-1,8.95E-1,1.1169529E-1,6.863939E-2,2.745629E-2,6.724136E-2,-4.007484E-2,1.4328735E-2,8.420156E-2,1.7982006E-2],"split_indices":[1,3,3,2,0,0,0,3,0,3,0,0,0,0,0,0,0,0,0],"split_type":[0,0,0,0,0,0,0,0,0,0,0,0,0,0,0,0,0,0,0],"sum_hessian":[6.5819745E2,3.0238245E2,3.55815E2,2.7598813E2,2.6394304E1,1.9715418E0,3.5384348E2,1.528428E2,1.2314532E2,1.732424E1,9.0700655E0,4.662359E1,1.0621922E2,6.94172E1,5.372812E1,1.1553848E1,5.770392E0,3.7387936E0,5.331271E0],"tree_param":{"num_deleted":"0","num_feature":"5","num_nodes":"19","size_leaf_vector":"1"}},{"base_weights":[1.1252654E-2,-1.9192344E-1,2.5742146E-1,-5.230242E-1,4.864741E-2,-3.4641217E-2,6.376178E-1,2.1521268E-2,-5.2558565E-1,-2.0693745E-1,1.4287223E-1,-3.4486434E-1,7.17815E-2,5.2818227E-1,9.021715E-1,-3.0338675E-2,-5.3041548E-2,-4.1528538E-2,-1.0101077E-2,2.9911522E-3,2.6591508E-2,-4.1106895E-2,-2.4309296E-2,-4.9412367E-3,2.1843996E-2,1.20558655E-2,6.370142E-2,6.877243E-2,1.0693274E-1],"categories":[],"categories_nodes":[],"categories_segments":[],"categories_sizes":[],"default_left":[0,0,0,0,0,0,0,0,0,0,0,0,0,0,0,0,0,0,0,0,0,0,0,0,0,0,0,0,0],"id":33,"left_children":[1,3,5,7,9,11,13,-1,15,17,19,21,23,25,27,-1,-1,-1,-1,-1,-1,-1,-1,-1,-1,-1,-1,-1,-1],"loss_changes":[8.1333664E1,7.098918E1,8.166716E1,8.222122E-1,1.2478055E1,1.3784653E1,8.773178E0,0E0,2.40448E-1,3.039936E0,5.2495904E0,6.185112E-1,5.541217E0,1.0056171E1,2.5651474E0,0E0,0E0,0E0,0E0,0E0,0E0,0E0,0E0,0E0,0E0,0E0,0E0,0E0,0E0],"parents":[2147483647,0,0,1,1,2,2,3,3,4,4,5,5,6,6,8,8,9,9,10,10,11,11,12,12,13,13,14,14],"right_children":[2,4,6,8,10,12,14,-1,16,18,20,22,24,26,28,-1,-1,-1,-1,-1,-1,-1,-1,-1,-1,-1,-1,-1,-1],"split_conditions":[4E-1,3.3333334E-1,2.525E-1,4.485E-1,1.6916667E-1,1.075E-1,4E-1,2.1521268E-2,4.889E-1,6.666667E-1,6.666667E-1,8E-2,1.91E-1,6E-1,6E-1,-3.0338675E-2,-5.3041548E-2,-4.1528538E-2,-1.0101077E-2,2.9911522E-3,2.6591508E-2,-4.1106895E-2,-2.4309296E-2,-4.9412367E-3,2.1843996E-2,1.20558655E-2,6.370142E-2,6.877243E-2,1.0693274E-1],"split_indices":[1,2,0,3,0,0,0,0,3,2,2,0,0,4,4,0,0,0,0,0,0,0,0,0,0,0,0,0,0],"split_type":[0,0,0,0,0,0,0,0,0,0,0,0,0,0,0,0,0,0,0,0,0,0,0,0,0,0,0,0,0],"sum_hessian":[1.6241775E3,8.89909E2,7.3426843E2,3.7399744E2,5.1591156E2,4.1577985E2,3.1848862E2,1.006104E0,3.7299133E2,1.3864384E2,3.7726773E2,1.05629234E2,3.101506E2,2.2741313E2,9.107548E1,9.29265E0,3.6369867E2,4.5745735E1,9.289811E1,1.9734045E2,1.7992728E2,6.2156113E1,4.347312E1,1.7018129E2,1.3996931E2,4.836662E1,1.7904652E2,4.2134563E1,4.8940914E1],"tree_param":{"num_deleted":"0","num_feature":"5","num_nodes":"29","size_leaf_vector":"1"}},{"base_weights":[4.4437284E-3,-2.9416803E-1,2.7767384E-1,-3.926732E-1,-1.922167E-1,5.24294E-1,-2.2496569E-1,8.027942E-2,-3.9775866E-1,2.8357508E-2,-2.2463858E-1,1.3308353E0,3.0509374E-1,-2.9329562E-1,6.61622E-1,-3.648068E-2,6.984974E-2,-4.2918626E-2,-3.3404034E-2,-3.7315007E-2,1.8570662E-1,-3.4215372E-2,-1.9214116E-2,1.1941477E-2,1.3454993E-1,1.9268087E-1,2.7231414E-2,-4.5158353E-2,-1.3949746E-2,9.3814395E-2,-2.0881781E-2],"categories":[],"categories_nodes":[],"categories_segments":[],"categories_sizes":[],"default_left":[0,0,0,0,0,0,0,0,0,0,0,0,0,0,0,0,0,0,0,0,0,0,0,0,0,0,0,0,0,0,0],"id":34,"left_children":[1,3,5,7,9,11,13,15,17,19,21,23,25,27,29,-1,-1,-1,-1,-1,-1,-1,-1,-1,-1,-1,-1,-1,-1,-1,-1],"loss_changes":[1.0089559E2,5.858513E0,8.016537E1,7.524185E-1,2.0968542E0,7.6233864E1,1.3112739E1,1.3606368E0,4.5046234E-1,2.8850212E1,9.079647E-1,1.4796906E0,1.7664097E1,4.7738E0,3.942645E0,0E0,0E0,0E0,0E0,0E0,0E0,0E0,0E0,0E0,0E0,0E0,0E0,0E0,0E0,0E0,0E0],"parents":[2147483647,0,0,1,1,2,2,3,3,4,4,5,5,6,6,7,7,8,8,9,9,10,10,11,11,12,12,13,13,14,14],"right_children":[2,4,6,8,10,12,14,16,18,20,22,24,26,28,30,-1,-1,-1,-1,-1,-1,-1,-1,-1,-1,-1,-1,-1,-1,-1,-1],"split_conditions":[2.5125E-1,1.5E-1,3.3333334E-1,3.9695E-1,4E-1,4E-1,1.6666667E-1,1.4166667E-2,1.11666664E-1,1.923077E-1,5E-1,4.485E-1,2.2222222E-1,6.666667E-1,4E-1,-3.648068E-2,6.984974E-2,-4.2918626E-2,-3.3404034E-2,-3.7315007E-2,1.8570662E-1,-3.4215372E-2,-1.9214116E-2,1.1941477E-2,1.3454993E-1,1.9268087E-1,2.7231414E-2,-4.5158353E-2,-1.3949746E-2,9.3814395E-2,-2.0881781E-2],"split_indices":[0,0,2,3,4,4,1,0,0,1,3,3,1,2,4,0,0,0,0,0,0,0,0,0,0,0,0,0,0,0,0],"split_type":[0,0,0,0,0,0,0,0,0,0,0,0,0,0,0,0,0,0,0,0,0,0,0,0,0,0,0,0,0,0,0],"sum_hessian":[1.2346202E3,5.898737E2,6.4474646E2,2.9855698E2,2.913167E2,4.324981E2,2.1224835E2,3.0188224E0,2.9553818E2,3.7348816E1,2.5396791E2,9.134082E1,3.411573E2,1.9768204E2,1.4566307E1,1.9935043E0,1.0253183E0,1.9407802E2,1.0146015E2,3.1277533E1,6.0712833E0,5.2953197E1,2.0101471E2,1.2017893E0,9.013903E1,5.614386E0,3.355429E2,9.64649E1,1.0121715E2,1.0995475E1,3.5708323E0],"tree_param":{"num_deleted":"0","num_feature":"5","num_nodes":"31","size_leaf_vector":"1"}},{"base_weights":[3.6029156E-2,1.7738755E0,-4.7581296E-2,7.7346206E-1,2.7408564E-1,1.2280561E-1,2.5810513E-1,-2.838484E-2,7.436615E-2],"categories":[],"categories_nodes":[],"categories_segments":[],"categories_sizes":[],"default_left":[0,0,0,0,0,0,0,0,0],"id":35,"left_children":[1,3,-1,5,-1,-1,7,-1,-1],"loss_changes":[2.3176397E1,3.6104984E0,0E0,6.915164E-1,0E0,0E0,1.0751606E0,0E0,0E0],"parents":[2147483647,0,0,1,1,3,3,6,6],"right_children":[2,4,-1,6,-1,-1,8,-1,-1],"split_conditions":[4.485E-1,1E0,-4.7581296E-2,3.875E-1,2.7408564E-1,1.2280561E-1,4.1925E-1,-2.838484E-2,7.436615E-2],"split_indices":[3,0,0,3,0,0,3,0,0],"split_type":[0,0,0,0,0,0,0,0,0],"sum_hessian":[2.410657E1,4.9236703E0,1.91829E1,3.304644E0,1.6190261E0,1.021054E0,2.2835903E0,1.2754328E0,1.0081574E0],"tree_param":{"num_deleted":"0","num_feature":"5","num_nodes":"9","size_leaf_vector":"1"}},{"base_weights":[-4.9643894E-3,-7.023929E-1,3.1295297E-1,-7.3515946E-1,2.1482879E-1,4.319632E-1,-1.3917369E-1,-7.4768215E-2,-5.9253806E-1,-6.819088E-2,4.6355417E-1,5.24376E-1,2.9117942E-1,-4.684954E-2,-5.888258E-1,-7.465718E-2,2.546395E-3,5.9926122E-2,-4.9953624E-3,-6.898368E-2,5.2891888E-2,3.9563604E-2,1.4558676E-2,3.3049762E-2,-2.0941617E-2,-4.4297185E-2,-6.848499E-2],"categories":[],"categories_nodes":[],"categories_segments":[],"categories_sizes":[],"default_left":[0,0,0,0,0,0,0,0,0,0,0,0,0,0,0,0,0,0,0,0,0,0,0,0,0,0,0],"id":36,"left_children":[1,3,5,7,9,11,13,-1,15,-1,17,19,21,23,25,-1,-1,-1,-1,-1,-1,-1,-1,-1,-1,-1,-1],"loss_changes":[8.0723694E2,3.4418274E1,1.3462106E2,1.5231323E0,9.258415E0,2.5606537E1,2.1636513E1,0E0,8.93639E0,0E0,2.2586699E0,6.951355E0,1.1909149E1,2.6695215E1,9.404564E-1,0E0,0E0,0E0,0E0,0E0,0E0,0E0,0E0,0E0,0E0,0E0,0E0],"parents":[2147483647,0,0,1,1,2,2,3,3,4,4,5,5,6,6,8,8,10,10,11,11,12,12,13,13,14,14],"right_children":[2,4,6,8,10,12,14,-1,16,-1,18,20,22,24,26,-1,-1,-1,-1,-1,-1,-1,-1,-1,-1,-1,-1],"split_conditions":[2.6666668E-1,6E-1,3.15E-1,1.923077E-1,1.5384616E-1,2.0083334E-1,5E-1,-7.4768215E-2,4E-1,-6.819088E-2,2.5833333E-1,4E-1,8E-1,5E-1,5.7E-1,-7.465718E-2,2.546395E-3,5.9926122E-2,-4.9953624E-3,-6.898368E-2,5.2891888E-2,3.9563604E-2,1.4558676E-2,3.3049762E-2,-2.0941617E-2,-4.4297185E-2,-6.848499E-2],"split_indices":[1,4,0,1,1,0,0,0,4,0,0,4,4,3,0,0,0,0,0,0,0,0,0,0,0,0,0],"split_type":[0,0,0,0,0,0,0,0,0,0,0,0,0,0,0,0,0,0,0,0,0,0,0,0,0,0,0],"sum_hessian":[3.6387273E3,1.1389519E3,2.4997754E3,1.0998594E3,3.909262E1,1.9789219E3,5.208536E2,1.0071826E3,9.267673E1,8.110383E0,3.0982237E1,1.1930558E3,7.8586615E2,4.3304373E2,8.780987E1,7.401968E1,1.8657047E1,2.4373852E1,6.608384E0,3.8848093E0,1.1891709E3,4.5657526E2,3.2929086E2,1.300773E2,3.0296643E2,3.7088364E1,5.0721508E1],"tree_param":{"num_deleted":"0","num_feature":"5","num_nodes":"27","size_leaf_vector":"1"}},{"base_weights":[-7.954816E-3,6.0472506E-1,-4.691193E-1,7.427183E-1,5.184307E-1,-3.597149E-1,-5.539691E-1,3.9700603E-1,7.4991995E-1,5.7015526E-1,3.795211E-1,-4.5001832E-1,-2.3742102E-1,-5.562831E-1,6.470813E-2,6.363253E-2,-1.1901504E-2,7.513007E-2,1.1808862E-2,-1.859038E-2,5.825854E-2,1.840253E-2,5.3993016E-2,-5.164603E-2,-3.663799E-2,-3.2062225E-2,-1.2690054E-3,-5.5740178E-2,-2.7893482E-2,-3.187688E-2,3.5999198E-2],"categories":[],"categories_nodes":[],"categories_segments":[],"categories_sizes":[],"default_left":[0,0,0,0,0,0,0,0,0,0,0,0,0,0,0,0,0,0,0,0,0,0,0,0,0,0,0,0,0,0,0],"id":37,"left_children":[1,3,5,7,9,11,13,15,17,19,21,23,25,27,29,-1,-1,-1,-1,-1,-1,-1,-1,-1,-1,-1,-1,-1,-1,-1,-1],"loss_changes":[7.0171216E2,1.2315643E1,1.2954285E1,7.182007E-1,4.5222626E0,6.759804E0,1.1758423E0,1.366453E0,2.5898743E-1,4.605957E0,5.606039E0,1.7921829E0,4.973777E0,9.068298E-2,5.52143E-1,0E0,0E0,0E0,0E0,0E0,0E0,0E0,0E0,0E0,0E0,0E0,0E0,0E0,0E0,0E0,0E0],"parents":[2147483647,0,0,1,1,2,2,3,3,4,4,5,5,6,6,7,7,8,8,9,9,10,10,11,11,12,12,13,13,14,14],"right_children":[2,4,6,8,10,12,14,16,18,20,22,24,26,28,30,-1,-1,-1,-1,-1,-1,-1,-1,-1,-1,-1,-1,-1,-1,-1,-1],"split_conditions":[1.6700819E-1,2.3875E-1,3.8505748E-1,3.9695E-1,9.45E-1,2.5625E-1,4.2145595E-1,1.4166667E-2,1.25E-1,3.3333334E-1,1E0,3.6607143E-1,5E-1,4.117647E-1,1.85E-1,6.363253E-2,-1.1901504E-2,7.513007E-2,1.1808862E-2,-1.859038E-2,5.825854E-2,1.840253E-2,5.3993016E-2,-5.164603E-2,-3.663799E-2,-3.2062225E-2,-1.2690054E-3,-5.5740178E-2,-2.7893482E-2,-3.187688E-2,3.5999198E-2],"split_indices":[1,0,1,3,0,0,1,0,1,2,2,1,3,1,0,0,0,0,0,0,0,0,0,0,0,0,0,0,0,0,0],"split_type":[0,0,0,0,0,0,0,0,0,0,0,0,0,0,0,0,0,0,0,0,0,0,0,0,0,0,0,0,0,0,0],"sum_hessian":[2.4815266E3,1.0655626E3,1.415964E3,4.0704706E2,6.5851556E2,6.207783E2,7.951857E2,9.451708E0,3.9759537E2,4.7757916E2,1.8093642E2,3.5555328E2,2.6522504E2,7.9232306E2,2.86268E0,6.2977915E0,3.153916E0,3.9653976E2,1.055603E0,7.4989953E0,4.7008014E2,8.251721E1,9.8419205E1,1.9526262E2,1.6029066E2,1.932516E2,7.197343E1,7.881344E2,4.1886106E0,1.2107626E0,1.6519173E0],"tree_param":{"num_deleted":"0","num_feature":"5","num_nodes":"31","size_leaf_vector":"1"}},{"base_weights":[7.6672565E-3,5.4403555E-1,-5.0466925E-1,5.896357E-1,3.7045658E-2,5.9097624E-1,-5.1342275E-2,7.260608E-1,4.1091073E-1,-2.1488786E-1,4.639119E-1,-2.8201515E-2,1.17949024E-1,6.708305E-2,1.3230108E-1,2.5613388E-2,5.9512652E-2,-3.955486E-2,1.3694367E-2,2.032012E-2,8.3103E-2],"categories":[],"categories_nodes":[],"categories_segments":[],"categories_sizes":[],"default_left":[0,0,0,0,0,0,0,0,0,0,0,0,0,0,0,0,0,0,0,0,0],"id":38,"left_children":[1,3,5,7,9,11,-1,13,15,17,19,-1,-1,-1,-1,-1,-1,-1,-1,-1,-1],"loss_changes":[1.798678E2,7.370697E0,3.514145E0,6.8532715E0,3.052159E0,1.9347254E0,0E0,4.553627E0,3.533472E0,1.1949867E0,8.3668447E-1,0E0,0E0,0E0,0E0,0E0,0E0,0E0,0E0,0E0,0E0],"parents":[2147483647,0,0,1,1,2,2,3,3,4,4,5,5,7,7,8,8,9,9,10,10],"right_children":[2,4,6,8,10,12,-1,14,16,18,20,-1,-1,-1,-1,-1,-1,-1,-1,-1,-1],"split_conditions":[1.6666667E-1,4.8965E-1,4.4375E-1,6.666667E-1,7.65E-1,3.675E-1,-5.1342275E-2,9.55E-1,9.15E-1,4.95E-1,4.95E-1,-2.8201515E-2,1.17949024E-1,6.708305E-2,1.3230108E-1,2.5613388E-2,5.9512652E-2,-3.955486E-2,1.3694367E-2,2.032012E-2,8.3103E-2],"split_indices":[1,3,3,2,0,0,0,0,0,3,3,0,0,0,0,0,0,0,0,0,0],"split_type":[0,0,0,0,0,0,0,0,0,0,0,0,0,0,0,0,0,0,0,0,0],"sum_hessian":[6.5253906E2,3.1876263E2,3.3377643E2,2.923085E2,2.645413E1,2.1183193E0,3.316581E2,1.6403456E2,1.2827394E2,1.6948082E1,9.506049E0,1.0627121E0,1.0556072E0,1.5208711E2,1.1947457E1,7.100578E1,5.7268154E1,1.111594E1,5.8321414E0,6.4669895E0,3.0390599E0],"tree_param":{"num_deleted":"0","num_feature":"5","num_nodes":"21","size_leaf_vector":"1"}},{"base_weights":[1.4665365E-2,-1.8270597E-1,2.465706E-1,-5.1845783E-1,4.5813207E-2,-1.1849599E-1,4.9000624E-1,1.9750338E-2,-5.211551E-1,-1.9744302E-1,1.3244456E-1,-3.4457454E-1,-1.4957987E-2,3.2304928E-1,6.9232184E-1,-2.9087206E-2,-5.2628268E-2,-4.0667456E-2,-9.408566E-3,2.8063392E-3,2.4383321E-2,-3.9971393E-2,-2.4000753E-2,-2.4913669E-2,8.0044026E-4,-6.3622007E-3,4.034578E-2,4.594085E-2,8.086937E-2],"categories":[],"categories_nodes":[],"categories_segments":[],"categories_sizes":[],"default_left":[0,0,0,0,0,0,0,0,0,0,0,0,0,0,0,0,0,0,0,0,0,0,0,0,0,0,0,0,0],"id":39,"left_children":[1,3,5,7,9,11,13,-1,15,17,19,21,23,25,27,-1,-1,-1,-1,-1,-1,-1,-1,-1,-1,-1,-1,-1,-1],"loss_changes":[7.370377E1,6.6770615E1,6.585147E1,7.8344727E-1,1.0953874E1,6.946473E0,1.4785645E1,0E0,2.617798E-1,2.9153051E0,4.4459343E0,4.4167042E-1,1.1029384E0,7.6532135E0,5.0501175E0,0E0,0E0,0E0,0E0,0E0,0E0,0E0,0E0,0E0,0E0,0E0,0E0,0E0,0E0],"parents":[2147483647,0,0,1,1,2,2,3,3,4,4,5,5,6,6,8,8,9,9,10,10,11,11,12,12,13,13,14,14],"right_children":[2,4,6,8,10,12,14,-1,16,18,20,22,24,26,28,-1,-1,-1,-1,-1,-1,-1,-1,-1,-1,-1,-1,-1,-1],"split_conditions":[4E-1,3.3333334E-1,2.05E-1,4.485E-1,1.6916667E-1,1.03E-1,3.18E-1,1.9750338E-2,4.889E-1,6.666667E-1,6.666667E-1,8E-2,6E-1,6E-1,6E-1,-2.9087206E-2,-5.2628268E-2,-4.0667456E-2,-9.408566E-3,2.8063392E-3,2.4383321E-2,-3.9971393E-2,-2.4000753E-2,-2.4913669E-2,8.0044026E-4,-6.3622007E-3,4.034578E-2,4.594085E-2,8.086937E-2],"split_indices":[1,2,0,3,0,0,0,0,3,2,2,0,4,4,4,0,0,0,0,0,0,0,0,0,0,0,0,0,0],"split_type":[0,0,0,0,0,0,0,0,0,0,0,0,0,0,0,0,0,0,0,0,0,0,0,0,0,0,0,0,0],"sum_hessian":[1.6082722E3,8.6894086E2,7.3933136E2,3.513909E2,5.1755E2,2.959801E2,4.433513E2,1.0477867E0,3.503431E2,1.3557724E2,3.8197275E2,9.2240974E1,2.0373912E2,2.4432425E2,1.9902704E2,8.888248E0,3.4145486E2,4.3858208E1,9.171903E1,1.9783527E2,1.8413748E2,5.8546288E1,3.3694687E1,1.7314085E1,1.8642503E2,4.209675E1,2.022275E2,6.795856E1,1.3106848E2],"tree_param":{"num_deleted":"0","num_feature":"5","num_nodes":"29","size_leaf_vector":"1"}},{"base_weights":[6.6412017E-3,-2.818267E-1,2.5559238E-1,-3.827091E-1,-1.7946574E-1,4.7734055E-1,-2.1892324E-1,-2.0492175E-1,-3.9874318E-1,2.9578187E-2,-2.109668E-1,1.1748883E0,2.82493E-1,-2.8569993E-1,5.7880837E-1,-3.499148E-2,1.3444E-1,-4.4403605E-2,-3.152851E-2,-3.6409665E-2,1.5855898E-1,-3.303699E-2,-1.7843423E-2,1.0496973E-2,1.1875885E-1,1.3356063E-2,5.478558E-2,-4.4611942E-2,-1.34411855E-2,2.53274E-2,1.254355E-1],"categories":[],"categories_nodes":[],"categories_segments":[],"categories_sizes":[],"default_left":[0,0,0,0,0,0,0,0,0,0,0,0,0,0,0,0,0,0,0,0,0,0,0,0,0,0,0,0,0,0,0],"id":40,"left_children":[1,3,5,7,9,11,13,15,17,19,21,23,25,27,29,-1,-1,-1,-1,-1,-1,-1,-1,-1,-1,-1,-1,-1,-1,-1,-1],"loss_changes":[8.757442E1,5.764759E0,6.897786E1,7.2680664E-1,1.8650856E0,6.0340652E1,1.1306631E1,6.2033443E0,8.3942795E-1,2.3758907E1,8.944473E-1,1.1954498E0,1.3769012E1,4.640129E0,3.3076997E0,0E0,0E0,0E0,0E0,0E0,0E0,0E0,0E0,0E0,0E0,0E0,0E0,0E0,0E0,0E0,0E0],"parents":[2147483647,0,0,1,1,2,2,3,3,4,4,5,5,6,6,7,7,8,8,9,9,10,10,11,11,12,12,13,13,14,14],"right_children":[2,4,6,8,10,12,14,16,18,20,22,24,26,28,30,-1,-1,-1,-1,-1,-1,-1,-1,-1,-1,-1,-1,-1,-1,-1,-1],"split_conditions":[2.5125E-1,1.5E-1,3.3333334E-1,4.7005E-1,4E-1,4E-1,1.6666667E-1,1.25E-1,1.11666664E-1,1.923077E-1,5E-1,4.485E-1,3.85E-1,6.666667E-1,2.8846154E-1,-3.499148E-2,1.3444E-1,-4.4403605E-2,-3.152851E-2,-3.6409665E-2,1.5855898E-1,-3.303699E-2,-1.7843423E-2,1.0496973E-2,1.1875885E-1,1.3356063E-2,5.478558E-2,-4.4611942E-2,-1.34411855E-2,2.53274E-2,1.254355E-1],"split_indices":[0,0,2,3,4,4,1,1,0,1,3,3,0,2,1,0,0,0,0,0,0,0,0,0,0,0,0,0,0,0,0],"split_type":[0,0,0,0,0,0,0,0,0,0,0,0,0,0,0,0,0,0,0,0,0,0,0,0,0,0,0,0,0,0,0],"sum_hessian":[1.2174514E3,5.6390454E2,6.535468E2,2.826241E2,2.8128046E2,4.4539923E2,2.0814761E2,2.4520374E1,2.5810373E2,3.684364E1,2.4443681E2,9.6151245E1,3.49248E2,1.9266208E2,1.54855385E1,2.3129915E1,1.3904597E0,1.645057E2,9.359802E1,3.001562E1,6.8280206E0,5.0378693E1,1.9405812E2,1.2366476E0,9.49146E1,2.2466191E2,1.24586075E2,9.256318E1,1.0009889E2,1.1377724E1,4.1078143E0],"tree_param":{"num_deleted":"0","num_feature":"5","num_nodes":"31","size_leaf_vector":"1"}},{"base_weights":[4.5141798E-2,1.5438346E0,-4.7435325E-2,2.3282976E-1,6.944734E-1,-3.1611715E-2,1.3843736E-1],"categories":[],"categories_nodes":[],"categories_segments":[],"categories_sizes":[],"default_left":[0,0,0,0,0,0,0],"id":41,"left_children":[1,3,-1,-1,5,-1,-1],"loss_changes":[1.9939253E1,2.7707205E0,0E0,0E0,3.6356173E0,0E0,0E0],"parents":[2147483647,0,0,1,1,4,4],"right_children":[2,4,-1,-1,6,-1,-1],"split_conditions":[4.485E-1,3.8495E-1,-4.7435325E-2,2.3282976E-1,7.05E-1,-3.1611715E-2,1.3843736E-1],"split_indices":[3,3,0,0,0,0,0],"split_type":[0,0,0,0,0,0,0],"sum_hessian":[2.3669704E1,5.585186E0,1.8084518E1,1.9983201E0,3.586866E0,1.6750237E0,1.9118422E0],"tree_param":{"num_deleted":"0","num_feature":"5","num_nodes":"7","size_leaf_vector":"1"}},{"base_weights":[-7.21388E-3,-6.7712706E-1,2.9330462E-1,-7.085731E-1,1.9989401E-1,4.3214807E-1,-5.629758E-2,-7.208488E-2,-5.6939423E-1,-6.559353E-2,4.3816715E-1,5.3233683E-1,3.4159404E-1,5.558808E-2,-4.1359797E-1,3.9144542E-2,-6.6142574E-2,5.2633293E-2,-2.8661216E-2,-6.2452912E-2,5.3711783E-2,5.468526E-2,2.9614097E-2,4.2222288E-2,-7.1191974E-3,-2.8143236E-2,-6.25979E-2],"categories":[],"categories_nodes":[],"categories_segments":[],"categories_sizes":[],"default_left":[0,0,0,0,0,0,0,0,0,0,0,0,0,0,0,0,0,0,0,0,0,0,0,0,0,0,0],"id":42,"left_children":[1,3,5,7,9,11,13,-1,15,-1,17,19,21,23,25,-1,-1,-1,-1,-1,-1,-1,-1,-1,-1,-1,-1],"loss_changes":[7.115166E2,3.0325592E1,1.1845152E2,1.3951416E0,8.171837E0,1.566214E1,2.7783188E1,0E0,8.254084E0,0E0,2.1217666E0,4.911209E0,8.422119E0,2.4651358E1,4.4752884E0,0E0,0E0,0E0,0E0,0E0,0E0,0E0,0E0,0E0,0E0,0E0,0E0],"parents":[2147483647,0,0,1,1,2,2,3,3,4,4,5,5,6,6,8,8,10,10,11,11,12,12,13,13,14,14],"right_children":[2,4,6,8,10,12,14,-1,16,-1,18,20,22,24,26,-1,-1,-1,-1,-1,-1,-1,-1,-1,-1,-1,-1],"split_conditions":[2.6666668E-1,6E-1,2.825E-1,1.923077E-1,1.5384616E-1,1.6166666E-1,4.3E-1,-7.208488E-2,1.1666667E-1,-6.559353E-2,3.6E-1,4E-1,5E-1,5E-1,5.4E-1,3.9144542E-2,-6.6142574E-2,5.2633293E-2,-2.8661216E-2,-6.2452912E-2,5.3711783E-2,5.468526E-2,2.9614097E-2,4.2222288E-2,-7.1191974E-3,-2.8143236E-2,-6.25979E-2],"split_indices":[1,4,0,1,1,0,0,0,0,0,0,4,3,3,0,0,0,0,0,0,0,0,0,0,0,0,0],"split_type":[0,0,0,0,0,0,0,0,0,0,0,0,0,0,0,0,0,0,0,0,0,0,0,0,0,0,0],"sum_hessian":[3.5322476E3,1.0934609E3,2.4387866E3,1.0557969E3,3.7664104E1,1.7453787E3,6.9340784E2,9.6638184E2,8.9415E1,7.820732E0,2.9843372E1,8.2629224E2,9.190865E2,5.286956E2,1.6471225E2,7.531386E0,8.188361E1,2.6850899E1,2.9924743E0,2.8672798E0,8.234249E2,1.6462697E2,7.5445953E2,1.3524649E2,3.9344913E2,1.0296304E2,6.17492E1],"tree_param":{"num_deleted":"0","num_feature":"5","num_nodes":"27","size_leaf_vector":"1"}},{"base_weights":[-9.1449125E-3,5.470352E-1,-4.5794225E-1,6.739475E-1,4.6727678E-1,-3.4569794E-1,-5.46733E-1,6.761622E-1,7.9666445E-4,5.1454216E-1,3.4139857E-1,-4.591182E-1,-2.4858628E-1,-5.4917485E-1,7.47715E-2,6.212122E-2,7.126692E-2,-1.7930267E-2,5.2565504E-2,1.6112817E-2,4.878254E-2,-5.226765E-2,-3.8232874E-2,-3.2694846E-2,-8.369062E-3,-5.5035926E-2,-2.6426006E-2,-3.0879933E-2,3.57314E-2],"categories":[],"categories_nodes":[],"categories_segments":[],"categories_sizes":[],"default_left":[0,0,0,0,0,0,0,0,0,0,0,0,0,0,0,0,0,0,0,0,0,0,0,0,0,0,0,0,0],"id":43,"left_children":[1,3,5,7,9,11,13,15,-1,17,19,21,23,25,27,-1,-1,-1,-1,-1,-1,-1,-1,-1,-1,-1,-1,-1,-1],"loss_changes":[6.062827E2,1.0664703E1,1.3207642E1,6.086731E-1,3.8067474E0,6.454994E0,1.1774292E0,3.8970947E-1,0E0,3.8312378E0,4.8230267E0,1.137085E0,4.1525936E0,1.0630798E-1,5.233104E-1,0E0,0E0,0E0,0E0,0E0,0E0,0E0,0E0,0E0,0E0,0E0,0E0,0E0,0E0],"parents":[2147483647,0,0,1,1,2,2,3,3,4,4,5,5,6,6,7,7,9,9,10,10,11,11,12,12,13,13,14,14],"right_children":[2,4,6,8,10,12,14,16,-1,18,20,22,24,26,28,-1,-1,-1,-1,-1,-1,-1,-1,-1,-1,-1,-1,-1,-1],"split_conditions":[1.6700819E-1,2.4333334E-1,3.8505748E-1,1.25E-1,9.45E-1,2.175E-1,4.2145595E-1,4.8565E-1,7.9666445E-4,3.3333334E-1,1E0,3.6607143E-1,5E-1,4.117647E-1,1.85E-1,6.212122E-2,7.126692E-2,-1.7930267E-2,5.2565504E-2,1.6112817E-2,4.878254E-2,-5.226765E-2,-3.8232874E-2,-3.2694846E-2,-8.369062E-3,-5.5035926E-2,-2.6426006E-2,-3.0879933E-2,3.57314E-2],"split_indices":[1,0,1,1,0,0,1,3,0,2,2,1,3,1,0,0,0,0,0,0,0,0,0,0,0,0,0,0,0],"split_type":[0,0,0,0,0,0,0,0,0,0,0,0,0,0,0,0,0,0,0,0,0,0,0,0,0,0,0,0,0],"sum_hessian":[2.4268953E3,1.0836919E3,1.3432035E3,4.1534372E2,6.6834814E2,5.954112E2,7.4779224E2,4.1395187E2,1.3918695E0,4.8365527E2,1.846929E2,2.7292474E2,3.2248645E2,7.449817E2,2.8105824E0,1.7242926E2,2.415226E2,7.3856907E0,4.7626956E2,8.37214E1,1.009715E2,1.4615025E2,1.267745E2,2.179357E2,1.0455077E2,7.4096967E2,4.0120044E0,1.1527351E0,1.6578474E0],"tree_param":{"num_deleted":"0","num_feature":"5","num_nodes":"29","size_leaf_vector":"1"}},{"base_weights":[1.0552096E-2,4.9289337E-1,-5.0307506E-1,5.3207225E-1,3.5879087E-2,5.481224E-1,-5.1236242E-2,6.478749E-1,3.76614E-1,-2.0803992E-1,4.2600733E-1,-2.8020654E-2,1.0747083E-1,1.08367614E-1,5.8692217E-2,2.4130203E-2,5.3183194E-2,-3.9016165E-2,1.3114202E-2,7.146741E-2,1.3813659E-2],"categories":[],"categories_nodes":[],"categories_segments":[],"categories_sizes":[],"default_left":[0,0,0,0,0,0,0,0,0,0,0,0,0,0,0,0,0,0,0,0,0],"id":44,"left_children":[1,3,5,7,9,11,-1,13,15,17,19,-1,-1,-1,-1,-1,-1,-1,-1,-1,-1],"loss_changes":[1.6064435E2,5.968239E0,3.3467636E0,5.2991943E0,2.7031624E0,1.7115047E0,0E0,4.0145264E0,2.6826458E0,1.1369623E0,8.068775E-1,0E0,0E0,0E0,0E0,0E0,0E0,0E0,0E0,0E0,0E0],"parents":[2147483647,0,0,1,1,2,2,3,3,4,4,5,5,7,7,8,8,9,9,10,10],"right_children":[2,4,6,8,10,12,-1,14,16,18,20,-1,-1,-1,-1,-1,-1,-1,-1,-1,-1],"split_conditions":[1.6666667E-1,4.8965E-1,4.4375E-1,6.666667E-1,7.65E-1,3.675E-1,-5.1236242E-2,4.59E-1,9.15E-1,4.95E-1,8.95E-1,-2.8020654E-2,1.0747083E-1,1.08367614E-1,5.8692217E-2,2.4130203E-2,5.3183194E-2,-3.9016165E-2,1.3114202E-2,7.146741E-2,1.3813659E-2],"split_indices":[1,3,3,2,0,0,0,3,0,3,0,0,0,0,0,0,0,0,0,0,0],"split_type":[0,0,0,0,0,0,0,0,0,0,0,0,0,0,0,0,0,0,0,0,0],"sum_hessian":[6.464291E2,3.3338834E2,3.1304074E2,3.069131E2,2.6475245E1,2.233399E0,3.1080734E2,1.7407503E2,1.3283806E2,1.657736E1,9.897885E0,1.0498488E0,1.18355E0,1.9300543E1,1.5477449E2,7.23346E1,6.050346E1,1.0688129E1,5.8892293E0,4.201823E0,5.696062E0],"tree_param":{"num_deleted":"0","num_feature":"5","num_nodes":"21","size_leaf_vector":"1"}},{"base_weights":[1.8103104E-2,-1.7345549E-1,2.3669237E-1,-5.14072E-1,4.418089E-2,-1.017892E-1,4.4825363E-1,1.8388316E-2,-5.1691276E-1,-1.8728606E-1,1.23887986E-1,-3.3103308E-1,1.7735094E-4,3.0505407E-1,6.1652744E-1,-2.7800813E-2,-5.2235868E-2,-3.978206E-2,-8.615506E-3,2.720393E-3,2.2515275E-2,-3.8830396E-2,-2.2413692E-2,-2.3342144E-2,2.2564689E-3,-5.2863876E-3,3.763048E-2,4.100779E-2,7.185187E-2],"categories":[],"categories_nodes":[],"categories_segments":[],"categories_sizes":[],"default_left":[0,0,0,0,0,0,0,0,0,0,0,0,0,0,0,0,0,0,0,0,0,0,0,0,0,0,0,0,0],"id":45,"left_children":[1,3,5,7,9,11,13,-1,15,17,19,21,23,25,27,-1,-1,-1,-1,-1,-1,-1,-1,-1,-1,-1,-1,-1,-1],"loss_changes":[6.6743385E1,6.3001053E1,5.33533E1,7.518997E-1,9.603645E0,6.7119985E0,1.0855019E1,0E0,2.8438568E-1,2.806252E0,3.7815666E0,4.541502E-1,1.0498377E0,6.3843136E0,4.121132E0,0E0,0E0,0E0,0E0,0E0,0E0,0E0,0E0,0E0,0E0,0E0,0E0,0E0,0E0],"parents":[2147483647,0,0,1,1,2,2,3,3,4,4,5,5,6,6,8,8,9,9,10,10,11,11,12,12,13,13,14,14],"right_children":[2,4,6,8,10,12,14,-1,16,18,20,22,24,26,28,-1,-1,-1,-1,-1,-1,-1,-1,-1,-1,-1,-1,-1,-1],"split_conditions":[4E-1,3.3333334E-1,2.05E-1,4.485E-1,1.6916667E-1,1.03E-1,3.18E-1,1.8388316E-2,4.889E-1,6.666667E-1,6.666667E-1,8E-2,6E-1,6E-1,6E-1,-2.7800813E-2,-5.2235868E-2,-3.978206E-2,-8.615506E-3,2.720393E-3,2.2515275E-2,-3.8830396E-2,-2.2413692E-2,-2.3342144E-2,2.2564689E-3,-5.2863876E-3,3.763048E-2,4.100779E-2,7.185187E-2],"split_indices":[1,2,0,3,0,0,0,0,3,2,2,0,4,4,4,0,0,0,0,0,0,0,0,0,0,0,0,0,0],"split_type":[0,0,0,0,0,0,0,0,0,0,0,0,0,0,0,0,0,0,0,0,0,0,0,0,0,0,0,0,0],"sum_hessian":[1.5919808E3,8.4856E2,7.4342084E2,3.3028238E2,5.182776E2,2.8613922E2,4.5728165E2,1.0805045E0,3.2920187E2,1.3241087E2,3.8586676E2,8.739931E1,1.9873991E2,2.4856654E2,2.0871509E2,8.497E0,3.2070486E2,4.2013485E1,9.039738E1,1.9804701E2,1.8781973E2,5.519527E1,3.2204037E1,1.6556458E1,1.8218346E2,4.1309937E1,2.072566E2,7.067544E1,1.3803966E2],"tree_param":{"num_deleted":"0","num_feature":"5","num_nodes":"29","size_leaf_vector":"1"}},{"base_weights":[8.967816E-3,-2.6951945E-1,2.369263E-1,-3.725142E-1,-1.6718253E-1,4.3807054E-1,-2.1233188E-1,-1.9499536E-1,-3.8898998E-1,-3.792918E-1,-1.3599497E-1,1.0562423E0,2.632844E-1,-2.7768135E-1,5.12557E-1,-3.4113843E-2,1.2002176E-1,-4.365641E-2,-3.0217621E-2,-4.7473397E-2,-1.5534885E-2,1.338314E-1,-1.9047668E-2,9.5189605E-3,1.0675116E-1,1.4866921E-1,2.3486523E-2,-4.404108E-2,-1.2877119E-2,7.317458E-2,-2.235461E-2],"categories":[],"categories_nodes":[],"categories_segments":[],"categories_sizes":[],"default_left":[0,0,0,0,0,0,0,0,0,0,0,0,0,0,0,0,0,0,0,0,0,0,0,0,0,0,0,0,0,0,0],"id":46,"left_children":[1,3,5,7,9,11,13,15,17,19,21,23,25,27,29,-1,-1,-1,-1,-1,-1,-1,-1,-1,-1,-1,-1,-1,-1,-1,-1],"loss_changes":[7.622968E1,5.6347084E0,5.9758785E1,7.0965576E-1,1.7539067E0,4.9035027E1,9.84722E0,5.4691763E0,8.789482E-1,6.620879E-1,1.9492573E1,9.843292E-1,1.2067652E1,4.5128784E0,2.9537678E0,0E0,0E0,0E0,0E0,0E0,0E0,0E0,0E0,0E0,0E0,0E0,0E0,0E0,0E0,0E0,0E0],"parents":[2147483647,0,0,1,1,2,2,3,3,4,4,5,5,6,6,7,7,8,8,9,9,10,10,11,11,12,12,13,13,14,14],"right_children":[2,4,6,8,10,12,14,16,18,20,22,24,26,28,30,-1,-1,-1,-1,-1,-1,-1,-1,-1,-1,-1,-1,-1,-1,-1,-1],"split_conditions":[2.5125E-1,1.5E-1,3.3333334E-1,4.7005E-1,1.6700819E-1,4E-1,1.6666667E-1,1.25E-1,1.11666664E-1,6.666667E-1,4E-1,4.485E-1,2.2222222E-1,6.666667E-1,4E-1,-3.4113843E-2,1.2002176E-1,-4.365641E-2,-3.0217621E-2,-4.7473397E-2,-1.5534885E-2,1.338314E-1,-1.9047668E-2,9.5189605E-3,1.0675116E-1,1.4866921E-1,2.3486523E-2,-4.404108E-2,-1.2877119E-2,7.317458E-2,-2.235461E-2],"split_indices":[0,0,2,3,1,4,1,1,0,2,4,3,1,2,4,0,0,0,0,0,0,0,0,0,0,0,0,0,0,0,0],"split_type":[0,0,0,0,0,0,0,0,0,0,0,0,0,0,0,0,0,0,0,0,0,0,0,0,0,0,0,0,0,0,0],"sum_hessian":[1.198773E3,5.395028E2,6.5927014E2,2.6757138E2,2.7193146E2,4.5540067E2,2.0386946E2,2.3814703E1,2.4375667E2,3.3427376E1,2.3850407E2,9.926915E1,3.5613153E2,1.8757622E2,1.6293253E1,2.2240583E1,1.5741198E0,1.5486285E2,8.889382E1,2.2653006E1,1.0774368E1,7.659831E0,2.3084424E2,1.2600145E0,9.800914E1,6.920034E0,3.492115E2,8.869381E1,9.888241E1,1.2559378E1,3.7338748E0],"tree_param":{"num_deleted":"0","num_feature":"5","num_nodes":"31","size_leaf_vector":"1"}},{"base_weights":[5.1855817E-2,1.3408167E0,-4.728059E-2,4.6058154E-1,1.7359812E0,1.2385511E-1,-3.1185672E-2,5.7391185E-2,2.0218618E-1],"categories":[],"categories_nodes":[],"categories_segments":[],"categories_sizes":[],"default_left":[0,0,0,0,0,0,0,0,0],"id":47,"left_children":[1,3,-1,5,7,-1,-1,-1,-1],"loss_changes":[1.7097363E1,1.7408018E0,0E0,2.564004E0,3.9417076E-1,0E0,0E0,0E0,0E0],"parents":[2147483647,0,0,1,1,3,3,4,4],"right_children":[2,4,-1,6,8,-1,-1,-1,-1],"split_conditions":[4.485E-1,7.05E-1,-4.728059E-2,3.8495E-1,1E0,1.2385511E-1,-3.1185672E-2,5.7391185E-2,2.0218618E-1],"split_indices":[3,0,0,3,2,0,0,0,0],"split_type":[0,0,0,0,0,0,0,0,0],"sum_hessian":[2.3344498E1,6.3033013E0,1.7041197E1,2.6239517E0,3.6793494E0,1.0066564E0,1.6172954E0,1.320244E0,2.3591056E0],"tree_param":{"num_deleted":"0","num_feature":"5","num_nodes":"9","size_leaf_vector":"1"}},{"base_weights":[-9.499918E-3,-6.551487E-1,2.7486148E-1,-6.8556106E-1,1.8809566E-1,4.3589452E-1,2.7848133E-3,-6.979155E-2,-5.466516E-1,-6.321483E-2,4.1657686E-1,-7.490381E-2,4.4175225E-1,1.2812272E-1,-2.964456E-1,-6.975691E-2,1.3492551E-3,5.5359013E-2,-6.2122582E-3,5.7603873E-2,3.9340537E-2,4.240505E-2,3.8499206E-3,-2.0197658E-2,-6.021452E-2],"categories":[],"categories_nodes":[],"categories_segments":[],"categories_sizes":[],"default_left":[0,0,0,0,0,0,0,0,0,0,0,0,0,0,0,0,0,0,0,0,0,0,0,0,0],"id":48,"left_children":[1,3,5,7,9,11,13,-1,15,-1,17,-1,19,21,23,-1,-1,-1,-1,-1,-1,-1,-1,-1,-1],"loss_changes":[6.291572E2,2.6999512E1,1.0423331E2,1.3544312E0,7.246001E0,1.0704224E1,3.3250687E1,0E0,7.38348E0,0E0,1.98525E0,0E0,9.432556E0,1.655539E1,7.4368916E0,0E0,0E0,0E0,0E0,0E0,0E0,0E0,0E0,0E0,0E0],"parents":[2147483647,0,0,1,1,2,2,3,3,4,4,5,5,6,6,8,8,10,10,12,12,13,13,14,14],"right_children":[2,4,6,8,10,12,14,-1,16,-1,18,-1,20,22,24,-1,-1,-1,-1,-1,-1,-1,-1,-1,-1],"split_conditions":[2.6666668E-1,6E-1,2.5125E-1,1.923077E-1,1.5384616E-1,4E-1,3.85E-1,-6.979155E-2,4E-1,-6.321483E-2,2.5833333E-1,-7.490381E-2,1.075E-1,5E-1,5.4E-1,-6.975691E-2,1.3492551E-3,5.5359013E-2,-6.2122582E-3,5.7603873E-2,3.9340537E-2,4.240505E-2,3.8499206E-3,-2.0197658E-2,-6.021452E-2],"split_indices":[1,4,0,1,1,4,0,0,4,0,0,0,0,3,0,0,0,0,0,0,0,0,0,0,0],"split_type":[0,0,0,0,0,0,0,0,0,0,0,0,0,0,0,0,0,0,0,0,0,0,0,0,0],"sum_hessian":[3.4248467E3,1.046788E3,2.3780588E3,1.0105293E3,3.625868E1,1.4935026E3,8.8455615E2,9.242988E2,8.623043E1,7.514609E0,2.8744068E1,6.7227254E0,1.4867799E3,6.238271E2,2.6072906E2,6.7735405E1,1.8495026E1,2.2226078E1,6.51799E0,3.906925E2,1.0960874E3,1.4414462E2,4.7968246E2,2.0044662E2,6.0282448E1],"tree_param":{"num_deleted":"0","num_feature":"5","num_nodes":"25","size_leaf_vector":"1"}},{"base_weights":[-1.0327301E-2,4.9760914E-1,-4.4704154E-1,6.1722106E-1,4.2423525E-1,-3.317474E-1,-5.40047E-1,3.1192628E-1,6.237531E-1,4.6784103E-1,3.0769685E-1,-3.90332E-1,-1.4323731E-1,-5.4262245E-1,8.414252E-2,5.3759046E-2,-1.5967494E-2,5.7210978E-2,6.5605745E-2,-1.6846811E-2,4.776065E-2,1.3956631E-2,4.4341907E-2,-4.66664E-2,-2.8555516E-2,-2.2453776E-2,3.2845587E-2,-5.4387916E-2,-2.4895785E-2,3.5128396E-2,-3.21816E-2],"categories":[],"categories_nodes":[],"categories_segments":[],"categories_sizes":[],"default_left":[0,0,0,0,0,0,0,0,0,0,0,0,0,0,0,0,0,0,0,0,0,0,0,0,0,0,0,0,0,0,0],"id":49,"left_children":[1,3,5,7,9,11,13,15,17,19,21,23,25,27,29,-1,-1,-1,-1,-1,-1,-1,-1,-1,-1,-1,-1,-1,-1,-1,-1],"loss_changes":[5.2626855E2,9.364197E0,1.349971E1,6.3264465E-1,3.3268585E0,6.263035E0,1.1781921E0,1.2234681E0,3.0052185E-1,3.156952E0,4.248516E0,3.3532639E0,5.3366776E0,1.2358093E-1,5.208828E-1,0E0,0E0,0E0,0E0,0E0,0E0,0E0,0E0,0E0,0E0,0E0,0E0,0E0,0E0,0E0,0E0],"parents":[2147483647,0,0,1,1,2,2,3,3,4,4,5,5,6,6,7,7,8,8,9,9,10,10,11,11,12,12,13,13,14,14],"right_children":[2,4,6,8,10,12,14,16,18,20,22,24,26,28,30,-1,-1,-1,-1,-1,-1,-1,-1,-1,-1,-1,-1,-1,-1,-1,-1],"split_conditions":[1.6700819E-1,2.3875E-1,3.8505748E-1,3.9695E-1,9.45E-1,3.55E-1,4.2145595E-1,1.4166667E-2,4.8565E-1,3.3333334E-1,1E0,3.6607143E-1,5E-1,4.117647E-1,3.18E-1,5.3759046E-2,-1.5967494E-2,5.7210978E-2,6.5605745E-2,-1.6846811E-2,4.776065E-2,1.3956631E-2,4.4341907E-2,-4.66664E-2,-2.8555516E-2,-2.2453776E-2,3.2845587E-2,-5.4387916E-2,-2.4895785E-2,3.5128396E-2,-3.21816E-2],"split_indices":[1,0,1,3,0,0,1,0,3,2,2,1,3,1,0,0,0,0,0,0,0,0,0,0,0,0,0,0,0,0,0],"split_type":[0,0,0,0,0,0,0,0,0,0,0,0,0,0,0,0,0,0,0,0,0,0,0,0,0,0,0,0,0,0,0],"sum_hessian":[2.370467E3,1.0958081E3,1.274659E3,4.1381207E2,6.81996E2,5.711725E2,7.034865E2,9.689636E0,4.0412244E2,4.9410117E2,1.8789482E2,4.3493436E2,1.3623816E2,7.007259E2,2.760629E0,6.4590254E0,3.2306108E0,1.6271237E2,2.4141006E2,7.222731E0,4.8687842E2,8.483316E1,1.0306166E2,2.4962431E2,1.8531004E2,1.1665553E2,1.9582624E1,6.9689166E2,3.8342516E0,1.7462121E0,1.0144168E0],"tree_param":{"num_deleted":"0","num_feature":"5","num_nodes":"31","size_leaf_vector":"1"}},{"base_weights":[1.3500057E-2,4.4995275E-1,-5.0151885E-1,4.907419E-1,9.789414E-2,5.12943E-1,-5.1136978E-2,5.9459436E-1,3.49384E-1,-8.323495E-2,3.8791892E-1,-2.7648095E-2,9.837712E-2,-1.0300315E-3,6.42393E-2,-3.8654257E-2,3.6615543E-2,-2.6174903E-2,3.2972272E-2,-2.914814E-2,4.6670776E-2],"categories":[],"categories_nodes":[],"categories_segments":[],"categories_sizes":[],"default_left":[0,0,0,0,0,0,0,0,0,0,0,0,0,0,0,0,0,0,0,0,0],"id":50,"left_children":[1,3,5,7,9,11,-1,13,15,17,19,-1,-1,-1,-1,-1,-1,-1,-1,-1,-1],"loss_changes":[1.4436095E2,4.9437637E0,3.2064667E0,4.3618317E0,1.9939195E0,1.5106428E0,0E0,5.153614E0,1.7985897E0,1.841511E0,9.139333E-1,0E0,0E0,0E0,0E0,0E0,0E0,0E0,0E0,0E0,0E0],"parents":[2147483647,0,0,1,1,2,2,3,3,4,4,5,5,7,7,8,8,9,9,10,10],"right_children":[2,4,6,8,10,12,-1,14,16,18,20,-1,-1,-1,-1,-1,-1,-1,-1,-1,-1],"split_conditions":[1.6666667E-1,4.889E-1,4.4375E-1,6.666667E-1,7.35E-1,3.675E-1,-5.1136978E-2,8.625E-2,3.275E-1,4E-1,4.895E-1,-2.7648095E-2,9.837712E-2,-1.0300315E-3,6.42393E-2,-3.8654257E-2,3.6615543E-2,-2.6174903E-2,3.2972272E-2,-2.914814E-2,4.6670776E-2],"split_indices":[1,3,3,2,0,0,0,0,3,4,3,0,0,0,0,0,0,0,0,0,0],"split_type":[0,0,0,0,0,0,0,0,0,0,0,0,0,0,0,0,0,0,0,0,0],"sum_hessian":[6.402244E2,3.4661334E2,2.9361108E2,3.1027164E2,3.6341694E1,2.332541E0,2.9127853E2,1.7701584E2,1.332558E2,2.2809494E1,1.3532199E1,1.0256466E0,1.3068945E0,1.30208435E1,1.63995E2,2.4779074E0,1.307779E2,1.6180931E1,6.6285615E0,1.1257002E0,1.2406499E1],"tree_param":{"num_deleted":"0","num_feature":"5","num_nodes":"21","size_leaf_vector":"1"}},{"base_weights":[2.1410247E-2,-1.640576E-1,2.270125E-1,-5.097887E-1,4.3362617E-2,-8.654523E-2,4.121432E-1,-2.0027907E-1,-5.185772E-2,-1.7650312E-1,1.1660122E-1,-3.1666145E-1,1.2184686E-2,3.045585E-1,5.797592E-1,6.1835337E-2,-3.7505846E-2,-3.884652E-2,-7.7596973E-3,2.6778418E-3,2.091219E-2,-3.7622843E-2,-2.0733934E-2,2.369388E-3,-4.3676212E-2,-4.173538E-3,3.7347615E-2,5.221516E-2,1.02199554E-1],"categories":[],"categories_nodes":[],"categories_segments":[],"categories_sizes":[],"default_left":[0,0,0,0,0,0,0,0,0,0,0,0,0,0,0,0,0,0,0,0,0,0,0,0,0,0,0,0,0],"id":51,"left_children":[1,3,5,7,9,11,13,15,-1,17,19,21,23,25,27,-1,-1,-1,-1,-1,-1,-1,-1,-1,-1,-1,-1,-1,-1],"loss_changes":[6.0160427E1,5.9507767E1,4.3466583E1,7.424545E-1,8.384043E0,6.3329096E0,8.309708E0,1.6941636E0,0E0,2.6989417E0,3.2371988E0,4.6687698E-1,1.0225731E0,6.9064407E0,4.125084E0,0E0,0E0,0E0,0E0,0E0,0E0,0E0,0E0,0E0,0E0,0E0,0E0,0E0,0E0],"parents":[2147483647,0,0,1,1,2,2,3,3,4,4,5,5,6,6,7,7,9,9,10,10,11,11,12,12,13,13,14,14],"right_children":[2,4,6,8,10,12,14,16,-1,18,20,22,24,26,28,-1,-1,-1,-1,-1,-1,-1,-1,-1,-1,-1,-1,-1,-1],"split_conditions":[4E-1,3.3333334E-1,2.05E-1,4.889E-1,1.6916667E-1,1.03E-1,3.4125E-1,1.56E-1,-5.185772E-2,6.666667E-1,6.666667E-1,8E-2,4.0186915E-1,6E-1,1E0,6.1835337E-2,-3.7505846E-2,-3.884652E-2,-7.7596973E-3,2.6778418E-3,2.091219E-2,-3.7622843E-2,-2.0733934E-2,2.369388E-3,-4.3676212E-2,-4.173538E-3,3.7347615E-2,5.221516E-2,1.02199554E-1],"split_indices":[1,2,0,3,0,0,0,0,0,2,2,0,1,4,4,0,0,0,0,0,0,0,0,0,0,0,0,0,0],"split_type":[0,0,0,0,0,0,0,0,0,0,0,0,0,0,0,0,0,0,0,0,0,0,0,0,0,0,0,0,0],"sum_hessian":[1.5756869E3,8.2851215E2,7.471748E2,3.1012817E2,5.18384E2,2.7757526E2,4.6959952E2,9.219768E0,3.009084E2,1.2917738E2,3.892066E2,8.267408E1,1.9490118E2,2.8773386E2,1.8186566E2,1.1755964E0,8.044171E0,4.016775E1,8.9009636E1,1.9813681E2,1.9106978E2,5.1934666E1,3.0739416E1,1.9095314E2,3.9480486E0,4.7824127E1,2.3990973E2,1.6283481E2,1.9030851E1],"tree_param":{"num_deleted":"0","num_feature":"5","num_nodes":"29","size_leaf_vector":"1"}},{"base_weights":[1.1175941E-2,-2.569732E-1,2.1988212E-1,-3.6172098E-1,-1.5537466E-1,4.0321177E-1,-2.0594858E-1,-1.8534125E-1,-3.7860262E-1,-3.7023956E-1,-1.2421865E-1,9.6347076E-1,2.4514005E-1,-2.40902E-1,1.0449868E0,-3.3232912E-2,1.0841397E-1,-4.2863365E-2,-2.8827686E-2,-4.6893444E-2,-1.4561045E-2,1.2009349E-1,-1.7762033E-2,8.407025E-3,9.738795E-2,1.1805873E-2,4.605951E-2,-3.2979067E-2,3.6859687E-3,1.7190814E-2,1.2076362E-1],"categories":[],"categories_nodes":[],"categories_segments":[],"categories_sizes":[],"default_left":[0,0,0,0,0,0,0,0,0,0,0,0,0,0,0,0,0,0,0,0,0,0,0,0,0,0,0,0,0,0,0],"id":52,"left_children":[1,3,5,7,9,11,13,15,17,19,21,23,25,27,29,-1,-1,-1,-1,-1,-1,-1,-1,-1,-1,-1,-1,-1,-1,-1,-1],"loss_changes":[6.614212E1,5.4488754E0,5.196388E1,6.859627E-1,1.7236128E0,4.0935783E1,9.025749E0,4.865013E0,9.1944885E-1,6.626873E-1,1.6657225E1,8.514252E-1,9.910337E0,4.851959E0,5.935793E-1,0E0,0E0,0E0,0E0,0E0,0E0,0E0,0E0,0E0,0E0,0E0,0E0,0E0,0E0,0E0,0E0],"parents":[2147483647,0,0,1,1,2,2,3,3,4,4,5,5,6,6,7,7,8,8,9,9,10,10,11,11,12,12,13,13,14,14],"right_children":[2,4,6,8,10,12,14,16,18,20,22,24,26,28,30,-1,-1,-1,-1,-1,-1,-1,-1,-1,-1,-1,-1,-1,-1,-1,-1],"split_conditions":[2.5125E-1,1.5E-1,3.3333334E-1,4.7005E-1,1.6700819E-1,4E-1,2.8846154E-1,1.25E-1,1.11666664E-1,6.666667E-1,4E-1,4.485E-1,3.85E-1,1E0,5.1E-1,-3.3232912E-2,1.0841397E-1,-4.2863365E-2,-2.8827686E-2,-4.6893444E-2,-1.4561045E-2,1.2009349E-1,-1.7762033E-2,8.407025E-3,9.738795E-2,1.1805873E-2,4.605951E-2,-3.2979067E-2,3.6859687E-3,1.7190814E-2,1.2076362E-1],"split_indices":[0,0,2,3,1,4,1,1,0,2,4,3,0,0,0,0,0,0,0,0,0,0,0,0,0,0,0,0,0,0,0],"split_type":[0,0,0,0,0,0,0,0,0,0,0,0,0,0,0,0,0,0,0,0,0,0,0,0,0,0,0,0,0,0,0],"sum_hessian":[1.1798513E3,5.162865E2,6.6356476E2,2.5294295E2,2.6334357E2,4.63899E2,1.9966579E2,2.314128E1,2.2980167E2,3.1971472E1,2.313721E2,1.0096173E2,3.6293726E2,1.9502388E2,4.6419024E0,2.1401505E1,1.739774E0,1.4547716E2,8.432451E1,2.1456554E1,1.0514917E1,8.130344E0,2.2324176E2,1.2872025E0,9.967453E1,2.2926086E2,1.3367639E2,1.4760147E2,4.74224E1,1.051975E0,3.5899277E0],"tree_param":{"num_deleted":"0","num_feature":"5","num_nodes":"31","size_leaf_vector":"1"}},{"base_weights":[5.941452E-2,1.1928337E0,-4.7117338E-2,1.6840716E-1,5.810864E-1,-3.0736912E-2,1.0646194E0,1.549612E-2,1.5102632E-1],"categories":[],"categories_nodes":[],"categories_segments":[],"categories_sizes":[],"default_left":[0,0,0,0,0,0,0,0,0],"id":53,"left_children":[1,3,-1,-1,5,-1,7,-1,-1],"loss_changes":[1.4987236E1,1.4049778E0,0E0,0E0,2.5007205E0,0E0,1.1849365E0,0E0,0E0],"parents":[2147483647,0,0,1,1,4,4,6,6],"right_children":[2,4,-1,-1,6,-1,8,-1,-1],"split_conditions":[4.485E-1,3.8495E-1,-4.7117338E-2,1.6840716E-1,7.05E-1,-3.0736912E-2,4.1E-1,1.549612E-2,1.5102632E-1],"split_indices":[3,3,0,0,0,0,3,0,0],"split_type":[0,0,0,0,0,0,0,0,0],"sum_hessian":[2.2986898E1,6.9316554E0,1.6055243E1,2.872294E0,4.0593615E0,1.5590503E0,2.5003114E0,1.2652923E0,1.235019E0],"tree_param":{"num_deleted":"0","num_feature":"5","num_nodes":"9","size_leaf_vector":"1"}},{"base_weights":[-1.1970634E-2,-6.366076E-1,2.5763434E-1,-6.6609263E-1,1.7576353E-1,4.1314104E-1,2.0379447E-3,-6.783231E-2,-5.29232E-1,-6.112525E-2,3.948848E-1,5.528229E-1,3.6412933E-1,1.1817259E-1,-2.7558756E-1,3.5489794E-2,-6.184231E-2,5.331669E-2,-6.6586672E-3,-3.9326053E-2,5.5717386E-2,-6.988364E-2,3.708487E-2,4.016713E-2,3.4446174E-3,-1.6078675E-2,-5.144741E-2],"categories":[],"categories_nodes":[],"categories_segments":[],"categories_sizes":[],"default_left":[0,0,0,0,0,0,0,0,0,0,0,0,0,0,0,0,0,0,0,0,0,0,0,0,0,0,0],"id":54,"left_children":[1,3,5,7,9,11,13,-1,15,-1,17,19,21,23,25,-1,-1,-1,-1,-1,-1,-1,-1,-1,-1,-1,-1],"loss_changes":[5.5882605E2,2.4080475E1,9.2129654E1,1.2572937E0,6.4204226E0,9.664719E0,2.8334532E1,0E0,6.8246555E0,0E0,1.8627768E0,1.7520065E0,7.8996735E0,1.4693276E1,7.0255737E0,0E0,0E0,0E0,0E0,0E0,0E0,0E0,0E0,0E0,0E0,0E0,0E0],"parents":[2147483647,0,0,1,1,2,2,3,3,4,4,5,5,6,6,8,8,10,10,11,11,12,12,13,13,14,14],"right_children":[2,4,6,8,10,12,14,-1,16,-1,18,20,22,24,26,-1,-1,-1,-1,-1,-1,-1,-1,-1,-1,-1,-1],"split_conditions":[2.6666668E-1,6E-1,2.5125E-1,1.923077E-1,1.5384616E-1,1.075E-1,3.85E-1,-6.783231E-2,1.1666667E-1,-6.112525E-2,2.5833333E-1,4.6315E-1,4E-1,5E-1,5E-1,3.5489794E-2,-6.184231E-2,5.331669E-2,-6.6586672E-3,-3.9326053E-2,5.5717386E-2,-6.988364E-2,3.708487E-2,4.016713E-2,3.4446174E-3,-1.6078675E-2,-5.144741E-2],"split_indices":[1,4,0,1,1,0,0,0,0,0,0,3,4,3,0,0,0,0,0,0,0,0,0,0,0,0,0],"split_type":[0,0,0,0,0,0,0,0,0,0,0,0,0,0,0,0,0,0,0,0,0,0,0,0,0,0,0],"sum_hessian":[3.3163674E3,9.9944116E2,2.3169263E3,9.646106E2,3.483055E1,1.4401266E3,8.767997E2,8.818486E2,8.276199E1,7.1958203E0,2.763473E1,3.7139163E2,1.068735E3,6.1860345E2,2.581962E2,7.310972E0,7.545102E1,2.114359E1,6.4911394E0,1.2909772E0,3.7010065E2,6.066349E0,1.0626686E3,1.4017426E2,4.784292E2,1.7552019E2,8.2676E1],"tree_param":{"num_deleted":"0","num_feature":"5","num_nodes":"27","size_leaf_vector":"1"}},{"base_weights":[-1.1388355E-2,-4.4497946E-1,4.4640455E-1,-3.330979E-1,-5.336E-1,4.6097183E-1,-6.3373916E-2,-4.4684687E-1,-2.5171208E-1,-5.363292E-1,9.039494E-2,5.7012755E-1,3.941751E-1,-5.8812458E-2,4.5440203E-1,-5.134199E-2,-3.7023842E-2,-3.4965422E-2,-7.70975E-3,-5.376611E-2,-2.3551377E-2,-3.0007118E-2,3.6767956E-2,4.8985314E-2,5.9580725E-2,3.612801E-2,6.0605455E-2,-3.9569337E-2,1.1835468E-1],"categories":[],"categories_nodes":[],"categories_segments":[],"categories_sizes":[],"default_left":[0,0,0,0,0,0,0,0,0,0,0,0,0,0,0,0,0,0,0,0,0,0,0,0,0,0,0,0,0],"id":55,"left_children":[1,3,5,7,9,11,13,15,17,19,21,23,25,-1,27,-1,-1,-1,-1,-1,-1,-1,-1,-1,-1,-1,-1,-1,-1],"loss_changes":[4.594969E2,1.1609863E1,8.391251E0,4.7767334E0,1.1754303E0,7.7582855E0,9.005907E0,9.267235E-1,5.2772827E0,1.3739014E-1,5.1498586E-1,5.603485E-1,4.537712E0,0E0,1.0852534E1,0E0,0E0,0E0,0E0,0E0,0E0,0E0,0E0,0E0,0E0,0E0,0E0,0E0,0E0],"parents":[2147483647,0,0,1,1,2,2,3,3,4,4,5,5,6,6,7,7,8,8,9,9,10,10,11,11,12,12,14,14],"right_children":[2,4,6,8,10,12,14,16,18,20,22,24,26,-1,28,-1,-1,-1,-1,-1,-1,-1,-1,-1,-1,-1,-1,-1,-1],"split_conditions":[3.3333334E-1,3.8505748E-1,1.5384616E-1,2.0625E-1,4.2145595E-1,2.3875E-1,4E-1,3.6842105E-1,5E-1,4.117647E-1,1.85E-1,4.7005E-1,4.889E-1,-5.8812458E-2,1.825E-1,-5.134199E-2,-3.7023842E-2,-3.4965422E-2,-7.70975E-3,-5.376611E-2,-2.3551377E-2,-3.0007118E-2,3.6767956E-2,4.8985314E-2,5.9580725E-2,3.612801E-2,6.0605455E-2,-3.9569337E-2,1.1835468E-1],